{"layer0": {"weights": [[0.31184334405044317, 0.07073846889428546, 0.17301806639150488, 0.3961376942675419, 0.33014072977354036, -0.1727599539910556, 0.16795349068978502, -0.026756427092191736, -0.018246687512378495, 0.07258424626641521, 0.025463546488545957, 0.25708166461836535, 0.13453373404755573, 0.021509307315765995, 0.07846467544841833, 0.05898584489855103, 0.26411836106466374, -0.036267199881314036, 0.05534307370195981, -0.1509842222606968, -0.451309102769118, 0.11554453528637638, 0.15281217452916984, -0.13119747967221188, 0.4012397215627899, -0.2570979577084336, 0.008089039470223618, -0.03308974242046816, 0.2709596441336635, 0.25974838754810387, 0.027391093859422056, 0.0668503205003219, -0.1569398305975054, -0.3501586537078756, -0.06150276001142731, 0.027638854071237572, 0.21748672079329626, 0.2125527361593782, -0.06847035478114169, -0.05344008122579131, -0.18535972800805056, -0.2510260781964465, -0.30163002858727883, 0.34468650266885587, -0.09027572929672709, -0.0775046987507618, -0.22151032695890122, 0.13744217572897133, -0.2852995280376501, -0.03760752369270589, -0.15829761943646162, 0.06839534497357445, -0.09029844415996935, -0.20870825587001052, -0.004981961191802636, 0.07571909256259415, 0.011758694753207904, 0.05346998250254084, -0.11213336347456444, -0.0641241845712551, -0.11887533567552928, -0.06356061968059472, -0.1437453125325656, -0.30516653358827217, 0.03136480708684941, -0.07102550613608541, -0.2881916477385682, 0.08221529016319926, -0.16002846800599874, 0.009193806099633469, 0.12857966890009762, 0.022248870177882622, 0.2006055924562091, -0.21881668811060695, 0.07125575484509455, -0.1206193879054105, -0.1538951124359697, -0.10232482359561193, -0.05507522704077623, 0.00992872358957904, -0.20597133837908438, 0.15924512939944016, 0.08231826721932003, -0.271572082030411, 0.2630883045871561, 0.33514902318735035, 0.20838075707278986, -0.031806517876697374, -0.18928410991084432, 0.1864024916367181, -0.07118763985235597, 0.21640168818507496, 0.03734210640289536, 0.17338572439075303, 0.06435090578441637, 0.12794676020301354, 0.005574002144083041, 0.31871404327947267, 0.023924096197264943, 0.07257145001543812, 0.33066978830423904, -0.23964335455906832, -0.22486562407644883, 0.17116367019770673, -0.2064844972166475, 0.34356854852154106, -0.07345620650310031, -0.13236353381719668, 0.3399420135555849, 0.2617205121675671, 0.3301409012958317, 0.16016758048109325, -0.1522446305085525, 0.33765497021077284, -0.04737675024514371, 0.1418555897685368, 0.16745207247627952, -0.02740217199422171, 0.1086840158264114, 0.16301486025471673, 0.06653993828504355, -0.19374730296222212, 0.05490480053802828, 0.23902770905118842, -0.11894986725222385, -0.02343751353900707, -0.07311604912916894, 0.3303003656990266, 0.11998096072582014, 0.07125771645793791, -0.1352875625969552, 0.09718106112773328, -0.11704302141647241, 0.00675393022444099, -0.11245995245778388, 0.11856197067976654, 0.10174542069111078, -0.036796302100046, 0.07000475797961049, -0.1932278012693348, -0.26361958907451505, 0.07767421289031194, 0.02946398970549498, 0.11225875882326138, 0.4212721342957492, 0.16694508109090758, -0.16138945972944824, 0.19694534918756754, -0.23383635042151965, -0.08281582648967824, -0.011561895592359398, 0.3027350909409672, -0.13298526072416397, -0.1467897303474938, -0.01841353471745026, -0.11812856953606543, 0.2019260648565895, -0.18861573191475403, -0.20007712193664684, -0.07463858828414535, -0.08568159985042705, 0.34248367744760844, 0.16800119812013367, 0.015241451813546397, -0.2157838284967517, 0.14928791077322748, -0.17676237688503055, -0.27306688438568255, 0.2100159806059896, 0.05602806753475937, 0.16278637970272125, 0.056343621186920684, 0.15145164667616828, -0.11510743157028651, -0.1829966237995371, 0.11965053701969501, -0.14294678026830646, -0.12291109555094513, -0.08045163113761558, 0.0018183256384818028, -0.06486335732165818, -0.24581470033618036, -0.11833161088436557, -0.39703580706186253, 0.11402781929069288, -0.27800669092510677, -0.1930934589281178, 0.00967714330812035, -0.13222193260681261, 0.2697559743877203, -0.23166431948828298, 0.04726233638574877, -0.003998120603238218, -0.20557183543099863, 0.09292269767154024, -0.030322081713810504, 0.1364345831047219, 0.1455763429007613, 0.3824097022607235, 0.23583173000373442, -0.06569765429354123, -0.042754112352189705, 0.19356663873482224, 0.11463276752695961, 0.11248757875259907, -0.28691572236247764, -0.006084348511030773, -0.1319961101734897, 0.04683495311288296, -0.021415999019931357, 0.15396450304086307, 0.0535753853461341, 0.14263325544182373, -0.0807997452543342, -0.16846426042521168, -0.07634253333203454, -0.005643633983090917, 0.06631758702933839, 0.39958362429672883, -0.004459110417315459, -0.16559489750626288, -0.060052624428568915, -0.08192719229042558, 0.08511470378022698, -0.27237700433644524, 0.011159523826689936, 0.027665324938010747, 0.0408299915315584, -0.1058794599904716, -0.042351137082276814, -0.25271243196331505, -0.08817989306946006, -0.09655181826476777, 0.07180861246720605, -0.20687536323599245, 0.13646592711263267, 0.26261686955883523, -0.36930384345780004, 0.0671599515994993, 0.11592599100965868, -0.1067874922812452, -0.06512405000475405, -0.02093100472765055, -0.05020758240262525, -0.048535035203173885, -0.28826993809974044, 0.2129060975781804, 0.19952405099203532, -0.13516332884938176, -0.2569097763263418, 0.09277577058904214, -0.10178589449511354, 0.025094011098751198, -0.05645181202249444, 0.12223496319890569, 0.12255497998737391, -0.12851101710186805, -0.24482500716204977, -0.28069602252913517, 0.10699479012281929, -0.211357071920406, -0.09107555724815213, -0.10621998630731037, -0.007760183182788919, -0.34149196103211527, 0.030960035083681562, 0.09643453921852142, 0.027689218062015304, -0.035616590331188344, 0.037447951585094966, 0.08952120097597435, -0.4721274159202614, 0.3659667076947443, 0.09007730518980613, -0.09575267910731652, -0.056702953723554585, 0.09834847085847713, -0.01722921469696497, -0.35859538919555817, 0.3649542254945984, -0.01954101208147479, 0.18034276060892768, -0.12235434550072159, 0.271158350201747, 0.0501520246220029, 0.10693738001525764, -0.18607989392129587, 0.21272749199197016, 0.1213367003428152, 0.23149342319469826, -0.10754511172774746, -0.08115752608447058, 0.4097093768581907, -0.18236965073846056, -0.006970509167837111, 0.22574912168299394, 0.04300515065806486, 0.1271442295875374, -0.04858006672122175, 0.08546243857139144, -0.21079628334160427, 0.3115804355856253, -0.009282662827128849, -0.11050536624910418, 0.12874081028312231, -0.07584013285496728, -0.23573035520385102, -0.23806827017302123, 0.12264292521809068, -0.028208865052619353, -0.023635319874192783, 0.1903892740071735, -0.19927419119974998, -0.12941707436586822, -0.06832937876687255, 0.01708534072281567, -0.00624369013440545, -0.048414395384936755, -0.009648078791661952, -0.018068589871023402, -0.12470102635900958, -0.13271028202886392, 0.06831620300572212, -0.1343670577250291, -0.18603749012450668, -0.039401480986482156, -0.018318322182144606, 0.4056377153784472, -0.1183737240795578, 0.16998593234798437, 0.129736301665622, -0.20829956360743393, 0.14060232788521687, -0.20758163466626994, -0.47006292399878824, 0.10718316181008004, -0.31040053464260364, 0.07971470395341715, -0.12091718604887097, 0.29330436503925833, 0.18906845864208882, -0.080013690455255, -0.12234714712813125, -0.21499934163226989, -0.08047321856571647, -0.05041209763699368, -0.06208256987326082, 0.03273572842315222, 0.11053008122168066, 0.08114612451678428, -0.11249785133352642, -0.2338863765550408, 0.255922710005536, -0.11652493279909444, -0.11895228759210093, -0.09592036810532859, -0.33016786688008204, -0.09306014172008009, -0.09152643462509295, 0.10892715330192917, 0.12392795398829415, 0.0005243793503615382, 0.16498236789765736, 0.06009788635296178, -0.002772231864372678, 0.02844834977190086, -0.03370309454207834, -0.06980019223031639, -0.04712222476150342, -0.19851188511852536, 0.04775845070689832, -0.17852434706696477, 0.1441282497772564, -0.04583002295798007, 0.014710803749910592, 0.0992352100882136, 0.13402432101897396, -0.25149888558056915, -0.01212253637825156, 0.17418768628490386, -0.2865118324406503, 0.07362838215509267, -0.4021556178024956, -0.18620300522333413, -0.0026995989171456525, -0.3014458799801467, -0.1782142073610147, -0.2609048378125957, 0.29045795827059556, 0.02917077934217986, 0.10081632473951423, -0.03936376839391545, -0.0624784965582089, -0.2857549651020419, -0.05159004455065303, -0.1346140766981854, 0.15232777216925353, 0.20489882433533974, 0.25653721319268524, 0.1441889375914812, -0.11249727609450105, -0.19727511918608434, 0.14420959726218643, 0.0792766647850247, -0.28985490651296153, 0.08952152007206511, 0.16801957919522023, 0.027423026137696763, -0.02062296210087129, -0.1338157309454164, -0.2551798705853375, 0.13270840743008108, -0.06387544615880382, -0.04618381397830039, 0.30438847288365983, 0.12003600919605668, 0.06520620434207736, 0.025289496476184652, 0.2687424029061202, 0.30398331503246745, 0.16431484186868303, 0.10292373918775977, -0.37027700888600845, 0.023034396618429553, -0.02047962764634968, 0.02184202296827965, 0.1655152270213734, -0.4905929150384383, -0.10405740564139267, 0.05027505255774159, -0.07619246977494624, -0.2428853654682651, 0.16679723124615436, 0.06448565475598114, -0.1553773517095156, 0.07058651776131653, 0.16035620441819964, 0.010786508316384127, 0.1423509622792145, 0.006661765843772724, -0.07428239181529606, -0.20716296624797853, -0.016116394847162208, 0.03467979610327535, 0.15551296307680398, -0.02034831788313371, 0.08086041924485453, -0.1705209240312826, -0.13835059580998654, -0.019514255478085468, -0.18643373462903898, 0.1470202700738922, 0.08571399167203952, 0.05993628439057221, 0.07084391470450875, 0.36165935654960557, -0.08181588124322696, -0.38630342961784875, 0.03658662487415101, -0.010986349428536532, -0.09052525899753663, -0.16853812631890341, -0.07313627786425143, 0.04373611206904558, -0.07472304016918323, 0.43340360019127366, -0.17269619589482543, -0.1449741892600495, -0.4066673873445978, 0.04413737410470398, -0.35603818065214193, -0.09497735893849411, -0.04854952778975959, -0.12546336436201727, 0.3073921654620232, 0.17578575431826463, 0.233192657636521, -0.15599108261081726, 0.1995091290562848, 0.08885717077778846, 0.1387361900871635, 0.19394211805092712, -0.14060126229810604, -0.05756600788430325, 0.1663006240543793, -0.4589802245788309, 0.27087633537539935, 0.09471548136063714, -0.010741182360759653, 0.041057084578077364, -0.17039784386684176, -0.046143343031472495, 0.20729561838069765, 0.23293928205504924, 0.4715434542381275, -0.014257833630383195, -0.11591378788823573, -0.09120824181374243, -0.180508253447285, -0.014118253987002479, 0.06744383835327776, -0.006053710808226777, 0.19380857227569184, -0.04140389534794077, -0.06146099453190787, -0.10275472041947793, -0.28861173617492447, -0.276698147559161, -0.21053394228284672, 0.2384060733447906, 0.17870371734022086, 0.26655403437479464, -0.2120620893333162, -0.3269488632374832, -0.10139129547968331, 0.04273904250544284, 0.10032480721666531, 0.20598602129504973, 0.07511890414280738, 0.3232021782238983, -0.030857053184230942, -0.15784830205528708, -0.2965081612485673, -0.15678926476320063, 0.04262393205287918, -0.1578196690253543, 0.1649751127866883, 0.24957329989221708, -0.41879924539905355, 0.15273831279460118, -0.3959121444852088, 0.07097567612358337, 0.21652857050428226, 0.011465048149224643, -0.226219223045931, -0.10385037718016189, -0.049128143222645505, -0.030231072641983204, -0.024583039776012065, 0.0008527758874341872, 0.06325186416209098, -0.18715300161382722, -0.019496847296142015, 0.2866845994074875, -0.05086901159786935, -0.05899584746520341, 0.20309262686189555, -0.44444153114102264, 0.2134321281390246, -0.10886857355557326, 0.028442533761000584, 0.01671692073332588, 0.16628407257453734, -0.04812247517471458, -0.11995881685226988, 0.22974394152275596, -0.4176266397735829, 0.0037058776134303996, -0.2382818017186985, -0.13462842680185705, 0.355543309542334, -0.007883432114210616, 0.03448377641493694, -0.31438158256222387, -0.12908945366323432, 0.03472194982604436, 0.06619562813237613, 0.11658242094730098, 0.015210852955382386, 0.11014991191200968, 0.094898124044494, -0.3104215687372057, 0.013248255854370262, 0.1436492433780569, 0.10855499499579072, -0.06372629343527782, -0.14068626360469985, -0.19796072238636495, -0.024068793599261014, 0.20049194744300988, -0.3446387642383936, -0.11694649266472977, -0.20144780516057895, 0.1391388930359949, -0.09768935103580081, -0.08303567628899548, -0.03835162801942741, 0.07873514700060812, -0.06936523036365094, -0.5384871026283332, 0.09604488067485104, 0.07814979973167162, -0.03817477196185479, -0.19216212930251378, 0.06167387287540705, 0.06607046145951093, -0.08134438840666777, -0.0351728147536785, -0.16087290812443997, -0.030827569340068934, -0.27532647675402855, 0.07403578887778978, -0.1681756334031365, 0.0416349436807848, -0.24824745139154364, -0.1049491762480727, -0.020068411429510925, -0.2934985634892937, 0.02062219746448878, -0.06669481534797127, -0.3078498714459569, -0.23029672710496057, 0.10700058004875278, 0.15831342757888572, -0.02331837342137707, 0.07155245551479764, 0.03957032538587986, 0.05826966147436393, 0.22733200297598108, -0.26640219665364423, 0.11976204608923395, -0.06767815530296374, -0.04258754409622483, -0.05575646171144352, -0.06760427581139897, -0.21718622791941633, 0.032924489626132876, 0.2956511411398602, -0.0074796318255424855, 0.00264518911658097, -0.12255506851261852, -0.022640286062199876, 0.08119028563012398, -0.06565832294285451, -0.08097710639735042, 0.07140310212854327, -0.1616908667777094, 0.045227700672956346, 0.14580260682256926, 0.2409653045596478, -0.016023255801543925, 0.24171409855328618, 0.18285956131437206, -0.17610717837753403, -0.21530314515394186, -0.05391046408554479, 0.1818918160543355, -0.012778658309340673, -0.10586815997963207, 0.2729447236098374, 0.04670210262654214, -0.4122523612218964, 0.054565378694910294, 0.09106725076198646, 0.03831439248053466, 0.07898274986489798, -0.010384834008150332, -0.23278585271109195, -0.0676094001071663, -0.16746255588020026, -0.1648537376777691, -0.22246791384658884, 0.0799533174605723, 0.01748131527348467, -0.07922717100587168, -0.11478553085763638, -0.004019115867228779, 0.19108586038976824, -0.3543009834368985, 0.06661880350973136, -0.09646915935066773, -0.3331508576782867, -0.34395496107020207, -0.16135884961455402, 0.038804173859127274, 0.06948436651260075, -0.1667540696027381, 0.17793360086464838, 0.24906543146398746, 0.06861820134743316, -0.10674462325263455, 0.19612667887488267, 0.13009682666223948, 0.150711737073703, -0.11759167292689764, -0.5014804397444307, 0.3735103967836786, -0.28433358057083163, -0.0055112491107363265, 0.4216660588598484, 0.058405473058260306, 0.16750689493313664, -0.2655887005603036, -0.31412854636381116, -0.09337020031250524, 0.1934047508397996, -0.06120883310337733, -0.14047318280169682, 0.03499600329330248, 0.19126093244745576, -0.25543175329345524, -0.21399579001562222, -0.139418344494228, 0.19350655442648518, 0.04027547249512105, 0.37571517567553836, 0.16474019637474852, -0.007168451273115286, 0.2210113614563756, 0.033798173016604954, -0.12797146121855837, 0.11869327349475586, -0.12298622256347622, -0.05069919017198532, 0.2347513086439205, -0.01717575547127217, -0.14104484886449567, -0.0811734055646832, 0.18032664876572907, -0.09825411430263253, -0.0683897498128686, -0.09018576537683644, 0.03292256830535619, -0.0680829927297457, -0.2831672831443869, -0.15683291502952398, -0.1648953641664256, 0.21978989198223103, 0.14366183151739642, 0.1038137723722551, -0.08933557326667174, -0.14421293284464182, -0.08974075212613064, -0.18632869737142535, 0.43987965796945705, -0.39928945275010297, 0.096568177917141, -0.22981401563372855, -0.02048311353420868, -0.17507331616771535, -0.20800476801126574, -0.20151259970184976, 0.3098234502478944, -0.023945653788375272, -0.13535830352121886, 0.09821297973535466, 0.0010274961078881625, 0.12669767359910208, -0.3224860630095835, 0.05367009490994847, 0.13659443977573218, -0.29373185481377173, 0.07923048122788941, 0.29984537306761405, -0.0026264956987421015, 0.14520542704428355, 0.1185412281695403, -0.1250705191094618, 0.007029831922939087, -0.2770081465334231, -0.0797798381082421, 0.046967547778030805, 0.12782033084248692, 0.00433562398499264, 0.12724209611012982, -0.19498242683478562, -0.01797806501657804, 0.003406065881390327, 0.32696392038414684, -0.037859673725781876, -0.08821451216264982, 0.00377439879160128, -0.1624778373868163, 0.03407438844345565, -0.06453325478184559, -0.316664964136548, -0.010356736898271355, -0.056134218759250176, -0.28857439666480167, -0.011867753994288622, 0.2632834250958699, 0.09215435386593053, 0.10817446689316226, -0.2371453578998296], [0.08430451765042683, 0.02624242641453936, 0.09352286889518245, 0.07471089108345869, -0.24037754298262748, -0.00731869864981629, -0.1339739061675796, -0.008853700674596027, -0.1586395702138444, 0.23201417417794903, -0.15184630018024992, -0.1589120236828097, 0.013098933239162083, -0.19057876559862244, -0.07505276125250014, -0.1467176565174084, 0.24946233394934006, 0.1389118036586654, -0.010159271554601515, -0.06915805762701456, 0.16633230645098324, 0.07163063824019315, 0.08804405818437865, -0.004630177160141761, -0.29843972520998324, -0.019881364730166926, -0.09413180819655215, 0.11403073952590544, 0.17887016146562146, -0.11631041135984899, 0.08279959384123824, 0.3068629526457187, -0.11803604814999014, 0.2973245669576983, -0.15071730851951048, 0.004058548171568059, -0.0019800931768289088, 0.0020257822327680764, -0.14808381613934427, -0.10450372071814533, -0.11888526783238741, 0.057142051513145865, 0.05964380605965978, 0.395548642432935, 0.24533653942943828, -0.090086858459922, 0.056292168731967324, 0.17466508428024383, 0.0037895597824759886, -0.012994775539354644, 0.008720015434012515, 0.153174659631848, -0.1499632985738243, -0.05757077245704151, 0.08316161670396516, 0.05505658406915881, 0.04235264853746061, -0.06537222809602836, 0.17192166286232452, 0.3772181769392451, 0.07183114400389926, -0.03421074605914512, 0.13323593390025656, -0.09603797398322982, -0.13534730063325043, 0.00020344598928331996, -0.4611509296794315, -0.2015474888469645, -0.05610216771989319, -0.23291884945604208, -0.17264481093579714, -0.06796672598783458, -0.2864578127811616, -0.07700708073265386, -0.10902123986883656, -0.014094030480692559, 0.18777047064892158, 0.017615238526102042, -0.002932362824951689, 0.015294620183220198, 0.03940644708761567, -0.17973884085582556, -0.020289602614579925, 0.0545800242006092, -0.2423184197588379, 0.1530272629692612, 0.19118852469364225, -0.11161211326995436, -0.04294853978750892, -0.1549276926292947, 0.12325187904525164, -0.186799079658544, -0.04200580171488119, -0.15728008948476213, 0.011736736410179683, -0.29694167452343745, 0.27090277432868615, -0.1276880712648713, 0.06592698816607943, 0.022533295346715238, -0.08165222272276242, -0.13233227817900758, 0.1421563715376327, -0.1523176710130092, -0.013172401495697601, -0.1929131301448489, -0.14351998054207962, 0.06788757580028307, 0.1572132191115506, -0.031862848523348725, -0.25189230573727545, 0.3531920731260297, -0.15141795606826394, -0.27251657684216785, 0.4587908573428999, -0.07114189991139121, -0.2580030887323447, -0.12028866201891836, 0.06468336816155347, 0.0342921803168134, -0.1487132128721995, 0.32759693839256493, -0.07724606425669936, -0.1829955508119084, 0.20786700965757213, 0.3047320627089691, -0.018715125200197344, -0.08887603466680855, 0.32956966783361935, -0.2522087852428371, -0.21731390384578145, 0.0862340269789961, -0.09218403549448613, -0.10718187135118346, 0.012582063777446126, -0.06719250907953614, -0.2509101165719055, 0.2199661982721929, 0.23361755921748503, 0.03571337048803851, 0.007978642093538187, 0.41359114144226095, -0.048533728261951604, -0.04400507511743752, 0.0664874608189607, 0.26555439063168096, 0.29088505610964077, -0.036834547928166234, 0.048020806365008335, -0.2628755735189788, -0.08333896361340938, -0.1862432798417788, -0.19512047869718024, 0.3289646701962484, -0.05035511704553165, 0.017043731922324078, 0.1763308781503468, 0.30877877050412506, 0.09228765270584433, 0.42529652168990895, -0.05576552068837086, 0.008448228748668055, 0.005759040981815995, 0.2003651809787675, 0.05596685776425966, -0.03309820824556827, -0.17012239848329583, 0.0423681319218375, 0.24772510824681573, -0.0725234239919109, 0.09405707589436543, 0.046261108177782936, 0.15957841708147932, -0.13125348992947528, 0.426842147437426, -0.2282217084256071, -0.09951414571313422, 0.1027776019027872, -0.012621554756967163, 0.07364398296393018, -0.11894466008393023, -0.02127607618744885, -0.010716542961569642, 0.26717024017888874, 0.14378307548864366, 0.20447431376043146, -0.03788097813068517, 0.17357210850511517, 0.04601539762090367, 0.23943287195591131, 0.3347991156644065, -0.09362342287068937, -0.10119613620903765, -0.1648867819820871, -0.028865641152185893, -0.06775354981240785, 0.063566322437111, -0.024748901233153906, -0.06223731122645012, 0.1944968634189118, -0.15024331506662517, 0.08952140378588647, -0.057607980904879494, 0.1313420225349348, 0.2219615483304368, -0.09409435816992576, 0.018657056748998917, -0.01930241507463828, -0.15033114041413329, 0.04006149364133735, 0.008259981944089178, -0.0075226151163653825, -0.10620987222495895, 0.03853054427339399, -0.08374876563807736, 0.04178026228819138, 0.18368631934850874, 0.22441310500957018, -0.01833382321387446, 0.024654267517386075, 0.026838785078848845, 0.027183469967748147, 0.09356649864373505, -0.32162397733965076, -0.008661140956669186, 0.042687475426443716, -0.17457602502516592, 0.3041410175212254, 0.04895651217088367, 0.2893155016909602, -0.12426915103051533, -0.1511114187360206, 0.040033686261345965, -0.2938236248914309, 0.021385777379596117, -0.0016799246867338488, 0.17036949729235262, 0.08658941920631241, -0.1229342460636889, -0.2393161824727947, 0.2426645346677838, -0.06548517438967262, -0.023762698648327404, -0.022502355643370206, 0.32511122648638624, -0.0034351345030171256, -0.049288384633793855, 0.05169088298787227, -0.043844855301702776, -0.11966963230171394, 0.13398110216584508, 0.18902983701804127, 0.17419061995951118, 0.13613905884473326, 0.07444973120552499, -0.305494410865317, 0.3097446667013151, 0.055691846980514985, 0.09797154971666142, 0.16871883008058058, 0.23179021264142283, 0.09107716996668724, 0.045855733752750184, -0.19952734380792175, -0.14432058469521564, -0.31390351336506067, -0.22341503861123246, -0.17511561613059884, 0.01544699883874782, 0.3057159277018073, 0.6466202419767538, 0.14911891061979116, -0.13592616524104675, 0.28825914236045935, -0.005613019077279573, -0.11263694836602697, 0.022261827967110532, -0.22175596101769168, 0.0397201910467197, -0.015175387587940002, 0.017390956944610625, 0.06816830771104217, 0.015329581267255744, 0.010476468592372931, 0.04808926831075764, 0.050142568481948736, -0.2358780966803905, -0.3407726706174706, -0.05780301208482097, -0.28306591957811633, -0.0999353697980173, -0.035679736528404365, -0.16047505325744638, -0.4120728715544023, -0.2373965232446105, 0.06881962395283846, 0.009622021372143942, -0.003097201333165246, 0.15763461440617146, -0.08499861738538021, 0.0041889981424003, -0.11729248982068083, -0.20331626953959606, -0.1921704588498708, 0.08252328506740228, -0.0014500679484349384, -0.15632908077472993, -0.040205802055537886, -0.2896983719720343, -0.12931553282821662, 0.3844493493417102, -0.010666098431828102, 0.10725693808308195, -0.07852138391814302, -0.06375441360942904, -0.022042875516402598, -0.27331457950833044, -0.09560743750317602, 0.09485313306570166, -0.3588755430869023, -0.37578024771511287, -0.26149072468998064, -0.01598557870425586, 0.09887124297636553, 0.23164135906385452, 0.0714988637411031, -0.0035853734399975386, 0.26788714099891675, 0.1850776213951637, -0.27570591883397116, 0.3857398290415528, 0.24926712324302233, -0.06465537898441884, 0.06194737805608609, 0.23397195073570307, -0.03020517195777224, 0.12910917590683155, 0.19678899378018969, -0.17741928001659538, -0.10945522261842813, 0.12446700920936005, -0.02463020748230793, 0.000844147271798078, -0.18404247040719035, -0.15631057809481624, -0.4698076455114187, -0.3696557186679326, -0.17433380053425804, -0.020723493347765656, -0.04229079152988404, -0.051398976851983816, -0.06053874964711273, 0.00975407723524099, -0.045793292286690206, 0.21500893208797894, 0.03867176386880868, -0.21719962495570125, -0.24139202628686685, 0.20075863567144744, -0.27163148153795863, 0.10389917592685931, -0.042388949489368874, -0.02690912226099602, -0.023529237726530452, 0.21591461910819396, -0.03359028888613288, -0.005115387717092995, -0.2768297838039369, -0.008138469199514496, -0.02699584089016732, -0.11747932124048868, 0.09701761219319317, -0.09109753407325082, -0.0892369111432304, 0.11724690955764769, -0.3889966088709507, -0.12009005081333483, 0.2420890492897452, 0.17191803213965684, 0.08651655630345254, 0.0695098030886943, -0.04379240503131828, 0.20229242311645929, 0.017015539295683082, 0.036062547985842505, -0.01021762527476835, -0.03481207805024436, -0.2664689513923664, 0.10683888077191753, -0.018283758966392755, 0.3258140410320118, -0.013358919952064776, 0.07440854326650326, 0.04368997025278993, -0.10997236260030481, 0.1670462040923674, 0.30057834634415564, -0.11008386447298812, -0.17806691016645887, -0.16022090070584877, -0.40333984096945413, -0.12856430507970515, -0.07837870005359567, 0.14529092774660626, 0.2349032717045096, 0.034838344173140474, 0.04652960375230072, 0.21901177975961755, -0.10544253341502406, -0.21732770110553537, 0.12224437625468666, 0.07659213237511171, -0.04971624532098139, -0.14838779403654945, -0.4056446292053836, 0.056892449922531, -0.174506986349396, -0.3425392364681993, 0.28408587300335275, 0.1145786610754768, -0.2013501042950107, -0.21451143055074948, 0.1562356204359561, -0.15657873839598854, 0.21401933259534073, 0.0440999956759889, 0.010584218189997259, 0.01518243089326422, -0.00473946053941053, 0.13425870400247392, -0.0685786887373506, 0.0733024446625489, 0.21995644397376318, 0.257287181638437, -0.09373647984436874, -0.06982331099764788, 0.009415614063423231, -0.13480028689100348, 0.21902876173836108, -0.16660047518307475, -0.10311209015945887, 0.08031363431018927, 0.007895957326108762, -0.06026228092939172, -0.13715738131270672, 0.06584691297222388, 0.18906541945074506, 0.08570483173724451, -0.1375647112573128, 0.30727671192552675, -0.25129965799532034, -0.268968956704073, 0.1877277576777372, 0.033054876832180946, -0.1209574455193622, -0.2240466205639396, 0.37809233158184663, 0.03990115119876506, 0.14521461639394223, 0.10288732315573182, 0.13959698011101335, 0.19680405681609667, 0.18593915257771343, -0.0855499360507595, -0.039503614161135715, -0.23873033794026366, -0.12564138960537277, -0.000775340769107819, 0.0719812544052061, 0.03928320329866951, -0.09991154602154408, -0.22561290988001984, -0.4710730416721232, 0.2302048642893959, -0.09559799848788023, -0.07927060939206576, 0.023259211233854143, -0.24836782395769583, -0.05678813824888688, 0.37802027954099415, 0.1384684634494314, 0.11125804231749781, -0.2512726362900186, 0.3755447263315965, -0.2825040258646116, 0.30655028013300645, -0.40177282146344534, 0.2398930944955695, 0.34663397285226727, -0.041306960696772144, 0.08920688463927251, 0.051734036466060326, -0.132461486861356, -0.16971864146558716, -0.18778661657364457, 0.046476555766131515, -0.13264087946425002, -0.1551356545227071, 0.15219186980528257, 0.1115791457265954, -0.09363761047590335, -0.1816545225684372, 0.10281045202708607, -0.09466438705099164, 0.017541652401546527, 0.2786762087763544, 0.09274798226854508, -0.12086058867629196, 0.1011403864483747, -0.07003102685963893, 0.33654451403884944, -0.09927683804987604, -0.004788299015143502, 0.013663676077220585, -0.022368657469045903, -0.36020408544709737, -0.19843946854794964, -0.02751459921216793, 0.03022773476231592, -0.061314449074527905, -0.1400420098051735, -0.18061859338531946, -0.04753390029488238, -0.14082024321071146, -0.012905038199974064, -0.11527254365871487, 0.09415868398397136, -0.07784004786309065, -0.01044121309629229, -0.03962281631514775, -0.13566275599450014, 0.11091535716294003, -0.143824105223993, -0.09246922108720325, -0.009252489696641476, -0.19864603904819061, 0.0223309656633978, -0.01588957631948093, 0.021929254367012905, 0.044222030279094805, -0.13648203043331616, -0.0258933012784697, 0.1985785683199548, -0.013774478559756278, 0.2264323429120242, 0.06430088891136337, 0.07193611994564877, -0.1735978904438182, 0.012971872092946615, 0.03636770909025713, -0.10058184813602476, -0.17878962598693357, -0.3229106635608172, 0.2267313919950664, -0.18033796814859754, 0.2509504394401531, -0.06375610401161885, -0.139697460782643, 0.11171018755309468, -0.11141905747626742, 0.1004902890993325, -0.05944109602115253, 0.09041732428226264, -0.13725912060929016, 0.22407739431034257, 0.18357104403162464, -0.022078858374997557, 0.5463659637738785, 0.10773236765046515, 0.372438586875587, 0.19726802653349437, -0.09147184269009714, -0.10533659603018541, -0.10719275231561148, -0.36736714638384044, -0.17592609731756817, 0.013063864698794104, 0.2558822264113708, -0.12494999694662692, 0.180054783944898, -0.20372142759727588, -0.10426945539026097, -0.07904012938666223, 0.0744420080559309, 0.0934000119409955, 0.1775494925544659, 0.1373208228368388, 0.04294786078944185, 0.06900815668396407, 0.2810406377918298, -0.0853303676442435, 0.16261232218177926, -0.25098466252838586, 0.16856761447770177, 0.05304906254377176, 0.0834307948549111, 0.2104433943721318, -0.009763631992556684, 0.051325829900818236, 0.1267080840856659, -0.04253978149532937, 0.13915004863948596, -0.10297551024336885, -0.03560015885965234, -0.11913014431781446, 0.1649279864723244, 0.11481293528271168, -0.026365366770717717, 0.059921991869241596, 0.19138734929176185, -0.004913452943661876, -0.16374509677439536, 0.025209829786608913, -0.34768927438007774, 0.13642998031997838, -0.07448088840991655, -0.0829624918911396, 0.1548056372506272, -0.23835520871618737, 0.3594117185478121, -0.030103267769448397, 0.0013360014894466994, 0.30444491378922106, 0.22189336728784467, 0.4593419035678545, -0.04861960884919119, -0.09176660794070317, -0.3766569509135024, -0.1742445073861378, -0.19692164921061284, -0.11180093587052717, -0.3554585846565324, 0.2521643827952939, -0.2584775513802311, -0.44346899571893134, -0.1705402849394903, -0.09610006277793416, -0.20508090580089236, 0.1926392809986719, -0.026343353518450772, 0.0013023545625335054, 0.10665235991531387, 0.05043775634721767, 0.17298791164106453, -0.19612977543759494, -0.09678844045320126, 0.118381776437746, -0.4423757640878918, -0.21541284455975634, 0.15054663625260242, 0.006341449432322367, 0.24676406987848848, 0.1626526680983488, -0.22608085586011192, 0.014245454521358189, 0.1641718557202803, 0.025933210543065254, -0.149497639792312, 0.1042452765103499, 0.05357473843726901, 0.05202105589851893, 0.10724552902544279, -0.5052887426318631, 0.167626282332578, 0.294803262418618, 0.05738556475561332, 0.022431919147925666, 0.11416440629006794, 0.056165147447033305, 0.11369993729552677, 0.0012284095420223998, -0.13553555045292193, -0.17754085007665463, -0.1764570349892676, -0.2429650326303797, -0.1877265727603388, 0.31641242097805233, 0.14532742606609228, -0.08601474932886535, -0.04649419658487574, 0.028920459964542886, -0.13076190425789605, -0.013060861728519484, 0.11645810839278169, -0.0017883030836405639, 0.06635449726809443, 0.13356810495866883, -0.07508959012302935, 0.012792679277313425, -0.06365149140769356, 0.0046393704965837276, -0.06721168832505463, -0.12207476276944082, 0.0021620135436841575, 0.08181324390227049, 0.01401667885999503, 0.08815942861899251, -0.12960511571796773, -0.21257550330936145, 0.07372357224954613, 0.12160139908792626, 0.008813602826040039, 0.23826227876261352, 0.1599981820095731, 0.47071747106660256, -0.0406782131564813, -0.18001181194717425, -0.13832050637407034, -0.10763862035423048, 0.0725830149491368, -0.3955461983094674, 0.22183835955992434, -0.045755723804665006, -0.04447281848863787, -0.18201554790965455, -0.025614127469439894, -0.019411048661681633, -0.03722830395022442, 0.05954941764575158, -0.11229818906805845, -0.18007829928329294, 0.07206750719309842, 0.001817781604619749, 0.02558779005613751, 0.18573977048313248, -0.18058687188370723, -0.15097298492526492, 0.22224713513554128, -0.2621392194623203, -0.23147355200967298, 0.14457891172613946, 0.042025909216054085, 0.017566409220992837, -0.018018962186051347, 0.0010134592729686973, -0.02134143925412581, 0.23557189769773426, -0.07574666741516171, -0.035128327663260774, 0.3053845493202979, -0.011669464030575769, 0.3864168296136889, -0.018719140336457437, 0.2387692602626916, -0.29560912980185244, 0.025619298976132104, -0.27964613503438257, 0.14602566890932833, -0.22254299938372815, 0.044393581498582475, -0.0511911691635384, -0.20521946859381102, -0.28624824338281496, -0.0903394494592511, 0.3077027211813928, -0.05188131812229623, 0.16214339307012607, -0.010083849635565014, 0.15498486173108061, -0.3229553560564966, -0.07126043125161147, 0.16784061806126443, -0.028899813411840843, -0.01549523283303439, -0.07625068693363267, 0.20302367308151137, 0.05408739823629511, 0.008239723642393323, 0.1147649225624133, 0.10560686646928086, 0.039793098551814836, 0.2753039633915973, -0.00913873188891464, 0.04962129205483264, -0.11359705334726097, 0.026039656664804043, 0.27902226060532664, -0.1144298669362071, -0.19985491027571312, 0.1765032873931163, -0.026298388763866212, 0.016971306089136905, -0.007974980740821291, 0.013986876882436045], [0.1503540034816631, -0.14833760135760485, -0.1788580789749498, 0.015020386471037735, -0.28398109949429706, -0.2427238665668538, 0.32998607812798686, 0.13390274818011716, -0.0017777498633479833, 0.21885077489304813, -0.18395369302267658, -0.05579127717744875, 0.11021247859540265, 0.1574588492107039, 0.09068059791714862, -0.44923142951714995, -0.17113435753651407, 0.08433452079831738, -0.06292392862671824, 0.4490537512058261, 0.16379391444462996, 0.09865587056069997, -0.19745065092439906, -0.006239640981749339, 0.04263923968707467, 0.19936586314363752, 0.15576344346837306, 0.18260841608437078, -0.16332611289974627, 0.24963551048276533, -0.24402798647872934, -0.0947372051726898, 0.07615029766487211, -0.026497340239337062, -0.177843871089779, -0.1451948793021082, -0.27341467028361555, 0.0940603891389228, 0.2229483347465659, -0.01795068938998093, -0.06986866105008599, -0.2596415764288942, 0.1592235289014558, 0.3881073153358666, -0.3165001932383582, -0.18714575155449567, -0.11923940719014654, -0.09899870977694543, 0.04010345079161107, 0.2853069293574653, 0.178328639104656, 0.09326692177399833, -0.1279737239338567, -0.19792417911084143, -0.14085130554279346, 0.27366213324616856, -0.010914776788431772, -0.07899023626120792, -0.03248373073541388, 0.14593386655398788, -0.23203017935176054, 0.2501161140199932, 0.027268242711437067, -0.03840225848373036, 0.07853634618395812, 0.03908656571249746, -0.05844420920713003, -0.04132081175130149, -0.14976609826638082, 0.11981028451974847, -0.0914271838743485, -0.16833363078078428, 0.03330197599791325, 0.24033041976160419, -0.007037646823644257, -0.1098990255680944, 0.06773950375571096, 0.33810191791101535, -0.2597006635979891, 0.06666566869667034, 0.03668195470635057, 0.2057351464675155, 0.1751696490631281, -0.033005819767503046, -0.29778339358417155, 0.14258167743470443, -0.14764261044943397, -0.16695108492153746, 0.20241518344692314, -0.1610773086618082, 0.2473774033583421, 0.05912261881544398, 0.05844585675543543, 0.05973243494343434, -0.27074600710614494, -0.27720194028625506, 0.07784544415639585, 0.14388710613416344, 0.060775539453367264, -0.10117695012714127, 0.0491107134340824, 0.02187539607984544, -0.15962657266704114, 0.18312592018295423, -0.30202340345615464, 0.08932096211767776, 0.0497778541989868, 0.16871417601147085, -0.18053279193823735, 0.017965908838841013, 0.38398830776360693, 0.11703930485023858, 0.017780413688047357, 0.0953113612166228, 0.015267341505816741, 0.3873978571707067, 0.17394484843838104, -0.013455749096880147, 0.0491600585345182, -0.05897181869971248, 0.22997987477530693, -0.21960130963460875, -0.23215750766873128, 0.31086735945140853, 0.40931002674361633, 0.1333329121924398, 0.06584173618964315, 0.16337740069162032, -0.06779533790064796, 0.05117324564196207, -0.013812758474855254, 0.06395306973086178, -0.3332622010737178, -0.14650110843377231, 0.10127932286185527, -0.16042816571751586, -0.19507389060893698, 0.3581386150343395, 0.006763353973893059, -0.10205355394548453, -0.2991716531543965, 0.1289314368221303, 0.12376013680492855, -0.051901439467310705, -0.1940657463615756, -0.0011053902311312833, -0.13352112544076467, -0.14149560531478278, 0.014441466111359798, -0.13503655623847186, 0.13145998917565382, 0.18389760572805386, -0.0807163825487959, -0.16427456698226262, 0.35999459634017106, -0.09237722217809695, -0.035036386201265333, 0.08726119920227975, 0.09727363968289877, -0.09946836648877407, 0.03637351930219861, -0.11000817036347255, -0.21036368923967114, 0.20442523614101019, 0.4088553250150916, 0.29729535009615266, 0.02525747826775307, 0.32442904536275174, 0.06288009201508128, -0.08434794301126503, 0.08400374602474231, -0.011907792529978714, -0.16533733218358473, -0.1516947932123789, 0.16768953637382164, -0.28974747970691966, 0.14110454726534485, -0.2509869172533253, -0.3462507897102838, -0.3408313195533401, 0.2910529584116648, -0.052070336519915245, 0.057089931687160395, 0.3017599085114816, 0.2209256003992578, -0.1152122011053237, 0.24452071314671675, 0.036687861501629386, -0.05312070356806849, 0.02150234395692992, 0.2430221930395452, -0.16855081169621358, 0.0543667632824114, -0.003729480672901275, -0.3176890578754129, -0.14173670943392516, 0.034155653427173686, 0.23015898822671452, 0.1789267858325212, 0.11077733402048982, -0.1319980450709842, 0.33886337994423055, 0.06587061548064893, -0.17191494493756546, -0.07134997546016397, 0.0815413176929296, -0.13998979563408387, -0.008477687523326873, 0.04794853434489435, 0.05129458742968507, -0.0658504731561833, 0.09045381483982487, 0.0706464690994794, 0.44650321447576485, -0.12163388093101465, 0.0653629535964468, -0.07083977814330993, 0.10451814651051644, -0.3640365936451809, 0.22267597553179674, 0.00392820060693605, -0.3256140760849496, -0.0636098935695682, 0.10787244170378513, -0.2807989243518387, 0.00046773428111628783, -0.18632630684678345, -0.09453433273905078, 0.017076403405909178, 0.05047577100010656, -0.07226632763027241, 0.0005559077170904238, 0.014435056068809363, -0.2187722758553244, 0.08265524479640739, 0.108871401419217, -0.1489840431200494, -0.0645544832223268, -0.1678045243430409, 0.05389770870828807, 0.0274708162436336, 0.23353766451662925, -0.12780443826995422, 0.07044826491706066, 0.23237189958976726, -0.08372119931872407, -0.061229958009494094, -0.19722147000526652, 0.4777962948997293, -0.12635395083266107, -0.2282843504211463, -0.14182286660051854, -0.13687732551290077, -0.0480013525797871, 0.14572842229731964, -0.05163356179791598, -0.15900427950256285, -0.26453793402392545, -0.049825049283303224, -0.12912446421272925, 0.08375306730676361, -0.1352885218813474, -0.10560201598995371, -0.3012443561518529, -0.12836969704212225, -0.012471115203438965, 0.04679892935978891, -0.07250074626553912, 0.20553687283741345, 0.07644480770627629, 0.08597803840441, -0.15973911369048874, 0.18745875729704112, 0.15486360932125467, -0.061025001454454206, 0.256069188509125, -0.19404650308668672, 0.00566095369741346, -0.04514020812795086, -0.23246608316433445, 0.033535000852641515, 0.3004173102841126, 0.010587943491744554, -0.08748766414471655, 0.0641817133257108, -0.03267676060649524, -0.1091226480574208, -0.24821356278313222, 0.08338487102515882, -0.010435538709155647, -0.17122624925643617, -0.14859746626567502, -0.20786809579791185, -0.0560198352448668, 0.0036811276193695337, -0.1431526854668848, 0.17963991402970408, 0.0003213880133705731, 0.15490653393214657, -0.05625549788732157, 0.07809585136134764, -0.06097056333969963, 0.1821989075656746, 0.013768708848935513, -0.07892600032863752, -0.2787447267809433, 0.05076445290174404, -0.12519403090275624, -0.0027893978570176395, -0.0872996777131118, 0.16651636397071712, 0.08649293708110169, 0.04615269058186069, -0.19051768179209566, -0.03805338713468237, 0.1520504712156866, -0.2611267728645564, -0.03346696638961917, -0.3481829096266405, 0.1931772116180864, -0.07604699805034788, 0.21909282057391993, -0.26809918845636066, 0.23124685773769665, -0.14962522886005164, 0.043421484301035304, -0.023489327856622663, -0.05227854857139838, 0.32719629700125064, -0.27243621166797527, 0.06031573083274644, 0.1924316880176227, 0.03093008728658648, -0.014227913382535989, -0.024596129136527523, -0.2170175094259447, 0.006740032960608102, 0.08937193815338985, 0.009028981405215377, -0.06478478800415167, -0.1356891124941777, -0.1340582215397536, 0.1314601794575679, -0.4693231597281691, -0.0723539407600693, -0.08858767603582915, 0.2569352493734423, 0.04676878686087482, 0.3508815214563889, -0.29309600400201385, 0.0043323476551227055, -0.1297180769736232, 0.08894806243385604, -0.4046330130847999, -0.09668750436031184, -0.01651656612443648, -0.09467782906639055, 0.19588108750379649, -0.0620337238323028, 0.3834297136840237, 0.21850481146516723, 0.17179236343364693, 0.09881859484986733, -0.18796267763883306, -0.07620778589963524, 0.1002136038114051, 0.11752151313886139, 0.2134406065083379, -0.13653172422532522, -0.20273196833799373, 0.10703311811580622, -0.17802402524649763, 0.12137638662371492, 0.2099143919457143, 0.09799929188005865, 0.009072065129929325, 0.15468024411842396, 0.16555757736229856, -0.10832561596932379, 0.173830432327409, -0.3421878826799419, -0.28188367911267653, -0.22233393611788263, -0.13811385498461623, -0.41741234260837207, -0.12523810169380417, -0.09958818406652693, 0.05837853367187709, 0.10501490932780998, -0.22010426886836373, 0.16044626252575783, 0.3192658684717243, -0.0367711946789899, 0.27782649719117364, 0.033209390064058666, 0.3340376895381363, 0.1563332722251856, -0.27165395267437964, 0.02076977116824461, 0.20270173963230168, 0.032060655258308826, 0.036279586610065605, 0.2764626580945371, -0.03743944803374502, 0.11392277585136062, 0.10040439151206162, -0.11605851127209073, -0.11822022705882784, 0.01544257715978775, 0.01855211984748008, -0.1768634879964789, -0.21779070925702146, -0.15147688452376196, 0.01372022644059351, -0.007756945126964187, -0.09832403542415126, -0.07869748399140758, -0.2695266223156884, 0.078136658274627, -0.007055200599166788, -0.22268507849017743, 0.005187680320922168, 0.23647521007609404, -0.143499226722909, 0.22614974128482454, -0.00037887708785424776, 0.07673159531339009, 0.04486418452547913, 0.2741948593658096, 0.09212392501424103, -0.13485175994749615, -0.18869961621745995, -0.231266621251703, -0.307569118814608, -0.07164686186701426, -0.23292142422187495, -0.043048594845706674, -0.13830692805742126, -0.1646861839583265, -0.1142569883049674, 0.11949429977880546, 0.16890111732215785, 0.08036999495119376, -0.12453326348026093, 0.1460738731730583, 0.12970103970733352, 0.05508532509108121, -0.10553968555587749, 0.12530985316278034, 0.07510457587853929, -0.5487981326251743, 0.11795072393536282, -0.3037397116211607, 0.2179825623947706, 0.03823692190080298, 0.23505998774778591, 0.0009211363061268247, -0.111295904330842, -0.04293681908547738, 0.12559333143064333, -0.08205914078911997, -0.11848965121240387, 0.00759370199278045, -0.036719982604095876, -0.03779532030957473, 0.25233431643976034, 0.2737416061565949, 0.10713048346475894, -0.042214602808409635, 0.2881384959180239, 0.24133559973051655, 0.17293243928082316, -0.18463595966863683, 0.0412993785082208, -0.12578431691105504, -0.027077706864362203, 0.04243647064413234, 0.017796982808515528, -0.07973996674778495, 0.24420323704598984, -0.22253156052620437, 0.26864827600420005, -0.21322290800646548, 0.13399600278706836, -0.12033921048367428, 0.1346355808514925, -0.08591021879053277, -0.10494788850172317, -0.34051350234402744, -0.25997007518020515, -0.08386995275848828, -0.0018676719603835895, 0.46196287099409583, 0.0679170672171312, 0.20372233940877532, -0.2130566428489098, -0.1857959298144702, -0.020204685883259382, -0.15920657864287396, 0.3031275143482362, -0.05304688929632949, 0.26004512099113886, 0.2656857301900533, 0.008881559260289362, 0.08853550788295073, -0.009897298271822333, 0.09898685033967695, 0.11181966775049822, 0.07142391374022651, 0.23854023602339558, 0.45000946993562296, 0.2395680811107661, 0.14245510468829659, 0.02627153582446386, -0.2643267489337721, -0.315001058347397, -0.056541575048310366, -0.29150869526693435, -0.17106696519202935, 0.19912279890858675, 0.3614650850237424, -0.22154917025118126, 0.3635307154062565, 0.025779406586355115, 0.024671590209456556, 0.014870836130940783, 0.23343623867042632, -0.2487475678060115, 0.09455528145760152, -0.15729428381370456, 0.10095229090488912, 0.2736583181722773, -7.377358408299376e-05, 0.06624616127727273, 0.07569328158855308, -0.113326234460338, 0.3542567400796907, 0.4383717379570182, 0.2645736712435121, 0.1519864816399522, 0.04813803159160934, -0.026262709915513563, 0.30977764763945975, 0.2156855038027701, 0.007490823906428562, -0.23420269774848976, -0.47099971530840745, -0.16641742787262, 0.03595710786004306, 0.33382132155838445, -0.04207678369383606, 0.10526751593631163, 0.23245665797302925, 0.03980431241289271, 0.006070658809364382, -0.20802315349730885, -0.21169029428486374, 0.07569610630811939, -0.034610077142603404, 0.02232181854275776, -0.008357598341956507, 0.11788821014288169, -0.13308371282393214, -0.026379602309426226, 0.4139886572032488, -0.025112908915608082, 0.08685261234512581, 0.03058592257169902, 0.21874890163545627, 0.30503182060377465, -0.02594563202700676, -0.0185128131833656, 0.03181514703008272, 0.17591491658041658, -0.08289475735355545, -0.016853670926095826, -0.3641256060071943, -0.20073351258341895, -0.03409254614637273, 0.11937456687788439, 0.03696975350825345, -0.18296370587539484, -0.22468816235816783, 0.038598725838267886, -0.2972817823094961, 0.18710897778465133, 0.01060294300760195, -0.28414731364719775, -0.1707581309750998, -0.12800661461057075, -0.13030068510803766, -0.23656673893775093, -0.0969307440217504, -0.04285577128127774, -0.037449735238889344, 0.2955402695762944, 0.12122171626899199, -0.043907537522760026, 0.03757913312299769, -0.06803810472613049, 0.03572431077803114, 0.19949765391387433, 0.05221965573298908, 0.38182200467493344, 0.058097648779429904, -0.15818939670184437, 0.09929666325294884, 0.1477422624547272, 0.14893387619442888, -0.20458383851795228, -0.015861505573923337, 0.20159651960327069, -0.30208137505994714, -0.0873405710068647, -0.25199007869058077, -0.16485662474979315, -0.17897882959149236, 0.22107572028183936, -0.03539388138734393, -0.1350765938277283, -0.1495413050112881, 0.07366336539438541, 0.06665488549452651, 0.3134414724594862, 0.18215607585506802, -0.08412802574025188, 0.02683992690667349, 0.29037034014405316, -0.058803045261706016, 0.3060336407035, -0.2314821755640995, 0.07015828055649939, -0.14668661716686338, -0.06773702064993306, 0.16206826403808092, -0.07828721709846602, 0.07147044038415216, 0.039574985346200436, 0.12627433037591407, -0.15731934070173545, -0.03941627633807226, 0.07449903828115183, -0.15061448295548374, 0.2880577408562009, -0.13739580478405983, -0.05303364090823378, -0.17446862768384155, -0.36786279145646716, 0.3382840706094932, -0.0031702613126284914, -0.020956269900212324, 0.03830572318031575, 0.31884253249327976, -0.05630998003178972, 0.24154851238505076, 0.01519903767247359, -0.08198767229709085, 0.07496203041916717, 0.15793032267600324, -0.0750717248799041, -0.1174964121869081, -0.19398551940218559, 0.14715255714711736, -0.18740749115878774, -0.41643205599985295, 0.19478122382813115, -0.26293920754651245, 0.1356976690429718, 0.032128088549174344, 0.04983416709146163, -0.10325909253546038, 0.06462805016718302, -0.2948246179462545, 0.10395136993189821, 0.27636137654132464, 0.161153005781503, -0.34583104023190214, -0.1577595529517223, -0.00292005244490484, 0.1267858406258085, 0.03458889389967656, -0.025744669316374567, 0.1499398088091447, 0.23548034873964, -0.026195157013606057, 0.133090248870815, -0.4203552843871899, -0.1261129863269749, -0.02825239322896181, -0.0874764127423057, 0.017682036986961, 0.1057206638440192, 0.021684722505336183, -0.1539064549996744, -0.2880942141543429, 0.09236205551090736, -0.32454418636171045, 0.11606106169337027, -0.0330287576239585, -0.20786022338188095, 0.05078039839767303, -0.0005084279233920653, -0.00634838595229627, -0.013960093165088634, 0.07767372679885173, 0.16147570172229753, 0.07956909996100969, 0.1700028607805357, -0.01709844701558868, 0.2717560771431882, 0.06891016204042846, -0.1587307833259112, -0.2830085619221636, -0.04830910772782919, -0.28117308220312526, -0.18771792067100587, 0.029389224506936693, -0.1358897648648232, -0.206958022669482, -0.050674692272446746, -0.02754053826870353, -0.061583475228364055, -0.07682768656573838, 0.14756076796907627, 0.05996145276108333, -0.0392438317347018, 0.43593676335034093, 0.034264933897811954, 0.20011212659030603, -0.09916836785782421, -0.24093619653189996, -0.13996410031503162, -0.04726051197823179, -0.08906661325096323, 0.22869390250046517, -0.032162481229678186, 0.06471956677048318, -0.034264543818981356, -0.10800735071806307, -0.026819502019569518, 0.26964730423768435, -0.1602112226910685, 0.11908565252933263, -0.18928562183546804, -0.08556738699875185, -0.00705816624965345, 0.04672336929725226, 0.2530449782332754, -0.015572472176466508, -0.1534029974740155, 0.11285520183224995, -0.06486859313423164, 0.04219333933753968, -0.02054541878079696, -0.34355787962209194, 0.08985545025127446, 0.10312586838765511, 0.16380212878770115, 0.3182798571523727, -0.2112664956094138, 0.0913058467143816, 0.07234177168245863, -0.0742301674728462, 0.06926753899191418, 0.08710117414548042, -0.21634165123785398, 0.04258499970502601, -0.1627163619763351, -0.11672259107247644, -0.31492048736360334, -0.08470343419618172, -0.03608955542159183, 0.09682262499943306, -0.0003488581572591358, -0.2730900830021209, 0.15140072905700966, -0.02235644009606236, 0.08496626680109325, 0.16897968282256082, 0.2512094676561614, 0.3466992259065198, -0.012770129030308731, 0.054999551406432715, -0.19062910997106683], [0.18766616978518125, -0.20946048674987444, -0.31912642769475913, 0.1467928938446499, -0.09222378762801427, 0.13746284543428341, 0.07213808794574961, -0.28814648197272846, -0.48077593029140986, -0.19385363290756927, 0.0029153105690047443, -0.2159815828389795, -0.11546756075648246, -0.2580751281248548, 0.03002471033674058, 0.016055667478739422, -0.08509899721931694, 0.24696858707984365, 0.26476111302566463, 0.09992606802396851, -0.31815760174981483, -0.19528347354976294, 0.07197115448392225, -0.11111433183928922, -0.08610641360532363, 0.158916485194705, 0.09031076272439952, 0.23231187791905278, -0.07587420105175814, 0.24310780511453048, -0.09795749062019952, 0.2650751502521601, 0.01870911536074311, -0.15212826507151944, -0.28885460185515377, -0.05410704808077865, -0.0442275069089048, 0.15294024473063172, -0.0189562673556936, -0.07573700924242033, 0.18961944890735102, -0.039846810931870424, -0.09923302327923676, 0.10368232930817782, -0.08896864078504742, 0.11587412053716567, -0.10540319817900216, -0.03961412381859267, 0.02749474126611583, -0.06590201669663596, -0.0024251413267202754, 0.14404623740670675, 0.07258482775243734, 0.08502426062643977, -0.11232929303000651, 0.15076042808613938, 0.11836301785027711, 0.17755790550052736, -0.12840461299536485, -0.030619911050284634, 0.1119571843899807, -0.10763061774410976, -0.04022699522270961, 0.3402645387257071, 0.34748239495795713, 0.22336475338038922, 0.16839411988351727, -0.17792369650807333, 0.09087242580818215, -0.06342327360917246, -0.1832260976556787, -0.08322113620091619, 0.024275570826772463, -0.08864373226925058, -0.08625013052738979, 0.1511062102710126, 0.034398015238919534, 0.04740556939147575, 0.023300174563596916, -0.11776777273574067, -0.24271340961601592, 0.05398972457972337, -0.08963226022147254, -0.355459444401686, -0.069396742544742, -0.19307867821389138, 0.1235018242354214, 0.09192044838508354, 0.08779550121351017, -0.11784027561168348, 0.13138880512457102, 0.058049059593490444, -0.06989273820958036, -0.07409896364565871, 0.15138601463510457, -0.10997940673997637, 0.01168316073134643, 0.12859261705434297, 0.2751909506547939, 0.23176807482336045, 0.10810953261266172, -0.2879971159221292, -0.11528771044059831, -0.07567176940199376, 0.3023821194635, -0.10195374153954143, 0.09561282243102362, 0.036736243754888556, -0.15691917506214972, 0.06697405121744154, 0.07011405650727234, -0.2219917336307876, 0.2161762338428898, -0.3688463476043105, -0.10450896466601481, 0.1710767348758335, -0.21327662640013592, 0.05509975031007418, -0.2342378903676546, -0.022158971479572107, -0.41385715642688675, -0.15403172274267454, -0.28435912476018893, -0.06359881746681012, -0.03163723245478012, -0.08717031492050294, 0.1605275642030243, -0.1664105817108348, 0.1089467274111214, 0.2925314501596178, 0.06639173400381483, -0.07130245270953266, -0.1400190588979859, -0.06786955166887457, 0.17193124487208694, 0.06806784558551074, 0.18468517510612006, 0.13774629452640763, 0.025225490379135875, 0.08384685767286494, 0.3279642938629646, 0.2502550293392683, -0.05391824126566704, 0.17052760247953527, 0.09452154431725715, 0.18095616394808994, 0.08830306752308498, -0.21604461533619262, -0.32949937522305617, 0.06237067209809981, 0.29064913067482345, -0.1302961019716307, 0.03042798515803772, -0.1071783150052218, 0.2778375146177584, -0.32411869629300666, -0.3187639926083479, 0.1453041196246573, 0.11082951640218781, 0.05783149709770013, 0.030428357813308323, 0.13273599040847778, -0.04196413879809742, -0.1480834215764192, -0.13558329464298144, 0.1606757479987182, -0.09184460060882528, -0.24462659684240692, 0.018062746968094456, 0.08924391639317518, 0.23376153653364265, 0.028434697457337663, -0.1384058899480853, 0.03958770301893081, 0.05086876523031272, -0.10038956798157873, -0.0805288702333634, -0.007283340822096628, -0.09533984946354798, -0.022766989520599662, -0.1860941589242725, -0.20817832786963975, -0.13320253078321617, 0.15915387570013076, 0.03786191134360156, 0.11901659131825316, -0.044914102691206735, -0.09240066074413414, 0.24566662425383992, -0.013006662856439604, 0.21290112460813154, 0.13030593290102466, 0.40357856271877723, -0.038790003558251365, 0.15804420236203381, 0.15698519691720328, -0.09813340082860794, -0.031227969239189406, -0.26025710349531767, -0.2903512463053989, -0.015860639083592316, 0.0710635240426651, 0.009285123274312553, -0.052804781712575244, 0.08135696313217741, -0.1552975888416813, -0.10782973930879891, 0.01117858564180482, -0.029283979928881796, -0.14737610033058332, 0.13399131683170348, -0.239704809044484, -0.15073066701802676, -0.17726594484333508, -0.0034967549488589883, -0.046735478459168776, -0.22583301407008904, 0.04970137300329049, 0.14730221568529892, 0.13800938704000162, 0.12077936413250008, -0.3326559564655523, -0.16070878170574088, 0.08464009818815059, -0.009986723377939287, 0.09072255078337013, -0.22993600012364693, -0.032603091628503944, -0.28954058231587565, -0.4020967985118319, -0.026188974776806262, 0.07136576112040992, 0.035363168172743084, 0.009148933380421798, -0.3292699729886704, 0.09260497952705352, -0.07295210936677518, 0.26447463344018957, 0.032559970071010004, -0.45951844004914627, -0.0007591818691546866, -0.3753970359708841, -0.2709534828467845, -0.17356953320886634, -0.08840258679886578, 0.020590463636480337, -0.22606118009341802, -0.20352298839669863, 0.11020128847237125, -0.006840035608015012, 0.027500909530639536, -0.38842850900452036, -0.03132910748814974, -0.1597977716076225, -0.17293213274773556, 0.13539424476024353, -0.23781707466754595, -0.23704257561730271, -0.07760178131575421, 0.10933547970995114, -0.07469394885391892, 0.23987077255882347, 0.24178401185765738, -0.09885722745056043, 0.04499338699878966, -0.1421239306940615, -0.3923196048455934, -0.08952827689005542, -0.02745890367360348, 0.2376756331930068, -0.22401427827502107, 0.0939194353203541, 0.11970700927255308, -0.011050659952646391, 0.080193639572097, 0.148693192604375, 0.3217378265626085, 0.06816255582300003, -0.014411416114974238, -0.15449238742958896, 0.05395547417853959, 0.17880927251617348, 0.03173630881951682, -0.1645253971565412, -0.013604301951958211, -0.03926663360512954, 0.0830849585700553, -0.16315662578575202, 0.22178125677690794, 0.1712193466701958, 0.16792746474718095, 0.18246828009100524, -0.10830217811547864, 0.05530997572170047, 0.09350194961029248, -0.2195678729686983, -0.40234330515832817, -0.321786673608057, -0.023058902663390765, -0.06982045158167362, 0.019248357226653957, -0.019614356023133904, -0.22311653541067727, -0.12123344755201991, 0.12712217271102608, 0.011686806167142254, 0.11268293643915105, 0.07679576335282313, -0.036239700361163, -0.03395924827137655, 0.3150210119848728, 0.04802834918614137, -0.03312863874732572, 0.1085995088086588, 0.13645791343446073, -0.20081071047422294, 0.2622553230752289, 0.4225483179683207, -0.031065852246209696, 0.38879027456070603, 0.17718237804725628, 0.1784416670348244, 0.25396198864332525, -0.024444284462982108, 0.268841301335867, -0.20170507088637962, -0.16831212202436274, -0.15144372900398864, 0.07144441895456616, -0.019387070891002358, -0.1886425779574612, 0.006372457363501711, -0.1333126638509659, 0.12567392467631852, -0.0597761440989629, 0.012546753189098859, -0.07167977966505881, 0.073374300460676, -0.04459351111129197, 0.0414417406053941, -0.453932701676254, 0.06922804291673007, 0.1944854543739487, 0.13442165623001556, 0.24264843817277412, 0.20268779064662645, 0.2540067223548192, 0.10943060186712623, -0.13570992087185585, -0.18337562011871247, -0.050059767986957104, 0.18814476938171804, 0.07340931879409622, 0.12836513845543002, -0.06153576016897589, -0.09396962812905132, 0.13620395232220112, 0.21509223230605967, 0.038505065841708055, 0.041465377146612234, 0.07958245762082194, 0.08435548772981268, -0.206095044106026, -0.12781747037791494, -0.21752961601735027, -0.0914488758239497, 0.13708333164212855, 0.0872733567519098, -0.17957303361159824, 0.15185608409960832, 0.1333785390312737, 0.047642100024849345, -0.13863632328824455, 0.0184741760531961, 0.13122038399183933, -0.2998049415965036, 0.03344454277319994, 0.5644796811830048, 0.36909166081286654, 0.2851863701300563, -0.017732198961551572, -0.03075375482614853, 0.029126435252858136, 0.31234721905136664, 0.13853689147973572, -0.07179302783105637, 0.2549749568814731, -0.03337835725260942, 0.2940991670945278, -0.10825945225695678, -0.18338015733902557, 0.02917659268357137, 0.17360892435494013, 0.18248394548573302, 0.025275025169267714, -0.1750122053753526, -0.06976787841452747, -0.3127038785828102, -0.06979495249705953, 0.06222953126585574, 0.13593423962284953, -0.06195042412599295, -0.005109634643983052, -0.012125988133013861, 0.18461110891139407, -0.008442240107056255, 0.33535714470846295, 0.4431172245971647, 0.1713663130464193, 0.00862130907343818, -0.09089159141882308, 0.17713568129128546, -0.20470026362018767, -0.16899918948011255, -0.2144072810051378, -0.23860944450581173, -0.19927970227131214, 0.12950472897702311, 0.1879403876640669, -0.12327596172054596, 0.03663701895395009, 0.13395024906257505, 0.01606154041872945, -0.1692739219776695, -0.2595423144570086, 0.18085457687147719, 0.16099323910272387, 0.18306388729104345, -0.126572056983752, 0.03987878860601789, 0.07369562847908719, 0.0711806751780841, -0.03845332672213663, 0.35161954317211563, -0.06096663225317308, 0.2640301009234864, 0.2667165406187671, 0.32636157575499264, -0.10222129077006405, -0.2788985746644899, 0.04679836364761529, -0.17751987062448293, -0.027634491800893564, -0.0843968218428833, -0.18610149122028108, 0.039294303033504036, -0.25434248726190345, 0.10405200920438372, -0.1709339368933206, -0.3065181621110164, -0.01359562725400276, 0.06210275782438939, 0.061077710994256545, 0.09142755789597766, -0.3920098162242369, -0.110396641962154, 0.11905017775915705, 0.3116844972169308, 0.18466953935282787, 0.4365165503013064, 0.07940596261203414, 0.24947415724660876, 0.03805556879658377, 0.10222817009927265, -0.0030403947488616295, -0.106964067038668, -0.15475424873336321, -0.15017050951972433, -0.09939266173323152, 0.02432834239251894, -0.020249170443459644, -0.08753420620006558, -0.121791739057733, -0.08187896870721055, -0.09140081008894758, 0.0859886226959831, 0.1530046829028573, 0.2250059566249483, -0.1473778155371754, 0.05400338780673037, -0.32151484504829286, -0.036271310487277615, 0.13881101127486262, -0.01465312976683111, 0.26467550603695006, -0.05983198884523886, 0.04415769838033571, 0.21711432078491041, 0.3924983434146035, 0.09013104555695974, 0.10303551076025198, 0.018780976129708624, 0.1427867032031403, 0.16261381441716963, 0.020966471920302234, -0.010232659061701638, -0.10880650941252056, -0.16090495605532662, 0.06261111978609993, -0.03603226983407363, -0.06142136961031567, 0.1263855252927227, -0.04467145110795257, -0.14924608203343204, 0.16057405779085068, 0.014224156754067142, -0.18890919333038544, -0.23235933270613202, -0.08208716246551631, 0.29115637547501894, -0.161043790207432, -0.11354545908621791, 0.27367712569713165, 0.10809337811818884, -0.044495483299922804, -0.051768106684241796, 0.3625089852386961, 0.16149454789894532, 0.21995798242397557, 0.07937676725807354, -0.11552340732155994, -0.11622041664231436, -0.07725518408945752, -0.22116938251397888, 0.0749727335502306, -0.23972040232707936, -0.0874842464180708, -0.06577619816536694, -0.14586196105791255, -0.4077335074421232, 0.07819226188883589, -0.13396586591035073, 0.2343547177714222, -0.060966980925970866, -0.09883071839687411, -0.02308898637121578, 0.09070668467448006, -0.20504371956956988, 0.08383604323008333, 0.1494450402832229, 0.09835010727261959, 0.27564782223215795, 0.28841751470215465, 0.3177865229415817, 0.22656293241158576, -0.03128050732873095, -0.05252076225095954, -0.337130565039954, -0.218944291993604, -0.14711690291391896, -0.17324615379225103, -0.0880192640359108, -0.17492960659287513, -0.27147261400443523, -0.026178591680222175, -0.04409093820698988, -0.15262979768724247, -0.13673748974267072, -0.16659295585399114, -0.0702930922264887, -0.1513743839293883, 0.2223668763326048, 0.03844274213352532, -0.20841539470281004, -0.1264668209830445, -0.28354359578646093, 0.09063951327531244, 0.17049817514334828, 0.1648019265358768, -0.2284234585903112, 0.0062315782404059085, -0.10029861046983472, 0.02430070222848529, -0.2104063069871007, -0.06125156063173864, 0.02754911194226698, 0.04502389344626402, 0.03854729780523956, -0.1590649179336088, 0.0512578876054357, 0.11651830032569767, -0.03525944397417241, -0.2184887862384167, -0.22102674840890382, 0.09816044756059543, -0.08803766410089331, -0.30313502328454217, 0.10839465177658732, 0.022907722786278988, -0.24852384053557472, 0.20343007032317248, 0.12257070151058883, -0.030052549436072835, -0.28204756820745464, -0.30366258708250243, -0.09585045177326135, -0.3130205616323522, 0.07501040956227305, -0.22226667858730947, -0.010140219584230213, -0.07336309490038355, 0.18475771323931786, -0.03550386026259405, 0.16791481741924735, -0.23168995354180158, 0.07871747045661948, -0.10527633134439332, 0.02125243172961713, -0.22959506639480304, 0.12044668026373063, 0.07028224727622832, 0.05461941802958007, 0.04864611550406791, -0.040284066562893614, 0.21772749924809684, -0.02755920257037174, -0.13066255768875065, -0.010380479134346927, -0.1716338803933077, -0.09707039546391158, -0.06817890875594564, -0.11891679974071563, -0.02594139372426296, 0.28594427943915424, 0.06547048935056922, 0.12502756709912524, -0.1137395003386041, -0.11490042400751607, -0.01568375032464881, 0.23996949269452802, -0.22580733677042758, -0.0734091709590453, 0.03883273077166353, -0.06864782806741118, 0.30027004282532915, 0.07273490077467999, -0.06260413471889999, -0.21612445731133592, -0.04555183961363184, -0.2326954491858937, 0.08017532342779693, 0.02678865638514165, 0.056518350711768806, 0.36754984710654964, -0.1604188372895995, -0.03401258001532781, -0.2151664487398126, -0.02382918409873911, 0.2493885304243288, 0.04169357176286339, -0.11102373537503948, -0.06094460438977301, -0.24494398272279083, -0.10826947701433497, -0.032338341069539325, 0.004408426217554147, -0.2251732464039894, 0.1383701440238515, 0.16214366706318306, 0.007163120634118613, 0.0409104479529634, -0.23674028245262443, -0.23732048810873346, 0.08546288553576652, -0.04570210516536009, 0.05439726060720236, 0.16964774996563187, -0.023357836551098448, -0.49771863308531306, -0.02652976162441491, -0.08570029268301373, -0.04148849236198377, 0.15905143970295693, -0.27904734969665584, 0.042948048448316845, 0.27089818733112325, -0.1338095799068828, 0.03460830342867746, 0.08279566411197788, -0.06688111397910784, -0.20275238994150294, -0.18752866780404714, 0.07641003395240137, 0.05840939293172354, -0.19374092054415898, -0.2614040017359382, -0.2590342144983187, 0.24651323858587829, -0.0479175313463368, 0.3871502550818342, 0.1184451389563938, 0.12753151196544812, 0.10466768573428185, 0.2187875866874463, -0.15107252102115523, 0.3935695792421771, -0.019093389302570665, -0.12478705625064496, 0.05326246503238747, 0.19310005664876717, -0.1781122212709279, 0.10020929432501102, -0.1266391453801252, -0.09036542378824645, -0.09376217233016816, 0.12075897916958621, -0.2266665139198123, -0.00883553728428736, -0.11200452389465093, -0.1934610794617559, -0.24243434185257637, -0.2397804051167415, -0.3060180516498152, 0.11495663605009984, -0.09088325782848967, -0.006619757415478027, 0.20660307905425332, -0.19143569923176143, -0.14114825016845892, 0.07337836942485493, -0.28687713830746847, -0.07261883812493276, -0.1507202685936035, 0.06664825024803027, -0.07503880101819127, 0.3547872139336042, 0.16555413913422418, -0.15083267955010096, -0.06846798951760263, -0.06144484152948341, 0.5845252861883932, -0.2668955290373972, 0.036521102217229325, -0.3693895227837668, -0.003931672356227192, 0.3295216433273078, -0.08237313042073299, 0.1882173581867492, -0.013591316997619072, -0.06514370210298126, -0.02268689918667377, -0.09433052998425001, -0.11509754375120146, -0.2405922714230988, 0.2671031919076247, -0.05882340817293636, 0.057982838621467796, -0.14909787768616306, 0.20651489061284412, -0.04052898985193096, -0.013450449301068517, -0.32185199504170464, 0.0699748513945024, 0.3202314469746983, -0.15363266360944314, -0.08100423548009954, -0.20122914751023752, 0.0228328623195421, 0.01131798612498691, 0.12464190703830484, 0.09746705648782053, -0.1437943442122319, 0.0393543248409284, -0.058807272928255244, -0.19364539419420676, -0.023011777965239667, 0.6696931386580669, 0.4090982137637681, 0.02518634334601294, 0.3051184539569738, -0.010719001445100485, -0.011718950682970358, -0.34563037352192105, -0.17123266847573687, -0.1406441607029422, 0.017951177207007746, 0.0022364650362967837, -0.10212989565902808, -0.10344224299005217, -0.02945857238868118, -0.24420138645188605, -0.10830022011324304, -0.06740316313479532, -0.22078506498288325], [-0.058378363433029636, -0.14757445157958946, 0.2183868166870897, -0.04309882955902562, -0.03350725684219009, 0.07566539425331253, 0.09845901843601661, -0.30692708840005084, -0.06660664964831747, -0.16069573055265893, -0.02566271602388288, -0.09481109067765746, 0.027766220576021187, -0.17332234530351168, -0.10036801665362613, -0.10450325266474754, 0.19137692482850163, 0.06505447074468391, 0.06521092665924141, -0.05061439948461082, -0.0680091505147188, 0.09917223668047999, 0.13743220162752967, 0.0026775987078330723, 0.2018167509934603, 0.22524091505972965, -0.29427981806996295, 0.0760809569773996, -0.007531028131909093, 0.06864041335395656, 0.19727864265318218, -0.16272969436574133, -0.286426701300985, 0.1955488729359272, -0.17661188423152951, -0.12150310157382954, 0.03606435304830264, -0.12134916595038622, -0.2816078288425247, 0.005827052039534455, -0.13816990370459853, 0.10586410298720865, -0.08926381239589501, -0.12226143738128169, -0.036927264168162145, 0.18598393656301873, 0.1603287766642064, -0.19341555537270216, 0.4946298493297551, -0.05770741146718514, -0.20372435887570356, 0.1570187158575783, -0.06393526179091615, 0.3807274171917925, 0.14980204864878324, -0.035129037720319604, 0.2784775439235623, 0.1501037810098502, -0.21724003178005954, 0.15712777944935735, -0.0912748432094037, -0.01476132510189869, 0.02201824669341522, -0.15714173734213624, -0.23860229710583328, 0.060457369949565846, -0.25102629916711694, -0.45716742635460017, -0.14699588490819757, 0.0603639578658726, -0.04666227927644274, 0.22097390598367553, 0.03040276845331803, -0.1353572703428344, -0.07661895875918838, -0.25496561669365586, 0.19063253716348155, -0.2448962768464175, -0.16362038940137397, -0.029604147698263732, -0.00029635481192831286, -0.2656432216075454, -0.16007762535171444, 0.04685300178329717, 0.19970876200290472, 0.06169569635305576, -0.004562214770924321, -0.2759697594709183, -0.10958139352705175, 0.09057990004728773, 0.1878851343876632, 0.1512160551378179, 0.017582677740644977, 0.20677742249902856, 0.5067831602253557, -0.09903182840547331, -0.12179040234306791, 0.28256706301066253, 0.05096927575704413, 0.026790771632686453, 0.07300495231863419, -0.11332163233397258, -0.18232929613857563, -0.14343074763437785, 0.21021540169554978, -0.2669507706146533, 0.07569517640308483, -0.10746456860748983, -0.0680788731657285, 0.13121470635522423, 0.14908771504286097, 0.06063025892839879, -0.3311239038082148, 0.27770994962735024, 0.2315933131179989, 0.016149782523444876, 0.0005267802424739396, 0.31440927602488655, 0.16143809013174307, -0.017594763244621992, -0.06835767328220937, -0.04780512404266689, 0.2022751900816271, 0.18842358936798226, -0.2817013397644788, 0.08060882714457435, 0.1478712215714128, -0.26502769827511463, 0.010266468911600407, -0.2916978847881174, 0.03981364237437859, -0.37561423753575857, -0.14642999603700482, -0.1371668037113294, -0.14958904038217546, 0.24263330602390124, 0.08894234062405039, -0.07133096911492927, -0.1649375175615539, -0.0422131536509342, -0.18192318962286555, 0.17201786739281544, 0.3529284041130158, 0.1860365625613606, 0.05545548085379959, -0.035199246938383943, -0.08170715947802562, 0.29108087255198567, -0.12193543596422028, 0.2582635455224361, -0.2069121059668134, -0.05220802980792852, -0.30423669221207494, 0.023604097920627374, -0.23287219581922272, 0.2942317493906064, 0.0918522844992279, 0.13405004330828996, 0.07835160824472584, -0.2006639029547888, -0.010113058787927953, 0.2908120802116844, -0.019455867036772018, -0.1879281717655969, -0.32801137092788346, -0.12405648747543985, -0.31118941575206643, 0.1468125338087019, 0.13809216778960565, -0.15480911928781127, 0.10846104484771002, -0.1027594642753376, -0.013553615923771077, 0.05815948154152785, -0.09623674287095445, 0.04665409573737558, -0.32290476060498524, -0.00013054010066058163, -0.0228394071053581, -0.3724448118822207, -0.3284400515344643, -0.32399515731395634, 0.08618039812015321, 0.04968570209604171, 0.09075713329230109, -0.17289963822498794, 0.2574629109246666, 0.19776720414620394, -0.13820353159779641, 0.20096585704802383, -0.040569704139293374, -0.29869637825920015, -0.27365181438235103, 0.13729262857746097, -0.01672752970327285, 0.1558566926678326, -0.015622308943233508, 0.04705630587296303, 0.3755957988294813, 0.24633421721155058, -0.08407086432885241, 0.05211870858797375, 0.059247659373561176, 0.09411421876544655, -0.028979520211499195, -0.13223322958502978, -0.04836131147155772, -0.12507472040532705, 0.2818413047777862, 0.2341540603255052, 0.009364167925083865, 0.14615426780567964, 0.05253961249036742, 0.2838691513632741, 0.25487147746626654, 0.15588297410736673, 0.19149993424749953, 0.14062471440531768, 0.23006952563224442, 0.12264487687753839, 0.048100418174884, -0.09108352210916558, -0.27554272473298896, -0.0047661936356535, -0.1309566886078477, 0.010591226812309548, 0.20170160769641834, 0.028289734595781237, -0.08298965544084781, -0.16898433095283677, -0.2890234955985097, 0.18378269949957463, -0.36663603599830535, -0.22515069682294303, -0.45810523584518287, -0.07729379454864144, -0.040083661811961234, -0.01554975291596592, 0.07041296386162088, -0.07764694200526402, -0.10617595546922245, 0.35707667601844617, -0.011151684479163558, 0.21093251990483194, -0.09727060111145602, 0.3228586574388686, 0.29885538766943365, 0.0706110168961869, -0.1712630916420712, 0.026608425708773954, 0.011546100028694118, 0.04265413539407821, -0.17294566658289193, -0.26925050610552353, 0.027284471672435452, -0.005819174654126001, -0.008494557906115195, 0.1599650839299994, -0.30017951607802856, 0.12237058002861369, -0.18821020862869653, -0.11824289758273863, -0.15135916894898832, 0.04836996265451007, -0.26330168239367163, -0.00020802869616867535, -0.01590752478453893, 0.24363201839469575, 0.017209049505062732, 0.11058780430228908, 0.02315356380296551, -0.14489944006022185, 0.20654001903152805, -0.12044598955827525, -0.06800331952828575, 0.0517995071080762, 0.18608109315745325, -0.024829412364562493, 0.27009433851162956, -0.10090004058395168, 0.11763851972530426, 0.0006300179099250382, 0.27061829777210733, 0.032240502114780765, -0.340606401200301, 0.17088279360465786, -0.05184795952714377, -0.14535887010167634, 0.17417720900969116, -0.06402979287191993, 0.1347608090885727, -0.07566850724311319, -0.060503070621540075, 0.39432896324076067, -0.10766536290894418, -0.13983105795765383, -0.3639455883431955, 0.2446845178450641, 0.06480567536523982, 0.07015816671383018, 0.21464581660860288, -0.21280206682653457, -0.08331531066257176, -0.004482292249753613, -0.25925777002306855, 0.24109512188269183, -0.0008093081055716192, -0.057073059481145424, 0.04175861054685932, -0.13292144028969188, 0.005315253673246038, 0.5998951093495639, 0.09781573360643882, 0.2777109332021831, -0.09409463698848208, -0.17263828589918379, 0.03684895948929541, -0.2225448701370061, -0.37508963316819016, 0.16074244856827266, 0.141589065749913, 0.1620127621041723, -0.01034789241281023, 0.2818623624245807, -0.09248803179384206, -0.1574588694956151, -0.538629787754756, 0.016654231362278928, 0.17311064692182204, 0.009491278547726753, 0.19754695433145517, 0.4042487226528947, -0.02471393633983766, 0.22246005396437143, -0.2791831425008454, 0.18237588264641758, 0.011224668784772115, -0.03954795344268317, -0.031114598391522957, -0.033214134328086106, -0.06188951356225954, 0.01666077104661445, -0.060525374554178286, -0.23786303341283066, 0.06430437653825277, -0.09358474794346193, 0.2075022189650233, 0.0037583996965463245, 0.020755438420842386, -0.3401864459316576, -0.22598422557169776, 0.12086055984658424, -0.19303849374782409, -0.13061580079445265, -0.042586766819325536, 0.2662933577967892, 0.08025073648667104, 0.22290134897526237, -0.05287593063252683, 0.024808641386817598, -0.22116394591532906, 0.20743437342278603, 0.0193461202415592, 0.007882562884591979, 0.059805490145961315, 0.255522860849408, -0.039066723801768705, 0.2903485349728123, -0.15509730891766227, 0.057990293111732615, 0.33009533558296866, -0.10216393610129462, 0.05585451487404334, 0.18163431512416858, 0.01339413561077448, -0.2352302365771018, -0.1483920293216273, 0.1567960714753159, 0.1810787982795425, 0.10981105392237626, 0.1601446323795119, -0.004006148051289168, 0.04582164827247684, -0.24915925620286794, 0.06166436716740787, 0.10387426983891118, -0.10637644643712175, 0.09865900111659634, -0.3348167302780765, 0.13319160065922103, 0.05442778412820104, 0.37354499748993836, 0.24981249184357746, 0.266367895036315, 0.1442010415758351, 0.11262003484355511, -0.21259496208624007, -0.06921594560541132, 0.30820883201575655, -0.2570041113935377, -0.059732250340286994, -0.20683052411344946, 0.31462917959599296, -0.04626861786272656, 0.3338503580433916, -0.017976425489424904, -0.08697719883170058, 0.1933119589853187, 0.15647113211914693, -0.47938779237502144, 0.08068673404006614, 0.10438243015027435, 0.033845625219145095, -0.12678853008617622, -0.007625804782536329, -0.08601864778785089, 0.02697614482036621, -0.0353630612141284, -0.10842519864927472, 0.028999295330581768, 0.1418563953322857, 0.05104687459321065, -0.09803480954419805, 0.05975054665167247, 0.1895359840770335, 0.28350094841612655, 0.20564232694931525, 0.09494650902345493, -0.1610206859809891, -0.1951597383025426, 0.014073147717805852, -0.221589164415151, -0.1308716493751597, -0.05108935870869271, -0.14236674116781928, -0.08305297464682541, -0.22267560099082329, 0.041078271312943636, 0.16942889178327347, -0.11068076455924787, 0.11149285126960758, 0.4474129580054378, -0.04149649653012994, 0.09699202409353548, 0.02441381837286486, 0.17099599187408468, -0.303659981886177, -0.1868453245087694, 0.02536107909873305, 0.1567581268963534, 0.02299238500792011, -0.29379413751689426, -0.14419789181953716, -0.13056431027684867, 0.07719597508605776, -0.13027657841215928, -0.10079587929986203, 0.21009021693464114, 0.2384928569272855, -0.1070622470242889, 0.02308105718771388, -0.40293022313929666, -0.022231142032639945, 0.2079462354981082, 0.1059907242961588, 0.014222367603776296, -0.07986236099565815, -0.13966707328941128, -0.0572069295372989, -0.29993432760048966, 0.2599175657169831, 0.08496414692438477, -0.02681636299220292, -0.11032606530027962, -0.012355079144848565, 0.14103455864181835, 0.17880041567443763, -0.1597597908835418, -0.17239964954101314, 0.36640230707148796, 0.20429776035360162, 0.14712750761653184, 0.008680481581978292, 0.1856074797348354, -0.21506130618155395, 0.26266989583526695, -0.05237603720849019, 0.07044210538963079, 0.05402315208064875, -0.0794576680033897, -0.06166822382219887, 0.21935241937440023, 0.17979999137133476, -0.3242533466948354, -0.3323304997288543, -0.20672241155144344, -0.18603991515323506, -0.22625495371390483, 0.027964600560543094, -0.0904596184939952, 0.21485363387464573, 0.2580951917350201, -0.004742852046872551, 0.2976016749113201, 0.004280464551680587, -0.07686111420917535, 0.010657782871854333, 0.1622668211805328, -0.2809202280631903, -0.01646818502961909, 0.09233838264057458, 0.10554736924112121, -0.034111825192545145, 0.08518015994411772, 0.015404261612954157, -0.15370893217795686, 0.3349978628502581, 0.050905433557922763, -0.054278832629567474, -0.095630435068129, 0.17169464063405607, -0.009274117780981686, 0.3963254527289547, -0.12588791420339857, -0.2455319304862916, -0.027239289467411325, 0.022340388410958194, -0.3685312671741289, -0.048381655585168874, -0.06350424116795843, -0.06514555231923752, -0.11143462846508184, -0.2374454447836814, 0.13413648151686458, -0.10387224162712075, -0.18619036905923952, -0.13014592713063353, -0.06762477246766287, 0.05283635654893789, 0.17071918948573347, -0.1068624829217567, -0.05182228687694825, -0.23254259210111403, -0.5979005374852747, 0.023494847272756324, 0.27719674440023934, 0.10985217974985761, -0.09290409107935828, -0.0006725572195017356, -0.24783761849391017, -0.06701171906962634, -0.10751695528497984, -0.16845660242628854, 0.06702501677084723, 0.46730131569815914, 0.3047425344185458, -0.007765744003824887, 0.15712693903318423, 0.15280703927578615, -0.11449196229894978, 0.11382723420148153, -0.25443258784279305, -0.14253040593980557, 0.03859757598629669, -0.07276170001798334, 0.3187137028853917, 0.12989337728011055, -0.02417591652539352, -0.019881161909428183, 0.0841017951374675, -0.1464112687163425, 0.13608065582356552, -0.22062919932036265, 0.13582073859749805, -0.026502569096926384, 0.05324831553142706, -0.20497157020055592, -0.002719526560132137, 0.3913674895127592, -0.0945990781198437, 0.056804436569106644, 0.2769655282924423, 0.1470318619699963, 0.08530855347546568, -0.17524186174507958, -0.22445003200261646, 0.009553859711589535, -0.08188990096003132, -0.0033687827710430947, 0.036308179729463604, -0.11982488175191496, 0.08549791446361435, 0.3257884832959303, -0.1808132207919642, -0.08131939442567235, 0.018428048102049153, 0.24874591355658157, -0.15662564223548903, -0.13859386346617678, -0.34102540923319286, -0.04651120615895361, 0.13159314923265392, 0.1557119857618309, 0.006125419136445619, -0.16424284503447328, 0.07237226735998355, 0.005503362231869794, -0.34877926646645, -0.21448252794375827, 0.2762364598158422, 0.06484999301991283, -0.23744983248231252, 0.14726457023255554, 0.18900561589277257, -0.07706135440827061, 0.11626286755502016, -0.6611623738654994, 0.17210419429481344, 0.20735640794135923, -0.20115142936243557, 0.04336743394858811, -0.06950394565419694, -0.020088497526141242, -0.057500112100464566, -0.18327672734001915, 0.3943174680661207, -0.0029725141417498544, 0.055239171710609165, -0.1673481650495836, -0.1998192380823925, 0.010372440139395263, 0.01010093490117627, 0.09558280629013872, 0.1545599339741167, -0.05363918535515881, -0.08687316922180445, 0.1289439910664228, -0.11103288341702339, 0.1565681070119995, 0.06903694839914834, 0.20554105746902798, 0.11903492653096273, -0.186467518083448, -0.15302385449717115, 0.1294863301583416, 0.3371230295687579, -0.23407904295154333, 0.003913349709644434, 0.04560044444466398, -0.2773132617854802, 0.07937086686912512, -0.0019534483707803357, -0.3207224762251202, 0.34969873564581144, -0.09385787429484008, -0.19176687532007242, 0.06370369335852286, 0.053353016362141556, 0.07055395496625642, -0.12140000736287766, -0.03229003854504581, -0.14686550601026999, -0.24593655113336313, 0.18347597542176652, -0.02177452013069309, -0.03146574001701045, -0.35247013313566533, -0.029409605747774976, -0.1477795255762417, -0.030461448325584863, -0.039169372102668805, -0.07892457037814374, 0.16596479271061051, 0.0790287556665037, 0.1992217391217043, -0.2339300835818801, -0.1147016149007969, -0.009157138972239938, -0.07192714718323906, -0.005241727207336261, -0.18189798813524488, -0.09234805624415733, -0.26393040587438843, -0.1374199135738806, 0.13143854034993296, -0.046534546156367665, 0.24590409467927896, -0.11547425093809495, 0.013822637543729224, -0.22104787322237757, 0.45315411027679986, -0.03557377362847496, 0.144491636056826, 0.07337612708011844, -0.10182137026984125, -0.23289602373658444, 0.028581044355504077, -0.09850449432177302, -0.02751233448532177, 0.1151350255940971, 0.013831212965651435, 0.06666537279132412, 0.026553411610139698, -0.2593447842777913, 0.2472744801632045, 0.20854833472075154, -0.19890006522008322, 0.0968290069586545, -0.10190536697317425, -0.11825478038195468, 0.008481255901145995, 0.32504142659281404, 0.20876840397094923, 0.12838530774224896, -0.19313866874034424, 0.45448430144751, 0.15528141990882507, -0.4124702500666302, 0.0731974189206258, -0.08513822636987389, 0.07361424812672678, 0.07321688777244019, -0.16063754089526855, 0.3247159344680061, 0.03583140579524444, 0.16639483029555474, 0.23888400389295417, -0.13048906077405567, -0.1611794196197191, 0.19832707355831924, 0.24622119844820883, -0.2434706526635694, 0.35519809163931554, -0.041239135093341865, 0.12250633901916919, 0.10019478728260461, -0.16766697748316198, -0.14669976809251853, -0.361605573573317, -0.18828083116816352, -0.24158064783013672, 0.0229081177379265, 0.25759419084509955, 0.004314851977306725, 0.06240570475433225, 0.1385273828672625, 0.12050941604563872, -0.0675090637824443, -0.258786967811233, -0.07598074794994295, 0.0112219759614122, -0.15403646374390284, 0.06398621826495338, -0.05174533599789756, 0.10992355469768234, -0.14199402013175502, -0.16298239598308845, 0.3136118166493564, 0.0050834326721899735, 0.0977511219146501, -0.1941756682332278, -0.06669784707612006, 0.12057740363250968, 0.27674481131170214, -0.1281311810012579, -0.14200308947749374, -0.003450708600396238, -0.26759944147654113, -0.0030192062250174317, -0.011498393174932732, 0.13050566228538038, 0.25155141851525165, 0.10129160090353918, 0.1313604083187633, 0.009302306459463831, -0.06359698980218617, -0.352813108863483, -0.15668572641100617, 0.03856543282175386, -0.290920647534668, 0.042937260192812285, -0.0708582354413533, -0.18058797478711072, -0.08308934540733143], [0.12883158892188126, 0.1565359598400362, -0.34242024312771685, -0.026425289667324277, 0.16155350977365462, -0.045589801015732304, 0.01923600399002289, -0.2643537926391617, -0.08485876348349816, 0.3232848768469386, -0.13931206281053937, -0.25467022476764234, 0.0264231235181318, 0.1394112873133521, 0.21103787334318944, -0.09152129775514874, 0.039328497220638726, 0.09622925645189478, 0.11476529166231722, -0.0967326927432588, 0.30276985323590155, -0.12149809633373636, 0.1251353009062689, -0.003873395915670229, -0.10380655716509139, -0.11364112819775306, -0.10365246920987049, -0.07899639010381025, -0.18011522913947078, 0.12328578260158503, -0.12436511258591332, -0.1087213531718063, 0.0863891077363512, -0.019085155524969793, -0.2513611449680636, -0.1655418525983086, -0.03583795287680452, -0.10258597032961612, 0.13258648607229553, -0.13520556512157883, -0.1709937675596046, -0.17844912905130866, 0.07271685091254566, 0.08616443566924828, -0.2953570647025322, 0.1096694640469585, 0.15208537378054857, -0.2990549356299005, -0.12211130304330753, 0.2525009214072406, 0.17774579659670645, 0.004374033259271988, 0.08860921179548006, 0.37335584946520356, 0.08888278737210535, -0.21581055611048167, 0.24128940563093165, -0.1539616988899391, 0.17569863946666797, 0.11601335866409841, 0.15723155758645083, 0.27234235875916385, -0.25956024622642176, -0.013299192295395928, 0.3405124628615273, 0.16554604852423166, 0.026971274651059935, -0.1813997452855642, 0.020490933952765526, -0.1588350381678315, -0.25806704328137614, 0.09846732066688604, 0.004745461370796342, -0.1419377221460573, 0.06387332362490432, -0.0933991933654744, 0.3128171416504684, -0.00783922887826536, 0.2781674607448936, -0.14349894551663842, 0.10987516080080102, 0.32686488119065465, 0.0479225679608392, 0.2008974558878717, -0.3072965629847438, 0.12500494323048575, 0.005379554394108822, 0.1352364719201571, 0.1533817574327839, -0.39984585705315245, -0.08064419691852277, -0.12254653606018136, 0.01663639546368772, -0.3530826475096268, -0.19422220029126802, 0.18361432610430073, 0.044176361506243746, -0.17521077102860444, -0.039629899907489496, 0.1798177448798607, -0.34529099147929126, -0.05891802685446308, -0.057070943516438696, 0.02153629672823807, 0.07989781892788266, 0.33029286846547395, 0.09475773908588066, -0.10535704545633873, 0.22355967249507677, -0.15025278955634955, 0.07725634564954255, 0.27779804499130206, 0.19044416452206492, 0.14338175262820427, -0.39445558419570337, -0.017719692957474355, -0.10370616089748164, 0.23399208703669538, 0.14691494871998298, 0.03920745148320432, 0.1273443816103586, -0.11793601408245642, 0.12220613414484761, 0.03977763532367515, -0.2694483081412422, 0.08159200943987364, 0.1318268758294135, 0.20146871333733032, 0.06874218737932847, 0.15057786806115253, -0.33292143246551653, -0.09076290842984695, -0.045727435471190084, -0.06964296299270833, -0.019767280527209375, -0.10366587408496708, 0.13105290657133223, -0.17366504265477387, 0.022201566454476872, 0.012931694886793799, 0.025444748623751935, -0.16753557293969704, 0.2473551677415371, -0.03861414967218932, -0.25147029686787953, 0.14537021715728235, 0.0033418694859135194, -0.017966591624615065, -0.01682010883232242, 0.08534257102896456, 0.024480193557356242, -0.08989111745809152, -0.20562826125473604, 0.08740082100131939, -0.2506580006266365, 0.20915852444023156, -0.16680846672747124, -0.15767853236109206, -0.19027907329998814, -0.26502805248400896, -0.15246238944287357, -0.0541287435694886, -0.4120051250950625, -0.43395280789300883, -0.12703848779113527, 0.15615356512517156, -0.22970712046122285, -0.013485322810977541, 0.2528891062923064, -0.23394779586952189, -0.0779410336348444, -0.13160917324268268, 0.15970187370151148, 0.08606905489461272, 0.1116050541052998, 0.43405728313768455, 0.28679962238837076, 0.006652086818963042, 0.007995000608428827, -0.20751415637579226, -0.25822841939373736, 0.022072412756122425, -0.21906239018892196, 0.11850872607426365, -0.13710263566257647, -0.11102139705542438, -0.2894404261503832, 0.3480692042703816, 0.12068070046732246, -0.12626796454957467, 0.027061872184531967, 0.23577248021760455, -0.16167009788974976, 0.33945998886443873, -0.18289921155912778, -0.0315138921479174, -0.29174843877147133, -0.4487719809427072, 0.1776246064716446, 0.014479581936779258, -0.30475188128921543, -0.28630045811496774, 0.19803569289641923, -0.03813496823133435, 0.25720587586452454, 0.12797252308402507, 0.003879074909030264, 0.021154055244930234, -0.08701204516292056, 0.02087798442581656, -0.018195764059133625, 0.14012915876445933, -0.052476879305638435, 0.10385592454736088, 0.12320922989509754, -0.00756107664453957, -0.2545597304990034, -0.034430382481704276, -0.33465851503407357, -0.20758102938946038, 0.13513889049711697, 0.09164000150845762, -0.00030142062307498033, -0.053319400063067464, -0.13070885577202776, -0.0907269022799536, 0.16884464461489823, 0.08206493751209445, -0.2391071032084504, 0.03961279286538561, 0.01616255170046014, 0.2716903312520413, -0.3180137067065171, -0.13132687217049568, 0.17868132752447502, -0.19720224499090777, 0.4149619851161799, -0.20925543507607916, -0.0035551767341012582, 0.08521216708865219, 0.1252461184110199, 0.08519008090486124, -0.12527803566231238, 0.12499230450745825, -0.1524577548497743, -0.09662809443126694, 0.09300964107899233, 0.28356627219794234, -0.026058360335435092, -0.14993239538152578, 0.21528679174443882, -0.22336823135334954, 0.32494764898735584, -0.17416489417626443, 0.1109772332756449, 0.16012687760465946, 0.14101269409193834, 0.04010006370574016, -0.005956207256863985, -0.30922772462642195, -0.13960704706195054, 0.1425093780368921, 0.13288354354552376, -0.17293473183278943, 0.06395089425029231, 0.06257068878493605, 0.3253167528049254, -0.0669638640243586, -0.11609597235255317, -0.20028270855730562, -0.21872965145435994, 0.0355803109376219, -0.1377412044739229, 0.1930590316770718, -0.09725533909435045, 0.28584506526254316, 0.08849465725042087, 0.05119093849240522, -0.20172064956109084, 0.05829552642651622, 0.008047224573182412, 0.11145455094743914, -0.09207469932462743, -0.2593878189245983, 0.04816917866578678, 0.014589076027096543, 0.023938865264610733, 0.16238405835837277, -0.15679857551614013, -0.40254747538868757, 0.10307412854422762, 0.07670466101121019, -0.06677016922888747, 0.05906647110464296, -0.14371173310814384, -0.3612241980367682, -0.32456162973107594, -0.038195062207306826, 0.19629367132753378, -0.09290063419721144, 0.1372149572753223, -0.1044311373775706, -0.008121091332494772, 0.14716892387018954, 0.03017199765834767, -0.09119328625014313, -0.15202603011992755, -0.01633915378256691, 0.20896810146247286, -0.27765512852366925, 0.15131892389975163, 0.04832932392661747, -0.17411040533857228, -0.016940283839587393, -0.06014647986709004, -0.1822750036938886, -0.08688567131589742, -0.20157053841785125, -0.35689862459188215, 0.026233342446033057, 0.20683759568896304, 0.33976305583024, -0.14389463239855213, 0.37622139399755294, 0.22057298722123356, 0.1836575260624554, -0.17888529972893633, -0.12054678903639866, -0.3562595511307325, 0.02089431383660173, -0.08379160354821515, 0.018046294315395152, -0.14633540188908184, 0.12341986488822825, 0.06181375208142701, -0.20227008769193638, -0.008111919361437785, 0.05032558528645205, 0.3548534008945743, 0.01660857210589228, -0.16908319743630343, -0.07501505626727292, -0.03216367582516753, -0.03941938368801004, -0.3140891440811619, -0.031415400169510804, -0.11245791875059431, -0.03575912757948017, 0.41982294384444224, -0.0763603145511249, 0.2959955161339213, 0.17804263542594737, 0.04953235204859291, -0.058634832642088526, 0.0904171015918936, -0.08782091453005433, -0.10652927155507451, -0.1450243476667, 0.02876028777100482, -0.0520462928331387, -0.04585506498280101, 0.25705570417028606, -0.12089575866329179, 0.13023313873328415, -0.09226378336090764, -0.2814629749222139, -0.25212250791152335, -0.0868362407880079, 0.10954505738308537, 0.09637415150864319, -0.06317310869574504, 0.10296931394364114, 0.02965952073265489, -0.025134254235784102, 0.15329238800374245, 0.22111526189063743, 0.23292829277867158, 0.015585367102748547, 0.11790169713465036, -0.419959768114195, -0.02537913792910497, 0.03163529350164667, 0.006689397482879641, -0.05142695766952595, 0.2194851461040364, -0.028831910920554985, -0.039884726660606856, -0.05793473399995324, 0.177403107508168, -0.043879225699786924, -0.14090062718638882, -0.01812396798558476, 0.3018839946298169, -0.0531542977082187, 0.10885748884548005, -0.04951204198156618, -0.051310685907510395, -0.11231330725542152, -0.22698059206748541, -0.016637851538383305, 0.1425846554834133, 0.2858711382645011, 0.07003536650924233, -0.14235606224801345, 0.1631760664906088, 0.11753843662306969, 0.23767821014044282, 0.3189110888420875, 0.16291934729226792, -0.08865544087813351, -0.05088607849735822, 0.18576443395673375, -0.09413462245074528, -0.030421503681714833, 0.10079115405409488, 0.18062592330744315, 0.0399282780027516, -0.499432369987858, 0.06778643613337142, -0.055007285920555773, -0.17252008874292274, 0.004265651023803162, 0.19807766336432886, -0.20051721150068127, 0.27941474545000244, 0.1683949656712033, 0.16561269234029852, -0.13897447333468693, -0.03396144402163933, -0.06189078772556394, -0.012169236544181686, -0.017253164670531465, -0.049050795840516255, -0.03012977268424684, -0.0763083155504783, -0.010023920999531144, -0.32442181549920013, 0.0672986311967482, 0.27929027174295784, 0.17973741551936198, -0.15677791936560087, 0.1946537653342672, 0.40770300683100696, -0.03801249956322156, 0.13922349809948406, 0.4237693741025995, 0.19074372873964368, 0.2746675256292914, -0.19361035430725718, 0.0416525267584548, 0.06921284876056324, 0.09989690661029377, 0.14004897040871367, 0.030341741174685306, -0.22013688637095305, 0.19781951097021205, 0.07806891655922295, -0.19551140607714448, 0.13587514079404386, 0.09330894151907339, 0.08396819238642772, -0.07634324117033173, 0.2476074222389596, 0.07361875598655977, -0.14581728189152293, -0.26827909621379786, -0.12437992577016996, -0.40226759024138686, -0.022000721088017178, 0.04475017998471573, -0.1918355837522426, -0.06579115973815916, 0.3049416683910848, 0.04900998431428027, 0.28328762186698075, -0.03147843621450797, -0.03125106384743051, -0.38877669809380067, 0.1287789810429844, 0.19528158771401202, -0.059391863356551715, -0.04977889373649193, 0.1700375215509294, -0.10202580633675797, -0.112559570901204, 0.08158499112777474, -0.08964796813634854, 0.10775903011127494, -0.1782812896921185, 0.23781051135366366, 0.09285631642957559, 0.011350496152185764, -0.1469283794917957, -0.17541315615991032, -0.14139382034047346, -0.23210164165901429, 0.25935840002814414, 0.08696634141626972, 0.2236109006722645, 0.3503869019594849, 0.2711110084390181, 0.1053988038493106, -0.0626877877812456, 0.13320347252355014, 0.037318676292244335, -0.04607704727765266, -0.0915468409015339, 0.1909495033510069, 0.26166436532818294, -0.04166449149216816, -0.043337110623012355, 0.17023207876128602, -0.06967987327880452, 0.14819161339556353, 0.32623473763835314, -0.0798103223874627, -0.019291650696216966, 0.32509887474696103, -0.0718519028874395, 0.025891357058169077, -0.16323519573521336, -0.11435981496366329, -0.2313805684423596, 0.5268016483357293, 0.10920360682897721, 0.009647919126319121, -0.1538149375810584, -0.28381839337142856, 0.07130560339613197, -0.012540840806674914, 0.0913259342800977, 0.12362841731073639, 0.1789466367898574, -0.007672614254040405, 0.10946098110470713, -0.07203722808415977, -0.14994916756451496, -0.05331619858501006, 0.1619356146785357, 0.15144191216239813, 0.04263619954673984, 0.09103665416501652, 0.2823010206031073, -0.3514455549285907, -0.27314661399612444, -0.02433227771732715, 0.11773865876258495, -0.04805739323143367, 0.1498269657690867, -0.5381710427226134, -0.41951542460743124, -0.11069897175142064, 0.47292215835007223, 0.024368796212109897, -0.3628775469924447, -0.03652952247581002, 0.12490687746201302, 0.1788651684243603, 0.08516360935175937, -0.04074880876796535, 0.11999412823349669, 0.20393278325776412, -0.0980732094451631, -0.02160952122549184, -0.022532587937575278, -0.29884614919894564, -0.2094319073972866, -0.382239176996108, 0.04596606284901333, -0.04626704749104688, -0.09100121560562889, -0.05338911095709431, 0.044707112178939294, -0.13240187213168578, 0.195423866443555, -0.3072242594263015, -0.021393336089242918, -0.025527185277259574, 0.1472675363476655, -0.0801045688431902, 0.21165327740892298, -0.0046369278337252155, 0.013455858970991583, -0.008226339935747983, 0.13322921041950242, 0.1565677631538185, -0.10677515736661151, -0.2490590882900797, -0.17343590146172336, 0.02920051688034786, -0.0029590363835423597, 0.024847341044055355, -0.1289532028140308, 0.1420495351265598, -0.022234151390557986, -0.2751754654964375, 0.0346259204243966, 0.08395080450956872, -0.007744023118941209, -0.025955283949192706, 0.004996362996914408, -0.19891725820010892, 0.2515803567671636, -0.08367228073178871, 0.2467850424021555, -0.09259354978339529, 0.18694066986023314, 0.05990985903524437, 0.04179787194148413, -0.14214837389275, 0.23145800768007826, 0.08517385173271094, -0.011283442015061413, 0.21697511683359866, 0.0157661247941537, 0.3906421293228336, 0.1797248214487083, -0.058461657525778664, 0.24008188178192502, 0.011116898324978728, 0.353339399582293, 0.015119721302310738, -0.009002903626134335, 0.01728077936677152, 0.056442759450498946, 0.24828739959441282, 0.022747513108779115, -0.0452765305653403, -0.10228639922395899, 0.1415318275586784, -0.10562447484699385, -0.2248192601921379, -0.17305788240339304, -0.07015014984288499, -0.002656637624832313, 0.20336695829058732, -0.08598433319392164, 0.22473506976313928, -0.2809472810619879, 0.47067009095278395, -0.2796453159624845, 0.03574288219255421, -0.03853145958802703, -0.13882534129519125, 0.11957329192380865, 0.18689082616708982, -0.0304527659688429, 0.2140242521081711, 0.011158751707928507, -0.18775509376414337, -0.014345291387535859, -0.10274212673310389, 0.0622139574779, -0.0955167872948655, -0.03833952748806995, -0.2016752011606305, 0.20172961247968985, -0.04570639535670641, -0.1867711845083851, 0.45993128806568334, -0.24941756786634084, 0.10159264029948141, -0.36750635886906224, 0.06659928917719901, 0.04192569659905522, -0.036606090291456096, -0.23799798501205904, -0.1502209136066614, -0.14275899761847094, -0.20730453322805759, -0.16775507024901543, 0.2536968123994015, 0.06915663634225155, 0.23525931403628225, -0.17480456655632517, -0.0761844711760263, -0.3073346645334884, -0.20988137425803596, -0.055994345862303056, -0.09068780941598807, 0.30194682114202925, 0.008518601158020602, -0.05912916841370054, 0.06954265159424713, -0.0010060369724661715, -0.1918217988951157, -0.11285552847879797, 0.23939715467996348, 0.22964921674862085, 0.05378139126300252, 0.19092012775595302, 0.2965038237407499, -0.0760628640805734, 0.03483603845465074, 0.039910263348674396, -0.14599970979917823, 0.0789037738288523, -0.20218466910423724, 0.018075616167957415, -0.04753770911876265, 0.07593391980202983, -0.23950788790512076, -0.0921182431809367, 0.3329207943808747, -0.02456882055785071, 0.010040349327651125, -0.12266657843183765, -0.004370681720189561, 0.05184294082834353, -0.1003419969875735, -0.058474188589236656, -0.046362852478565544, 0.04053890089842644, 0.18824391882505778, -0.13144969233800138, 0.12352999438039794, 0.1323958065107914, 0.04491894751407066, 0.1929643089615335, 0.017129074827665926, 0.017560120069799897, -0.031139375964198215, -0.04787011416549676, -0.037487251751987895, -0.3290162556027742, 0.10611439296683836, -0.05696742196038178, -0.2596612555146641, 0.17153031427534726, -0.1724531329449216, 0.15193817940877807, -0.1311590977936822, 0.1688675946791032, 0.3344488660780084, -0.28335728590966325, -0.047794429463218394, 0.16313568067953907, 0.0423478391847384, 0.045618711463766136, 0.1571619493413657, -0.14128471118632788, -0.22891761333752345, -0.13014202988840085, 0.23248899921300328, -0.13718993690192266, -0.272728767773301, 