{"layer0": {"kernels": [[[[0.006814123131334782, -0.18226812779903412, 0.07778245210647583, 0.054765231907367706, -0.390640527009964, -0.09574079513549805, -0.02218545973300934, -0.14439231157302856, 0.12183655798435211, 0.14865748584270477]], [[-0.061196766793727875, -0.2639244496822357, -0.1996174156665802, 0.06389161944389343, -0.3918193578720093, 0.15981362760066986, 0.18692663311958313, 0.15151990950107574, 0.29187315702438354, 0.2476225346326828]], [[-0.06661907583475113, 0.13840395212173462, -0.41629019379615784, -0.08172974735498428, -0.16151708364486694, 0.009119918569922447, 0.31264278292655945, 0.28220561146736145, 0.00018869107589125633, 0.2133062779903412]], [[-0.5035368204116821, 0.1424584686756134, -0.6058534383773804, 0.14649847149848938, 0.17146991193294525, 0.04174554720520973, 0.23453128337860107, 0.2134302258491516, -0.45794469118118286, -0.15162257850170135]]], [[[0.01456324104219675, -0.3880230188369751, 0.15361303091049194, 0.1139775887131691, -0.2860472500324249, 0.1625998169183731, 0.11817619204521179, 0.19938886165618896, 0.1637931615114212, 0.1600395292043686]], [[0.1612776517868042, -0.15879642963409424, 0.11353962868452072, 0.0633811354637146, -0.2770170271396637, -0.04390299692749977, 0.20677722990512848, 0.08901834487915039, 0.15547794103622437, 0.2521779537200928]], [[0.09499330073595047, 0.08726014196872711, -0.30809205770492554, 0.20556579530239105, 0.1270359605550766, 0.24084064364433289, 0.11985164135694504, 0.0920834094285965, -0.12970860302448273, -0.022295979782938957]], [[-0.33797919750213623, 0.30154821276664734, -0.42203718423843384, 0.14865775406360626, 0.34327566623687744, 0.07100924104452133, 0.16686172783374786, 0.0640721246600151, -0.3966192305088043, -0.034664761275053024]]], [[[0.05071913078427315, 0.10679099708795547, 0.19980743527412415, -0.004851415753364563, -0.2209240347146988, -0.07919397205114365, -0.13928449153900146, -0.06481970101594925, 0.3025725185871124, 0.03816695883870125]], [[0.3249084949493408, -0.020995937287807465, 0.4441773593425751, 0.0714397206902504, -0.314115047454834, 0.19632044434547424, 0.03148205950856209, -0.009609351865947247, 0.1194741278886795, 0.20397670567035675]], [[-0.0313594788312912, 0.13104936480522156, 0.3312281668186188, 0.13068489730358124, 0.23882433772087097, 0.2191144824028015, 0.17961235344409943, 0.1824597716331482, -0.13378651440143585, 0.0015247530536726117]], [[0.03409672528505325, 0.07136934995651245, 0.012641691602766514, -0.08513370901346207, 0.35680878162384033, 0.19021543860435486, 0.059301212430000305, 0.19960308074951172, -0.4077133536338806, 0.09993396699428558]]], [[[0.15988554060459137, 0.20083628594875336, 0.07153142988681793, 0.1261606514453888, -0.4264907240867615, 0.12679404020309448, -0.18332400918006897, 0.015009868890047073, 0.36439287662506104, 0.1080864816904068]], [[-0.023825304582715034, 0.20023512840270996, 0.2665589153766632, 0.18374477326869965, 0.07106047123670578, -0.08747432380914688, 0.14896999299526215, 0.18122898042201996, -0.01582162082195282, -0.12791621685028076]], [[0.16787874698638916, 0.18103374540805817, 0.2274635136127472, 0.07480967044830322, 0.12312731891870499, 0.015680642798542976, 0.02839513309299946, 0.12980683147907257, -0.39278867840766907, -0.12143876403570175]], [[0.06448270380496979, 0.24799844622612, 0.1189427375793457, 0.05594877898693085, 0.40563470125198364, 0.02026713639497757, 0.016902903094887733, 0.046622227877378464, -0.16613419353961945, 0.08246522396802902]]]], "biases": [[0.09506310522556305], [-0.0016343097668141127], [0.07387363165616989], [0.0407782606780529], [-0.0013465143274515867], [0.010838504880666733], [-0.0008997520199045539], [0.011956343427300453], [0.14302672445774078], [0.0727810487151146]]}, "layer1": {"kernels": [[[[0.05046535283327103, -0.06728856265544891, 0.10869824141263962, -0.1596071422100067, 0.11202549934387207, -0.17878229916095734, 0.014202497899532318, -0.060023583471775055, 0.16297362744808197, 0.17009930312633514], [-0.25433677434921265, 0.16077524423599243, -0.26750922203063965, 0.007778555154800415, -0.016476336866617203, 0.04113910347223282, 0.03619963303208351, 0.24434441328048706, -0.10954517871141434, -0.14150284230709076], [0.38142895698547363, -0.20212021470069885, 0.42794594168663025, -0.17880432307720184, 0.1350712776184082, -0.286512166261673, 0.13367962837219238, -0.5229048728942871, 0.11138366162776947, 0.09282828122377396], [-0.15617026388645172, 0.08139368146657944, 0.10147953778505325, 0.16977541148662567, 0.031149664893746376, 0.14489883184432983, -0.13691504299640656, 0.015309227630496025, 0.09743041545152664, 0.08954466134309769], [-0.4125872552394867, -0.0021153055131435394, -0.14404422044754028, 0.04866351559758186, 0.16422037780284882, 0.1879318654537201, -0.09355425089597702, 0.43411099910736084, 0.3677637577056885, -0.014896214008331299], [-0.10760141909122467, -0.013264406472444534, 0.02094920724630356, -0.13072660565376282, -0.06644638627767563, 0.12370187044143677, -0.04343583062291145, -0.06337650865316391, -0.0001587518199812621, -0.20691239833831787], [-0.21755439043045044, 0.03062671609222889, -0.08074647188186646, -0.06836305558681488, -0.10357798635959625, -0.14321663975715637, -0.0926356315612793, -0.03444579616189003, 0.07398376613855362, 0.022359278053045273], [-0.18126511573791504, -0.11924366652965546, -0.10223769396543503, 0.019326014444231987, -0.11379153281450272, 0.13564728200435638, 0.10837147384881973, -0.08429476618766785, 0.0400330126285553, 0.06894324719905853], [-0.09654170274734497, 0.325681209564209, -0.4221488833427429, -0.10999956727027893, -0.12657548487186432, 0.1334764063358307, 0.07700134813785553, -0.21576039493083954, 0.556833028793335, 0.12320108711719513], [-0.002633452182635665, 0.016495082527399063, -0.028734980151057243, -0.07829256355762482, 0.1064644455909729, -0.07113803923130035, -0.03798499330878258, -0.3370223343372345, 0.281414270401001, -0.08302132785320282]], [[0.3128420114517212, 0.1266060769557953, 0.31879478693008423, 0.11481953412294388, -0.005727326963096857, 0.0960807055234909, 0.1633363664150238, 0.03252367302775383, 0.0580093152821064, 0.10185039043426514], [0.0033404193818569183, 0.12825581431388855, 0.015786178410053253, 0.22815285623073578, 0.11830475926399231, -0.02565922774374485, 0.006002975627779961, 0.2802116274833679, -0.26382115483283997, 0.21391095221042633], [0.3969392776489258, -0.378290057182312, 0.4689182937145233, -0.025395549833774567, 0.12271219491958618, -0.14054422080516815, 0.19486810266971588, -0.18040324747562408, 0.18748538196086884, 0.41895046830177307], [-0.15933582186698914, 0.046628519892692566, 0.22048047184944153, 0.13388174772262573, -0.12960495054721832, 0.1095292717218399, 0.013477519154548645, -0.025297926738858223, 0.003137691179290414, 0.08333579450845718], [-0.40161094069480896, 0.3614902198314667, -0.007531170733273029, 0.013021957129240036, 0.45292842388153076, 0.2715178430080414, 0.23372288048267365, 0.3029652237892151, -0.11073318868875504, 0.12273550778627396], [-0.041082896292209625, 0.012608816847205162, 0.2118348926305771, 0.061720047146081924, 0.11102130264043808, -0.007449318654835224, -0.07751674205064774, -0.06509995460510254, 0.015140092931687832, -0.0190625861287117], [0.0073338765650987625, -0.11553501337766647, -0.034455180168151855, 0.17341044545173645, 0.1540633887052536, 0.049083758145570755, 0.07661286741495132, 0.11025416105985641, -0.24841807782649994, -0.0008667221991345286], [0.04181818291544914, 0.07706913352012634, 0.17961589992046356, 0.10098940134048462, 0.11420679092407227, -0.1384391039609909, 0.16773714125156403, -0.07283865660429001, -0.1777641922235489, -0.10316117107868195], [-0.003350271377712488, 0.17348170280456543, -0.18187612295150757, -0.10240628570318222, -0.13905224204063416, 0.1797628253698349, 0.08966363966464996, -0.06655789911746979, 0.45361512899398804, 0.06078080087900162], [-0.27936816215515137, 0.026011396199464798, 0.12560002505779266, -0.13746121525764465, -0.17036965489387512, -0.06731230765581131, 0.08419712632894516, -0.1805659532546997, 0.27283790707588196, -0.008573454804718494]], [[0.28809019923210144, -0.047623902559280396, 0.15841586887836456, 0.08782130479812622, -0.08201119303703308, -0.15710943937301636, 0.04320015758275986, 0.2519185245037079, 0.1847429722547531, -0.06143632531166077], [0.03877055272459984, 0.18098969757556915, -0.017702708020806313, 0.16368868947029114, 0.20099815726280212, -0.05661315098404884, -0.1193128228187561, -0.09600235521793365, -0.5538840889930725, 0.0818701758980751], [0.4102560877799988, -0.16015419363975525, 0.3459903597831726, -0.06276079267263412, -0.25401952862739563, -0.3498484790325165, 0.12139207124710083, 0.06447871029376984, 0.09732362627983093, 0.36229902505874634], [0.007618109695613384, -0.06279267370700836, 0.15670077502727509, 0.19396068155765533, 0.06960136443376541, 0.1487010270357132, -0.05189128965139389, 0.08910621702671051, -0.2628556489944458, 0.1754346787929535], [-0.37479642033576965, 0.4376120865345001, 0.06605444103479385, -0.0756497010588646, 0.38618505001068115, 0.42945611476898193, 0.10898518562316895, 0.5783441662788391, -0.23740124702453613, -0.11944747716188431], [0.09838500618934631, -0.022746602073311806, -0.04827025905251503, 0.009979825466871262, 0.07856128364801407, 0.20195280015468597, 0.07339455187320709, -0.04874270409345627, -0.3820209205150604, 0.02573324739933014], [-0.31381118297576904, 0.1832420527935028, -0.03464413061738014, 0.10583624243736267, -0.046139609068632126, -0.014516329392790794, 0.032402683049440384, 0.06317869573831558, -0.620444655418396, -0.10710851848125458], [0.0706092044711113, 0.12926892936229706, -0.05722596496343613, -0.09198547899723053, 0.04996984079480171, 0.09643129259347916, 0.0462837852537632, 0.09730183333158493, -0.4191095530986786, -0.1424562931060791], [-0.013264934532344341, 0.19595254957675934, -0.33500146865844727, -0.07199130207300186, 0.1979142725467682, -0.1971038430929184, 0.06058318540453911, 0.3815654516220093, 0.2461201548576355, 0.06641334295272827], [-0.205550417304039, -0.132955864071846, 0.12406747043132782, 0.09556315839290619, 0.07390246540307999, -0.020547181367874146, -0.0902341902256012, 0.1981816291809082, -0.14942342042922974, 0.08920718729496002]]], [[[0.1369788497686386, 0.11101862043142319, 0.1307750791311264, -0.1597803831100464, -0.05987633392214775, 0.22424529492855072, 0.19916145503520966, -0.12046971172094345, 0.3788113296031952, 0.14724816381931305], [-0.16798195242881775, -0.04147358611226082, -0.2771734595298767, 0.22198398411273956, 0.13868939876556396, 0.23572765290737152, 0.06619762629270554, 0.23988957703113556, -0.19850121438503265, 0.008931990712881088], [0.3708988130092621, -0.3242068588733673, 0.4656650722026825, 0.008530118502676487, 0.017597902566194534, -0.04253080487251282, -0.008205298334360123, -0.37000158429145813, 0.2848450839519501, 0.1715736836194992], [0.12277339398860931, 0.20358756184577942, 0.0069065638817846775, 0.003179305698722601, 0.2109452337026596, 0.002764045726507902, 0.13755668699741364, -0.07294213026762009, -0.05544780567288399, -0.03965957090258598], [-0.35409650206565857, 0.23530687391757965, -0.24650710821151733, -0.030026795342564583, 0.10587431490421295, 0.42843228578567505, -0.10872648656368256, 0.24659781157970428, 0.36574989557266235, 0.11084870994091034], [0.12101747840642929, 0.19615894556045532, 0.0870095044374466, 0.0052761174738407135, 0.0858379453420639, 0.1426394283771515, 0.0033196918666362762, -0.17350785434246063, 0.0986085906624794, -0.17056679725646973], [0.04905882477760315, 0.17862552404403687, 0.14490365982055664, -0.03968202695250511, -0.05028233304619789, -0.12226752936840057, -0.15033061802387238, 0.15980707108974457, -0.08412307500839233, 0.06216113269329071], [-0.06757138669490814, 0.16118523478507996, 0.19059468805789948, 0.09838131815195084, 0.14171011745929718, -0.08537939935922623, 0.15495479106903076, -0.12544579803943634, 0.18496353924274445, -0.10089346021413803], [-0.14591361582279205, 0.29851722717285156, -0.27789637446403503, 0.05102837085723877, -0.042863208800554276, 0.09456982463598251, 0.07290849834680557, -0.2784450054168701, 0.19556264579296112, -0.07332094758749008], [0.17107006907463074, 0.14327046275138855, 0.031248094514012337, 0.04797007143497467, -0.009055521339178085, 0.11244902014732361, -0.02119774930179119, -0.14928042888641357, 0.24824625253677368, 0.06131783872842789]], [[0.39850112795829773, -0.05003294348716736, 0.08101832121610641, 0.04111518710851669, -0.1757301688194275, -0.09138011187314987, -0.08988839387893677, -0.0685950517654419, 0.3126797676086426, 0.17665909230709076], [-0.018129905685782433, -0.019884007051587105, -0.2672349512577057, 0.12900429964065552, 0.2056286782026291, 0.0496884249150753, 0.08589045703411102, 0.3300812244415283, -0.541534960269928, 0.20701996982097626], [0.22620683908462524, -0.32954052090644836, 0.46878716349601746, -0.2284824401140213, 0.09706410765647888, 0.05992015451192856, -0.15630494058132172, -0.20349182188510895, 0.22657878696918488, 0.21985980868339539], [0.07307665050029755, 0.22222623229026794, -0.03757912293076515, 0.1263384222984314, -0.06667746603488922, -0.12725907564163208, 0.07989877462387085, -0.0075117796659469604, 0.12839658558368683, 0.08327409625053406], [-0.4909851849079132, 0.14452576637268066, -0.1674397885799408, 0.2614557147026062, 0.14111606776714325, 0.3704792857170105, -0.07200416177511215, 0.6048496961593628, -0.3254022002220154, -0.022870367392897606], [0.0406152606010437, 0.057936131954193115, 0.1272076964378357, 0.166510209441185, -0.05863142013549805, 0.22744089365005493, 0.2124222218990326, 0.06206311658024788, 0.08074171096086502, 0.11417679488658905], [0.0003305066202301532, 0.14775805175304413, 0.17142531275749207, 0.1499989777803421, 0.06711987406015396, -0.03287789970636368, -0.1522902101278305, -0.030858272686600685, -0.19513586163520813, -0.1585644632577896], [0.1764291673898697, -0.1197892501950264, 0.02463589981198311, 0.22139060497283936, 0.05035986006259918, -0.1295483112335205, 0.025513630360364914, 0.10945828258991241, -0.13085496425628662, 0.11770099401473999], [-0.17817731201648712, 0.44001302123069763, -0.16837574541568756, -0.19079476594924927, -0.047934550791978836, -0.03976104035973549, 0.05183297395706177, 0.26282963156700134, 0.44001641869544983, -0.03149527683854103], [0.045014239847660065, 0.13685639202594757, -0.048394445329904556, 0.1985083371400833, 0.15257306396961212, 0.04967166483402252, 0.11095590144395828, -0.20363526046276093, 0.10967923700809479, 0.0683840960264206]], [[0.2159961611032486, -0.08391134440898895, 0.033516138792037964, 0.14100496470928192, 0.017640339210629463, 0.14711780846118927, -0.0540139265358448, 0.2989960014820099, 0.17047932744026184, 0.21584248542785645], [-0.1465967893600464, 0.07350723445415497, -0.2964283525943756, 0.02193484455347061, -0.11675205826759338, 0.04082644730806351, 0.10425828397274017, 0.16382937133312225, -0.6065845489501953, -0.02215907722711563], [0.3738011419773102, -0.4092075228691101, 0.5346295237541199, -0.18418045341968536, -0.16463947296142578, 0.17931383848190308, -0.03147441893815994, -0.049281682819128036, 0.1711932271718979, 0.13021208345890045], [0.2180999219417572, -0.08598092943429947, 0.1837574988603592, 0.20896446704864502, -0.019238082692027092, 0.1965521275997162, 0.17864741384983063, 0.008225420489907265, -0.03819489851593971, -0.1439218968153], [-0.4150068759918213, 0.42346665263175964, 0.044916290789842606, -0.008534128777682781, 0.28460800647735596, 0.31916171312332153, 0.15112252533435822, 0.4724450707435608, -0.27646324038505554, -0.2670922577381134], [0.09575659036636353, 0.20586955547332764, 0.24310018122196198, 0.15271912515163422, 0.057559121400117874, -0.08606160432100296, 0.19593635201454163, -0.10927225649356842, -0.21965977549552917, -0.04863613098859787], [0.011496119201183319, 0.1815900057554245, 0.16145341098308563, 0.030345648527145386, 0.05792144313454628, -0.14874698221683502, 0.02236049994826317, 0.07849638164043427, -0.23303169012069702, 0.008153916336596012], [0.14552196860313416, 0.1049702987074852, 0.004118568263947964, 0.053812846541404724, 0.09692186117172241, -0.012428783811628819, -0.1315058022737503, 0.009866791777312756, -0.40451833605766296, 0.09958921372890472], [0.02319406531751156, 0.3452046513557434, -0.3137458860874176, -0.20200252532958984, 0.15137530863285065, -0.1658886820077896, -0.0637439489364624, 0.32678669691085815, 0.09757016599178314, -0.12493884563446045], [-0.025917232036590576, 0.11149512976408005, 0.08330564200878143, 0.10302163660526276, 0.13660608232021332, 0.17643670737743378, -0.10217976570129395, 0.16602273285388947, -0.0002276514278491959, -0.025776950642466545]]], [[[-0.05060325935482979, -0.09226646274328232, -0.02331484667956829, -0.03409633785486221, -0.04527266323566437, -0.07921715825796127, 0.06954678893089294, -0.09055183827877045, 0.11068523675203323, 0.20955774188041687], [-0.2488141655921936, 0.2594148814678192, -0.1612965613603592, -0.0038130071479827166, 0.0537424236536026, -0.06952707469463348, -0.1433643251657486, 0.3311421275138855, -0.11723736673593521, 0.1640838086605072], [-0.04218664765357971, -0.22393427789211273, 0.34450259804725647, 0.0319971926510334, 0.08091937005519867, -0.21533234417438507, -0.07188829034566879, -0.30165231227874756, 0.19762596487998962, 0.10972139239311218], [-0.022592931985855103, 0.176266148686409, -0.11301988363265991, 0.1916486769914627, 0.048431430011987686, 0.13116797804832458, 0.12578408420085907, 0.09308548271656036, 0.2554584741592407, 0.08150789886713028], [-0.21069760620594025, 0.31973525881767273, -0.28377196192741394, -0.24939221143722534, -0.14610350131988525, 0.10282442718744278, -0.203812375664711, 0.25239965319633484, 0.09609878063201904, -0.02373184636235237], [0.23471233248710632, 0.004887450020760298, -0.18238027393817902, -0.09350567311048508, 0.08859168738126755, 0.07551765441894531, -0.12755872309207916, -0.016850067302584648, 0.0473443977534771, 0.12417854368686676], [0.1670067459344864, 0.22063714265823364, 0.22181002795696259, -0.0024625712540000677, 0.09632252156734467, 0.16275906562805176, -0.04969782382249832, 0.1552955061197281, 0.19107607007026672, -0.05353805795311928], [0.17674563825130463, -0.06630799174308777, 0.04478082433342934, 0.19657303392887115, 0.01912705972790718, 0.12573255598545074, 0.18621930480003357, -0.07100755721330643, 0.1062975525856018, -0.07264260202646255], [-0.3490748405456543, 0.0921366959810257, -0.05483848601579666, -0.2815934121608734, -0.06875186413526535, -0.1277841180562973, -0.14492343366146088, -0.07804020494222641, 0.45871585607528687, -0.09163513034582138], [0.1049068346619606, -0.11290635168552399, -0.00023542111739516258, 0.08255378901958466, 0.1636722832918167, 0.17990313470363617, 0.0005578534328378737, -0.3189070224761963, 0.07345565408468246, -0.16368426382541656]], [[0.18096692860126495, -0.25121232867240906, 0.2093713879585266, -0.1766202747821808, 0.011709284037351608, -0.14999279379844666, -0.15152588486671448, 0.2057928591966629, 0.19275429844856262, 0.06898552179336548], [-0.1860760897397995, 0.27601635456085205, 0.08796591311693192, -0.13622839748859406, -0.06659307330846786, -0.10545656830072403, -0.03819995000958443, 0.07315868884325027, -0.497710257768631, -0.009913887828588486], [0.038213543593883514, -0.15883059799671173, 0.6470743417739868, -0.1497863084077835, 0.1027824878692627, 0.1846560686826706, 0.17217105627059937, -0.12304030358791351, 0.4138418138027191, 0.05257325619459152], [-0.09341774880886078, 0.07654321938753128, 0.023076394572854042, 0.03167789429426193, 0.13030561804771423, 0.1248563900589943, -0.11667834967374802, -0.011644620448350906, 0.07996363937854767, -0.10493896901607513], [-0.2153928428888321, 0.2928931415081024, 0.011595289222896099, -0.08643469214439392, -0.09509679675102234, 0.161111980676651, -0.18894170224666595, 0.27514439821243286, -0.6318415403366089, -0.11858931183815002], [0.16728579998016357, 0.16904239356517792, -0.05014839395880699, 0.0636569932103157, 0.06185384839773178, 0.17692925035953522, -0.11340875923633575, -0.020199254155158997, 0.003228610148653388, 0.11598183959722519], [0.19612300395965576, 0.12622088193893433, 0.09180545806884766, 0.22464868426322937, 0.030313866212964058, 0.12786699831485748, 0.09108281135559082, -0.02729802578687668, -0.1414966583251953, -0.02099457196891308], [0.1795632392168045, 0.007855457253754139, 0.10872478783130646, 0.0559113509953022, -0.016054663807153702, 0.17527639865875244, -0.08631973713636398, -0.020365865901112556, -0.207790344953537, 0.19074346125125885], [-0.3355177938938141, 0.24488192796707153, -0.10174015164375305, -0.276374489068985, 0.00913967564702034, -0.1267140954732895, -0.045788660645484924, 0.28779011964797974, 0.3169700503349304, -0.1269211322069168], [0.19515666365623474, -0.12192856520414352, -0.07699237763881683, 0.10657721757888794, -0.0852474495768547, 0.12521597743034363, 0.030955571681261063, 0.15735572576522827, -0.012242044322192669, -0.02933732606470585]], [[0.19517160952091217, -0.17978313565254211, 0.18094713985919952, 0.023631861433386803, 0.12278445065021515, 0.01133206207305193, -0.008541888557374477, -0.043648961931467056, 0.053611647337675095, 0.02419019490480423], [-0.10620499402284622, 0.21047034859657288, -0.09191311150789261, 0.080450639128685, 0.10489054024219513, -0.1710202693939209, -0.3002910614013672, 0.09135686606168747, -0.46187490224838257, 0.1274564117193222], [0.17759034037590027, -0.2808731198310852, 0.37103623151779175, -0.1910007745027542, -0.2264595776796341, -0.07457628846168518, 0.19870424270629883, 0.17676205933094025, 0.1843942105770111, 0.028534263372421265], [0.19225165247917175, 0.14378497004508972, -0.016665738075971603, 0.09938815981149673, 0.051342375576496124, -0.12734943628311157, 0.18297705054283142, -0.02854832261800766, 0.021246660500764847, 0.08448570966720581], [-0.3724440038204193, 0.12317293137311935, 0.018095212057232857, -0.17746855318546295, 0.13981492817401886, 0.24428214132785797, -0.1300065815448761, 0.34877678751945496, -0.649891197681427, 0.03100632131099701], [0.17143285274505615, 0.056646011769771576, 0.048013411462306976, 0.17271368205547333, 0.05149560421705246, -0.06785932928323746, -0.024112511426210403, 0.00237253587692976, -0.030052052810788155, 0.23911143839359283], [-0.022485345602035522, -0.0334446094930172, -0.009450109675526619, -0.06542492657899857, -0.07783053070306778, 0.010636645369231701, 0.14327511191368103, -0.0475771389901638, -0.46357154846191406, -0.07945055514574051], [0.18841774761676788, 0.0073490506038069725, -0.062321897596120834, 0.08780547231435776, 0.07898025214672089, -0.10206698626279831, 0.0894586369395256, -0.1419626921415329, -0.03707943111658096, -0.08012933284044266], [-0.11762847006320953, 0.14938530325889587, -0.12199615687131882, -0.2166779339313507, -0.015048877336084843, 0.16106931865215302, -0.04357152432203293, 0.23384612798690796, 0.312555193901062, -0.15852853655815125], [0.16427186131477356, 0.046981386840343475, -0.006744865328073502, 0.06583259999752045, 0.044101372361183167, 0.15321141481399536, 0.11999092251062393, 0.17741335928440094, -0.10158588737249374, 0.21081815659999847]]]], "biases": [[0.06434495747089386], [-0.026014698669314384], [0.07743607461452484], [0.025359390303492546], [-0.02881968766450882], [-0.001084020477719605], [0.031681593507528305], [-0.011842318810522556], [0.10660427808761597], [0.04148777574300766]]}, "layer2": {"weights": [[-0.02490277588367462, 0.05155658349394798, 0.05972973629832268, -0.010032230988144875, 0.07462026923894882, -0.006440164055675268, 0.014983533881604671, 0.017240501940250397, 0.0427456796169281, 0.07914520055055618, 0.005768339149653912, -0.05228525400161743, -0.026671716943383217, -0.06854332983493805, 0.05293463170528412, -0.017603613436222076, 0.028128821402788162, 0.005053964909166098, 0.00033518177224323153, 0.07327018678188324, -0.041589703410863876, -0.03656680881977081, -0.08281924575567245, 0.05921300873160362, -0.021127935498952866, 0.03918623551726341, -0.0011392418527975678, 0.018451007083058357, 0.050569746643304825, -0.060187432914972305, 0.037176698446273804, -0.0052291108295321465], [0.052709273993968964, 0.02274296246469021, 0.010912030935287476, -0.012008142657577991, -0.06109975650906563, 0.007322212215512991, -0.003334594191983342, -0.01984434202313423, 0.048155393451452255, 0.1014944463968277, 0.03807801380753517, 0.02334299311041832, -0.028790127485990524, -0.018949339166283607, -0.05645444616675377, -0.04964131861925125, 0.03256111964583397, 0.026289688423275948, -0.04609757661819458, 0.05373130738735199, -0.04129727929830551, 0.04720607027411461, -0.03244391083717346, 0.017573527991771698, -0.02906566858291626, -0.010915810242295265, 0.01163007877767086, 0.07321270555257797, -0.004384083207696676, -0.01908821053802967, -0.036539047956466675, 0.024944273754954338], [0.010335053317248821, -0.022071251645684242, -0.040521301329135895, 0.048083167523145676, 0.020335067063570023, -0.021505039185285568, 0.08933304995298386, 0.04330366477370262, -0.022648418322205544, 0.06091875955462456, -0.006803278345614672, -0.006741256453096867, -0.05478144809603691, -0.059343695640563965, -0.036926157772541046, -0.04154519736766815, -0.050918642431497574, 0.02612321451306343, -0.04229932278394699, -6.554179708473384e-05, -0.037194762378931046, -0.03412134572863579, -0.0326390266418457, -0.02298869751393795, -0.014597469940781593, 0.013154532760381699, -0.04632764682173729, -0.004060276784002781, -0.07846750319004059, 0.00781569629907608, -0.060200370848178864, 0.01853874698281288], [0.003798782592639327, 0.044719453901052475, -0.0411522202193737, -0.002723422134295106, -0.009940722957253456, 0.06672048568725586, 0.08496538549661636, 0.013465261086821556, -0.027056213468313217, 0.009994537569582462, 1.0028719771071337e-05, 0.006501785479485989, -0.06592666357755661, 0.0035553639754652977, -0.05944262444972992, 0.04689125716686249, -0.050230056047439575, 0.07456890493631363, -0.07423204928636551, 0.06176239997148514, -0.0303957499563694, 0.016534525901079178, -0.018016289919614792, -0.0264195054769516, -0.017238060012459755, 0.041043758392333984, 0.04770582169294357, 0.11264590919017792, 0.008418038487434387, -0.02037804201245308, 0.03927571699023247, 0.025738362222909927], [0.052617914974689484, 0.09149932116270065, 0.029999656602740288, 0.01285877451300621, 0.011562672443687916, -0.011290397495031357, -0.008805898949503899, 0.04300999268889427, -0.02467484399676323, 0.03175640478730202, 0.03596162423491478, -0.04579244181513786, -0.000289414165308699, -0.027510570362210274, -0.05929823964834213, 0.04780644550919533, 0.05976202338933945, 0.02242574840784073, -0.0022280674893409014, 0.01074602734297514, -0.007561376318335533, -0.04472803324460983, 0.04068822041153908, 0.0707973763346672, -0.003768316237255931, 0.03974343091249466, -0.02825850434601307, -0.014788612723350525, 0.012590222992002964, 0.008209857158362865, -0.004881409462541342, 0.005834136623889208], [-0.002219994319602847, 0.053216543048620224, 0.04745994880795479, 0.03696506470441818, 0.006178673356771469, 0.06698820739984512, -0.027017755433917046, 0.051538120955228806, 0.03141934424638748, 0.03570364788174629, 0.05116673931479454, -0.034629978239536285, 0.006395435426384211, 0.011370922438800335, -0.04199932888150215, 0.00918739102780819, 0.03152856230735779, 0.11242781579494476, 0.033157799392938614, 0.024480268359184265, 0.015420746989548206, -0.015449590981006622, -0.0835413858294487, 0.06392700225114822, 0.008445014245808125, 0.02913825958967209, 0.03866659477353096, 0.04914487898349762, 0.04044421389698982, 0.014823452569544315, -0.04455099627375603, 0.00989396683871746], [0.05775357410311699, -0.008698748424649239, -0.02258305996656418, 0.022859131917357445, 0.06865637749433517, 0.03853611275553703, 0.028131037950515747, 0.07876349240541458, 0.002015584846958518, -0.019948337227106094, 0.045277200639247894, -0.02584412693977356, 0.025950662791728973, -0.06582821905612946, -0.06444999575614929, 0.02410353720188141, -0.025712875649333, 0.11737293004989624, -0.01898656040430069, 0.0593436062335968, 0.030141405761241913, -0.0427008792757988, -0.03376035392284393, 0.04583409056067467, 0.02764921635389328, -0.047038208693265915, 0.018841344863176346, 0.0025155204348266125, -0.01693829707801342, 0.04077612981200218, -0.017887979745864868, 0.0059491838328540325], [0.104807049036026, 0.08363997936248779, 0.048158448189496994, 0.025236086919903755, -0.01119449082762003, 0.04090697690844536, -0.01006740890443325, 0.011328729800879955, 0.0009494833066128194, 0.027325598523020744, 0.014983255416154861, -0.041471004486083984, 0.012253335677087307, -0.02638641744852066, -0.047643981873989105, 0.057123489677906036, 0.012977379374206066, 0.05447104573249817, 0.012212643399834633, -0.09588492661714554, 0.020622987300157547, -0.012140843085944653, -0.06421063095331192, 0.05002197250723839, 0.006528439465910196, 0.005166768562048674, 0.051225338131189346, 0.11954358220100403, 0.06938222050666809, -0.06784997135400772, 0.013425040990114212, -0.028919298201799393], [0.04755751043558121, -0.03894728422164917, 0.0630074068903923, -0.02277989313006401, 0.010784780606627464, -0.053737569600343704, 0.09669911861419678, 0.05789828300476074, -0.0023788977414369583, 0.007757203187793493, -0.011005171574652195, -0.048267167061567307, 0.020791612565517426, 0.00514925317838788, 0.04405687004327774, 7.957221532706171e-05, 0.05903543159365654, 0.014553962275385857, -0.00010123461834155023, -0.0054515451192855835, 0.02866300381720066, -0.052418552339076996, 0.03947301581501961, 0.058472927659749985, 0.07392076402902603, -0.0305712278932333, -0.023346787318587303, -0.009484203532338142, -0.0571366511285305, -0.0026064265985041857, -0.05488583445549011, -0.013929732143878937], [-0.021475765854120255, -0.016060275956988335, -0.026434069499373436, -0.05008677393198013, 0.028518693521618843, -0.020342810079455376, 0.0016705814050510526, -0.03358210250735283, -0.007158729247748852, -0.007680026814341545, -0.012591654434800148, 0.003114648861810565, 0.006456254981458187, -0.09341610223054886, 0.011592942290008068, 0.022859513759613037, 0.07633672654628754, 0.03000682219862938, -0.02814444899559021, 0.002137853065505624, 0.040781036019325256, 0.010810323990881443, 0.006341549567878246, 0.024887913838028908, 0.07956885546445847, -0.03739210218191147, 0.05090742185711861, 0.04552349075675011, 0.0008648804505355656, -0.004077977500855923, 0.01332099549472332, 0.06181376427412033], [0.008059712126851082, 0.08483412116765976, -0.0187397263944149, 0.013199997134506702, 0.05660340189933777, -0.05333365127444267, 0.011470314115285873, 0.013881237246096134, 0.07070101052522659, 0.05418917164206505, 0.03642445430159569, -0.042348045855760574, 0.03662945702672005, -0.09456887096166611, 0.04219867289066315, -0.0232907272875309, -0.019999241456389427, 0.04457370564341545, -0.036572642624378204, -0.010147275403141975, 0.04713251814246178, -0.030547387897968292, -0.047333937138319016, 0.0863560363650322, 0.02367699332535267, 0.05463981628417969, 0.03461858630180359, 0.010378946550190449, -0.0008972719078883529, 0.014297123067080975, 0.018735453486442566, -0.00884291622787714], [0.008155913092195988, 0.02397533692419529, 0.05224798992276192, 0.049092840403318405, -0.08102880418300629, 0.07666051387786865, 0.05129097402095795, 0.0025834522675722837, 0.0989825502038002, 0.08521532267332077, 0.06345837563276291, 0.033545348793268204, 0.004500804468989372, -0.09589525312185287, 0.022047895938158035, -0.04888736084103584, 0.02703620120882988, 0.12192413210868835, 0.03784196823835373, 0.005270347464829683, -0.0015277141937986016, -0.026904946193099022, 0.03240444138646126, 0.05185527354478836, 0.06083151698112488, 0.0530170276761055, -0.018477225676178932, 0.07480838894844055, -0.12180086225271225, 0.009999877773225307, -0.04369495436549187, 0.018328595906496048], [-0.06686738133430481, 0.04028702899813652, 0.08090232312679291, -0.05441700667142868, 0.0801423192024231, -0.005274687893688679, 0.05887443199753761, 0.07677847892045975, 0.00709137786179781, 0.005482420325279236, 0.06053460016846657, 0.008798747323453426, -0.07772905379533768, -0.04489639401435852, -0.009075762704014778, 0.001957640750333667, 0.08239931613206863, 0.056916844099760056, -0.009941916912794113, 0.07058300077915192, -0.017795395106077194, -0.05574323609471321, -0.001802888815291226, 0.053073715418577194, 0.012392580509185791, 0.011410846374928951, 0.02063811384141445, -0.006779600400477648, -0.05326765030622482, -0.0764852985739708, -0.010940821841359138, 0.060439854860305786], [-0.013971810229122639, 0.030504651367664337, 0.05664187669754028, 0.05901208892464638, 0.01058706734329462, 0.026011476293206215, 0.0575384721159935, 0.012565319426357746, 0.08829499036073685, 0.07343178242444992, 0.009950351901352406, 0.04064523056149483, -0.06958092749118805, 0.00984827522188425, -0.030983328819274902, 0.020639289170503616, 0.004619203042238951, -0.012083180248737335, -0.07461876422166824, 0.02318892441689968, 0.03620056435465813, -0.0062276157550513744, -0.04456368088722229, 0.007399274967610836, 0.032105401158332825, -0.040908973664045334, -0.0478956513106823, 0.04792919009923935, -0.002902550622820854, -0.08302341401576996, -0.04751412197947502, 0.029332133010029793], [0.02584729716181755, -0.021143248304724693, 0.06002901494503021, -0.031964391469955444, -0.026962686330080032, 0.05038280785083771, 0.017665499821305275, 0.09505394101142883, 0.01783423312008381, -0.005238068290054798, 0.018513405695557594, 0.03782450407743454, -0.08217085152864456, -0.09580627083778381, 0.05262276157736778, -0.028749626129865646, 0.09416273236274719, 0.03870916739106178, -0.0844334065914154, 0.01654786989092827, -0.03886531665921211, -0.005331201013177633, -0.0025038900785148144, 0.015504129230976105, 0.008721522055566311, 0.0166302602738142, 0.03889228031039238, 0.046147510409355164, -0.04568326845765114, -0.01699976809322834, 0.02058723382651806, -0.034537896513938904], [-0.04753576219081879, 0.03096800670027733, 0.07806264609098434, -0.04041517898440361, -0.06454982608556747, 0.06930086016654968, -0.03526167944073677, 0.039483442902565, 0.0603845976293087, 0.09504345059394836, 0.08093491941690445, 0.00015818064275663346, -0.03682075813412666, -0.03237347677350044, -0.04142232984304428, -0.02960486151278019, 0.030695125460624695, 0.04669153690338135, 0.02216530777513981, -0.018576588481664658, -0.04072318598628044, -0.019784314557909966, -0.013578185811638832, 0.022426672279834747, 0.07624231278896332, 0.07541954517364502, 0.03140980377793312, 0.06765707582235336, -0.08692009001970291, -0.07092857360839844, 0.006500156596302986, 0.07322069257497787], [-0.015610902570188046, 0.06586768478155136, 0.02613489143550396, 0.0037755982484668493, 0.0335349440574646, -0.01994798146188259, 0.12433435022830963, 0.026910042390227318, 0.023716023191809654, 0.09371956437826157, -0.022862447425723076, 0.05227192863821983, -0.08641336113214493, -0.03630167618393898, -0.027737513184547424, 0.027998462319374084, -0.006303603295236826, 0.09390998631715775, -0.08757702261209488, 0.005533712450414896, -0.05985264107584953, -0.02498985268175602, 0.0035570606123656034, 0.053733665496110916, -0.03690081462264061, -0.02111750841140747, 0.009696023538708687, 0.014244833961129189, -0.02135898545384407, -0.06618604809045792, -0.05638997256755829, 0.03112475760281086], [0.02040436677634716, 0.07227852940559387, 0.08677844703197479, -0.006395782344043255, 0.0007358415168710053, 0.11941996216773987, -0.01011152844876051, -0.014641247689723969, 0.031067395582795143, 0.03244737163186073, 0.09413270652294159, -0.04678276553750038, -0.007713682018220425, -0.02400396019220352, 0.0243828184902668, -0.05793656408786774, 0.04085773602128029, 0.1445414125919342, 0.022497110068798065, -0.024833515286445618, 0.021840320900082588, -0.023310218006372452, -0.014120449312031269, 0.004332390148192644, 0.0344625860452652, 0.006266965996474028, 0.06659901887178421, 0.08154759556055069, -0.05765309929847717, -0.008253010921180248, -0.03259957954287529, -0.013458521105349064], [0.02476973831653595, 0.04865249991416931, 0.082363061606884, -0.016740942373871803, 0.04899172484874725, -0.07991082221269608, 0.1351197510957718, 0.05322568491101265, 0.0625942051410675, -0.0018675148021429777, 0.007705276366323233, 0.01171424426138401, -0.060724686831235886, -0.0031510931439697742, 0.01540544256567955, -0.03873748332262039, 0.015620516613125801, 0.14142858982086182, 0.048297055065631866, -0.007581325247883797, 0.011003351770341396, 0.004413507413119078, 0.020948192104697227, 0.03250478208065033, 0.023255491629242897, 0.04777652770280838, -0.03183242306113243, 0.017108220607042313, 0.04407159984111786, -0.016986699774861336, 0.0045690047554671764, -0.048229146748781204], [-0.0200714860111475, 0.03914434462785721, 0.06841863691806793, -0.022249460220336914, 0.05884801596403122, 0.03721649572253227, 0.11112606525421143, 0.05840952321887016, -0.0019415805581957102, 0.03758753836154938, -0.05020664259791374, 0.05782191455364227, -0.0683734118938446, -0.05046753212809563, -0.02993115223944187, 0.04052073508501053, -0.011064836755394936, 0.11506855487823486, -0.0018594166031107306, 0.0015477542765438557, 0.0369226410984993, -0.0595356822013855, 0.004938328173011541, -0.01340166199952364, -0.008535776287317276, 0.04988233372569084, 0.04598385468125343, 0.05678118020296097, -0.02259158343076706, -0.08040187507867813, -0.03978600353002548, 0.02427397295832634], [0.00028235974605195224, 0.011395839042961597, 0.03487708419561386, 0.0571107491850853, -0.046117983758449554, 0.050552353262901306, 0.016382476314902306, -0.02109720930457115, 0.0017568337498232722, 0.002982706530019641, 0.029537469148635864, -0.029064966365695, -0.06422698497772217, -0.05699360743165016, -0.051788080483675, -0.025092534720897675, 0.10264047980308533, 0.08210515230894089, -0.01704302243888378, 0.03975595533847809, -0.0053834994323551655, -0.008039173670113087, -0.08665855973958969, 0.03675105422735214, -0.013963675126433372, -0.0747779905796051, 0.02170771174132824, 0.07796480506658554, -0.0031125135719776154, 0.019492296501994133, -0.06220797821879387, -0.038758374750614166], [-0.035008978098630905, 0.03898649290204048, 0.0401596762239933, 0.02871113270521164, -0.03188209608197212, 0.040823400020599365, 0.015201792120933533, 0.001758839120157063, 0.025392914190888405, -0.0021875067614018917, -0.09129129350185394, -0.001360911875963211, -0.07869789004325867, -0.0973593071103096, -0.02535823918879032, 0.008022677153348923, 0.03020177222788334, 0.07665804028511047, -0.04075409471988678, 0.004209725186228752, 0.031255025416612625, -0.07205639779567719, 0.08868511021137238, -0.007792862597852945, 0.04590560495853424, 0.006838497240096331, -0.0038180553819984198, -0.03546765819191933, -0.08092092722654343, -0.06038346886634827, 0.043579429388046265, 0.07475804537534714], [-0.024887384846806526, 0.003527327673509717, 0.10596504807472229, -0.05953577533364296, -0.012643210589885712, 0.008975022472441196, 0.07549508661031723, 0.056421853601932526, 0.016346054151654243, 0.009348663501441479, -0.035514332354068756, -0.02298929914832115, 0.004927084781229496, -0.017209723591804504, -0.014606453478336334, 0.015123439952731133, 0.07387105375528336, 0.05420781672000885, 0.01233282033354044, 0.10768358409404755, 0.00843347143381834, 0.039417680352926254, -0.09218322485685349, 0.038912445306777954, 0.07021569460630417, 0.0028660837560892105, -0.006563094444572926, 0.07039324939250946, -0.030832801014184952, 0.012827912345528603, -0.004294066224247217, -0.057885028421878815], [-0.11014888435602188, 0.09144554287195206, 0.029757488518953323, 0.03777826577425003, -0.04240317642688751, -0.0378938727080822, 0.08399980515241623, 0.0172873567789793, 0.03677450865507126, 0.08037968724966049, -0.04716118797659874, 0.017228422686457634, -0.14194467663764954, -0.07969783246517181, -0.016105955466628075, -0.046562232077121735, 0.1570485532283783, 0.010663477703928947, -0.049792200326919556, 0.0331539660692215, 0.052020393311977386, -0.062082815915346146, 0.061984073370695114, 0.025083152577280998, -0.02548692375421524, -0.02329096570611, 0.02701510116457939, 0.013444525189697742, -0.08972647786140442, -0.05177467688918114, -0.0239776149392128, 0.06817969679832458], [0.025838542729616165, 0.011556227691471577, 0.06280215829610825, 0.008953193202614784, 0.016476333141326904, 0.02089822106063366, 0.040864165872335434, 0.005771354306489229, 0.055129554122686386, 0.06436023116111755, -0.08556747436523438, 0.038634043186903, -0.12686064839363098, -0.04337601736187935, 0.019204597920179367, -0.03327825292944908, 0.16625869274139404, 0.06936579942703247, -0.06602290272712708, 0.08943723887205124, 0.039704155176877975, -0.02983255498111248, 0.037775006145238876, -0.05598854646086693, 0.07105196267366409, -0.05781905725598335, -0.0056725163012743, -0.03866869956254959, -0.055590882897377014, -0.020124290138483047, 0.01495108101516962, 0.06042337417602539], [-0.0017158491536974907, 0.04604888707399368, -0.06840945780277252, 0.07823209464550018, -0.02145400270819664, -0.029774624854326248, 0.01307443343102932, 0.042160723358392715, 0.05610688030719757, 0.061172183603048325, 0.03559426590800285, 0.019209984689950943, -0.016560068354010582, -0.14757193624973297, 0.051063086837530136, 0.0579678975045681, -0.010823997668921947, 0.0685335248708725, -0.0017409923020750284, -0.0450032539665699, 0.02312501333653927, -0.0361042357981205, 0.04145781323313713, -0.03932775929570198, 0.07717034220695496, 0.04488788917660713, -0.03465234488248825, 0.05900168791413307, -0.04218694567680359, 0.04418323189020157, 0.004157320596277714, 0.06262750178575516], [-0.08758125454187393, 0.00866501685231924, 0.05485892668366432, -0.006576294079422951, 0.010001851245760918, 0.014277416281402111, 0.14578036963939667, 0.06716810166835785, 0.02009246125817299, 0.11316118389368057, -0.013476802967488766, -0.04333016648888588, -0.015349067747592926, -0.07661949843168259, 0.03122956119477749, -0.016936521977186203, 0.0035512594040483236, 0.040418997406959534, -0.06305024772882462, 0.0323617197573185, -0.006292521022260189, 0.007772510405629873, 0.03594079613685608, -0.05507863685488701, -0.025312867015600204, -0.05763176456093788, -0.012746118009090424, 0.044097911566495895, -0.10954362154006958, 0.022842586040496826, 0.02714221179485321, 0.09558537602424622], [-0.004074511583894491, 0.048199236392974854, 0.04722842201590538, 0.13600625097751617, -0.06473163515329361, -0.003549119457602501, -0.002406523795798421, 0.013243109919130802, 0.02095884270966053, 0.04999862611293793, 0.028644859790802002, -0.007178448140621185, 0.002971630310639739, -0.0814548209309578, -0.012238080613315105, 0.035456251353025436, 0.05973722040653229, 0.1249663457274437, -0.12355082482099533, -0.03309282660484314, 0.032315704971551895, 0.02647477760910988, -0.001356801250949502, 0.012067139148712158, -0.017411215230822563, -0.03701885789632797, 0.028289172798395157, 0.044652797281742096, -0.027291780337691307, -0.028820963576436043, -0.026905106380581856, 0.08896701782941818], [-0.0621025525033474, 0.0015966476639732718, 0.054833345115184784, 0.015394898131489754, 0.041302621364593506, 0.01036500371992588, 0.06142723187804222, 0.0718994215130806, -0.004067859146744013, -0.012633704580366611, 0.09745550900697708, 0.026872387155890465, -0.032396603375673294, -0.06291113048791885, -0.06172419339418411, -0.029319390654563904, -0.036147624254226685, 0.1114388257265091, -0.07174209505319595, 0.058633796870708466, -0.00615654606372118, -0.004238528665155172, -0.046467605978250504, -0.010341892018914223, 0.04814247041940689, 0.07262135297060013, -0.014816530980169773, 0.024364950135350227, -0.08317305147647858, -0.0721658319234848, 0.0507260337471962, 0.024201203137636185], [-0.06308834999799728, -0.02296951599419117, -0.027817608788609505, 0.06340629607439041, 0.01451639924198389, -0.0011027202708646655, 0.08847418427467346, 0.07638572156429291, 0.09898608177900314, 0.02350926771759987, 0.04186602309346199, 0.011184895411133766, -0.05382530018687248, 0.00792265310883522, -0.019663996994495392, -0.01937839388847351, 0.08366704732179642, 0.06866488605737686, -0.06561488658189774, 0.024359146133065224, -0.049324456602334976, -0.002244178671389818, 0.003441794775426388, 0.06766750663518906, 0.055747974663972855, 0.0018647940596565604, 0.06946870684623718, -0.02855980210006237, -0.11349080502986908, 0.027723129838705063, -0.04421869292855263, 0.022256772965192795], [-0.04085155203938484, 0.033663325011730194, -0.0795803964138031, 0.05638749152421951, -0.08303619921207428, 0.03821040317416191, 0.02505645714700222, 0.054988209158182144, 0.09199409931898117, 0.034992922097444534, -0.08578749001026154, -0.028287852182984352, -0.009194456972181797, -0.029914986342191696, 0.00884836446493864, 0.04533621668815613, 0.09798390418291092, 0.023180581629276276, -0.062484968453645706, 0.1039734035730362, -0.02146831527352333, 0.019854344427585602, -0.050469473004341125, -0.038526881486177444, -0.0973520278930664, -0.04725542664527893, -0.04187172278761864, 0.040675364434719086, -0.013354909606277943, 0.06425908952951431, -0.013254748657345772, 0.029239341616630554], [0.05736193805932999, 0.07229577004909515, 0.009700285270810127, 0.08234886080026627, -0.0070600020699203014, 0.0006782095297239721, 0.13457313179969788, 0.07770275324583054, 0.021055763587355614, 0.0700007900595665, -0.020062485709786415, 0.06928254663944244, -0.09266896545886993, -0.060101862996816635, 0.021305887028574944, -0.01453825831413269, 0.16318799555301666, 0.07355112582445145, -0.185976043343544, 0.0240315031260252, -0.0030805489514023066, -0.06312142312526703, 0.03426274284720421, 0.07204319536685944, 0.026930607855319977, 0.09780734777450562, 0.0743262842297554, -0.06719496101140976, -0.02100454829633236, -0.0781998261809349, 0.01056410651654005, -0.006612935569137335], [0.022382544353604317, 0.034602630883455276, -0.0053740679286420345, 0.07200790196657181, -0.08197826892137527, -0.0324498787522316, 0.05934182181954384, 0.0918092280626297, 0.01972571201622486, 0.051064249128103256, -0.018866771832108498, -0.04041904956102371, -0.06812967360019684, -0.05203929543495178, -0.017699336633086205, -0.049583178013563156, 0.06315771490335464, 0.04775993153452873, -0.022488141432404518, -0.003328121267259121, 0.012286689132452011, -0.025648437440395355, 0.01630268059670925, -0.0136247668415308, 0.002697088522836566, 0.03225098177790642, 0.043975941836833954, -0.0681958794593811, -0.07525783032178879, -0.01667831465601921, 0.014493493363261223, 0.10476434230804443], [-0.03269820660352707, -0.043506599962711334, 0.08409997820854187, 0.062928706407547, 0.01638498157262802, 0.038119129836559296, 0.05679084733128548, 0.039866458624601364, 0.110557422041893, 0.004428718239068985, -0.07824406772851944, 0.03891127556562424, -0.010187146253883839, -0.023651497438549995, -0.03464007005095482, -0.05712910369038582, 0.1850547343492508, 0.0828237384557724, -0.06847875565290451, 0.0627886950969696, -0.02871881239116192, -0.012347727082669735, -0.05144732818007469, 0.026884641498327255, -0.0710969865322113, -0.015151157975196838, 0.06556724011898041, 0.03377172350883484, 0.006233035121113062, -0.09083126485347748, -0.008986249566078186, 0.025523023679852486], [-0.07821507751941681, 0.06207294762134552, -0.011154185980558395, 0.07566959410905838, 0.0028381964657455683, 0.005708418320864439, 0.06983433663845062, 0.07334518432617188, 0.11122915893793106, 0.006222440395504236, 0.00770016061142087, 0.06324552744626999, -0.13279788196086884, -0.06144266948103905, 0.02168031968176365, 0.030167633667588234, 0.1370539516210556, 0.05803874135017395, -0.170831561088562, 0.08599015325307846, 0.03984259068965912, -0.05950850248336792, -0.03432529419660568, -0.04979204759001732, -0.019648296758532524, -0.05191590636968613, 0.020411456003785133, -0.016651177778840065, -0.11061030626296997, -0.0024548969231545925, 0.05233682319521904, 0.052181266248226166], [-0.08782106637954712, -0.018670426681637764, 0.02770908735692501, 0.03995636850595474, -0.08784997463226318, 0.0667535737156868, 0.00024506161571480334, 0.016230115666985512, 0.17039191722869873, 0.08526193350553513, -0.00481795659288764, 0.01669798232614994, -0.052528396248817444, -0.14800147712230682, 0.05295160785317421, 0.04434214159846306, 0.04360206797719002, 0.08462224155664444, -0.15506993234157562, 0.03605038300156593, 0.02676662802696228, -0.00433050561696291, -0.03637139871716499, -0.010180175304412842, 0.021843334659934044, -0.028638960793614388, 0.055138178169727325, 0.04119520261883736, -0.11032288521528244, -0.08347421884536743, 0.019041452556848526, 0.13977016508579254], [-0.028546584770083427, -0.0023541736882179976, 0.03795744106173515, 0.07439813762903214, -0.0752658024430275, 0.020311862230300903, 0.10157258063554764, 0.04184411093592644, 0.017025401815772057, 0.10384629666805267, -0.11096519231796265, 0.0071840365417301655, -0.04814593866467476, -0.09120041131973267, 0.02270711585879326, 0.017179246991872787, 0.049809690564870834, 0.058427952229976654, -0.11037188023328781, 0.131428062915802, -0.017042143270373344, 0.04940014332532883, -0.02032562717795372, -0.027770785614848137, 0.04176013171672821, 0.03097234107553959, -0.022142883390188217, -0.02954358235001564, -0.15742629766464233, -0.010364026762545109, -0.033759117126464844, 0.1107955053448677], [0.004978581331670284, -0.006717470474541187, 0.03473248705267906, 0.04936496540904045, -0.11399756371974945, -0.0360042080283165, -0.06347601860761642, -0.018969682976603508, 0.08833037316799164, 0.06351494789123535, 0.07062745839357376, -0.02200242690742016, -0.050278227776288986, -0.06235485151410103, 0.009677608497440815, -0.00033133631222881377, 0.10573214292526245, 0.112827830016613, -0.1689571887254715, 0.004826719872653484, 0.06300104409456253, -0.008998826146125793, 0.02975538745522499, -0.039744921028614044, 0.041150107979774475, 0.0662418082356453, -0.054070960730314255, 0.04173845425248146, 0.020313110202550888, -0.021814819425344467, -0.010369982570409775, 0.057951610535383224], [-0.04728899151086807, 0.07105252891778946, 0.04481346160173416, 0.016398776322603226, 0.04045385494828224, 0.02601899765431881, 0.04743489623069763, 0.013461608439683914, 0.10531090945005417, 0.026501018553972244, -0.04748544096946716, -0.06259066611528397, -0.031668491661548615, 0.005016343668103218, 0.03481317311525345, 0.053814295679330826, -0.006541513837873936, 0.10667929798364639, 0.0060517508536577225, 0.0937623530626297, 0.0013796240091323853, -0.022429771721363068, 0.04286433756351471, 0.038284312933683395, 0.025251461192965508, 0.04427754133939743, -0.037443727254867554, -0.01243915781378746, -0.0520736500620842, -0.0386444628238678, -0.0629015639424324, 0.048334285616874695], [-0.05789898335933685, 0.019182341173291206, 0.05391893535852432, 0.09962313622236252, -0.019507670775055885, 0.012821553274989128, 0.025390779599547386, 0.0866694375872612, 0.09365925937891006, 0.03431624919176102, -0.01918080262839794, 0.0005723939393647015, -0.04366059601306915, 0.003392772050574422, -0.027938557788729668, -0.0023402562364935875, 0.0844079852104187, -0.036322347819805145, -0.07392843067646027, 0.10708488523960114, -0.026477208361029625, 0.02614905871450901, -0.05678746849298477, -0.028375204652547836, -0.06874825805425644, -0.0865183025598526, 0.025630321353673935, -0.017122970893979073, -0.029491685330867767, -0.0074386680498719215, -0.05544969439506531, 0.13328520953655243], [-0.006015536841005087, 0.09837313741445541, 0.042997851967811584, 0.07801655679941177, 0.0976821556687355, 0.03378777205944061, 0.12105266004800797, 0.003793517593294382, 0.008453370071947575, 0.0740673840045929, 0.004086146596819162, 0.021159106865525246, -0.0020959009416401386, -0.09264932572841644, -0.06717527657747269, 0.052448853850364685, 0.17434510588645935, -0.0029283459298312664, -0.06419628113508224, 0.18006260693073273, 0.006024966947734356, -0.07319163531064987, -0.016045255586504936, 0.07684869319200516, -0.018638841807842255, -0.10674317926168442, -0.06521119922399521, -0.01361375767737627, 0.03631819039583206, 5.404470721259713e-05, -0.006738164462149143, 0.0439252033829689], [0.02687254175543785, 0.020096449181437492, 0.00644115312024951, 0.04923107102513313, -0.07999537885189056, 0.040901683270931244, -0.02463587000966072, -0.02895054966211319, 0.11312540620565414, 0.03755558282136917, -0.016063807532191277, 0.04604247957468033, -0.040006473660469055, -0.05841847509145737, -0.0687255859375, -0.016954129561781883, 0.0879683718085289, 0.05852910131216049, -0.12374039739370346, 0.03461731597781181, -0.00688667967915535, 0.05108673498034477, -0.04558923840522766, -0.005296250339597464, 0.024602044373750687, 0.07374919950962067, 0.047024697065353394, -0.04851127043366432, -0.06698951870203018, -0.08218757063150406, 0.001980358036234975, 0.04990662261843681], [-0.07093203067779541, -0.018840912729501724, 0.06237819790840149, 0.05652951821684837, 0.06368058919906616, 0.011462273076176643, 0.14130279421806335, 0.14170657098293304, 0.03704183176159859, 0.06398507207632065, -0.06650333106517792, -0.01995736174285412, -0.048659417778253555, -0.12765569984912872, 0.001145699992775917, 0.04367919638752937, 0.1630556732416153, 0.1358138471841812, -0.162326380610466, 0.09384230524301529, -0.0561317540705204, -0.002803081413730979, -0.034861594438552856, 0.0707491934299469, -0.07627544552087784, 0.004958110395818949, 0.024559101089835167, -0.0847722589969635, -0.12029445171356201, -0.02338096685707569, 0.01384661253541708, 0.025120370090007782], [0.030593061819672585, 0.02356879785656929, -0.013177277520298958, 0.06911160051822662, -0.027986865490674973, 0.043850041925907135, 0.007578515447676182, 0.03625068441033363, 0.06230420246720314, 0.12276434153318405, -0.049472108483314514, 0.07239500433206558, -0.024857113137841225, 0.015464344061911106, -0.06313173472881317, 0.0278145931661129, 0.15608711540699005, 0.07533789426088333, -0.15560795366764069, 0.09468576312065125, -0.057166170328855515, 0.05176418647170067, 0.022390980273485184, 0.022208260372281075, 0.023212259635329247, -0.03388102352619171, -0.027163339778780937, -0.08128000050783157, -0.03265931084752083, -0.004760510753840208, -0.03441990539431572, 0.030851593241095543], [0.029926013201475143, -0.022343827411532402, 0.048355743288993835, 0.0775933489203453, -0.09792912006378174, 0.00290971202775836, 0.009306731633841991, -0.007267683744430542, 0.0350397564470768, 0.10124935209751129, 0.03994692116975784, 0.033040523529052734, -0.041881680488586426, 0.014087804593145847, -0.039054375141859055, -0.0264536552131176, 0.10343173146247864, 0.05798612907528877, -0.15359878540039062, 0.019910916686058044, 0.02347114123404026, -0.05557871237397194, 0.033194005489349365, 0.011642079800367355, -0.0005741818458773196, 0.04371263459324837, 0.0210768710821867, -0.03933664411306381, 0.007558004464954138, 0.03794552758336067, -0.0097147012129426, 0.10575957596302032], [0.03650469705462456, 0.006104813423007727, 0.04597131162881851, 0.04998369887471199, -0.029913730919361115, 0.004161702003329992, -0.027790820226073265, 0.005639049224555492, 0.07579674571752548, 0.11821266263723373, 0.019977396354079247, -0.024635568261146545, -0.158098042011261, -0.12404624372720718, 0.04063152149319649, 0.0018840294796973467, 0.03434598445892334, 0.004883456509560347, -0.142224982380867, 0.0374896340072155, -0.03318861871957779, 0.03528172895312309, -0.023458607494831085, 0.02828672155737877, -0.001490134745836258, 0.00752490246668458, 0.05185144767165184, 0.006474506575614214, -0.15683406591415405, -0.058155499398708344, -8.360873471247032e-05, 0.08236293494701385], [-0.0036685459781438112, 0.03888699412345886, 0.03817760571837425, 0.03617013245820999, -0.07768183946609497, 0.10795781016349792, -0.0019329965580254793, 0.021895136684179306, 0.03023509681224823, 0.08479270339012146, -0.01780378445982933, 0.06713741272687912, -0.08852063119411469, -0.008860254660248756, 0.02926982007920742, -0.032834243029356, 0.11210956424474716, 0.014815444126725197, -0.14089667797088623, 0.10741816461086273, 0.01789175532758236, -0.021374709904193878, -0.07078151404857635, -0.0682365745306015, -0.0398024283349514, 0.050072383135557175, 0.010922201909124851, -0.08078840374946594, -0.03592121973633766, -0.08396409451961517, 0.04753265157341957, 0.08892101794481277], [-0.014102676883339882, 0.05499611794948578, 0.09293076395988464, -0.006956139113754034, -0.04941106587648392, 0.0854298323392868, -0.056055665016174316, -0.09754350781440735, 0.12826010584831238, 0.1007888987660408, 0.07274165749549866, 0.04954855144023895, -0.1188647523522377, -0.024048686027526855, 0.040560025721788406, -0.039972249418497086, 0.08668892085552216, 0.003340445226058364, -0.10237353295087814, -0.08922730386257172, 0.046142321079969406, -0.061568230390548706, -0.05764602869749069, -0.07575153559446335, 0.03441692888736725, 0.04300101846456528, 0.014219110831618309, 0.11294359713792801, -0.1053628921508789, 0.04059628024697304, -0.01435647252947092, 0.08629469573497772], [-0.03352188318967819, 0.0423114188015461, 0.09615687280893326, -0.00573772145435214, -0.07466930150985718, 0.026146208867430687, -0.029061490669846535, 0.015004624612629414, 0.11035987734794617, 0.09923058748245239, -0.0652334913611412, -0.023673171177506447, -0.005346394143998623, -0.04616709426045418, 0.014909789897501469, -0.03852102905511856, 0.08857928216457367, 0.20857973396778107, -0.0714854747056961, 0.07775591313838959, -0.008097424171864986, -0.02587018720805645, -0.1542704850435257, 0.07151319831609726, 0.10970388352870941, 0.039602648466825485, -0.014967715367674828, 0.05262954160571098, -0.05438965931534767, -0.07320686429738998, 0.022272594273090363, 0.048573121428489685], [-0.07934507727622986, 0.01911735162138939, 0.056074656546115875, 0.05112685263156891, 0.09068772941827774, -0.03163154795765877, 0.10486678779125214, 0.0017694715643301606, 0.047678835690021515, 0.010026955977082253, 0.021304061636328697, 0.023740921169519424, -0.13004764914512634, 0.030676908791065216, 0.03824758157134056, 0.029078105464577675, 0.16200381517410278, 0.06732910126447678, -0.08784371614456177, 0.09501522034406662, 0.02720261551439762, 0.024359386414289474, 0.027117444202303886, 0.027153026312589645, 0.03113030269742012, -0.009350988082587719, -0.0059660146944224834, -0.014639057219028473, -0.07239022105932236, 0.04773968458175659, 0.02352048270404339, 0.03752538561820984], [0.013199029490351677, 0.003492687363177538, -0.03762248903512955, -0.03144862502813339, 0.1127578392624855, 0.10023559629917145, 0.11231658607721329, 0.02801630273461342, 0.0485350638628006, 0.1727512925863266, 0.006789375562220812, 0.017874548211693764, -0.04497060179710388, 0.0007236966630443931, 0.06911449879407883, 0.05499601364135742, 0.16034334897994995, -0.009780779480934143, -0.011615932919085026, 0.06611355394124985, 0.019756976515054703, -0.06382964551448822, -0.044747836887836456, 0.04174927622079849, 0.017211733385920525, -0.008702442049980164, -0.015255142003297806, -0.03647102415561676, 0.04533086717128754, 0.052044980227947235, 0.015744078904390335, 0.12656047940254211], [0.043374303728342056, -0.05419604852795601, 0.02108939364552498, -0.014908350072801113, -0.040767595171928406, -0.035490576177835464, -0.05110172927379608, 0.07933463901281357, 0.09836860001087189, -0.020894741639494896, 0.04623965546488762, 0.03230259194970131, -0.06171790137887001, 0.027585122734308243, -0.05991094559431076, 0.05125664547085762, 0.023718537762761116, 0.022113069891929626, -0.06850636005401611, -0.02077958732843399, 0.011612866073846817, 0.00036147970240563154, 0.0670512244105339, -0.03952043876051903, 0.08364371955394745, 0.07124897837638855, -0.013024580664932728, -0.09989259392023087, -0.08920411765575409, -0.05309467762708664, 0.02318546175956726, 0.07501980662345886], [-0.036201801151037216, 0.014589525759220123, 0.04080069065093994, 0.03866194188594818, 0.06785687804222107, 0.0741221085190773, 0.026320282369852066, 0.14218789339065552, 0.07549196481704712, 0.1748703271150589, 0.04117666184902191, 0.04775187373161316, -0.08789392560720444, -0.05438818410038948, 0.01812903955578804, 0.0280394796282053, 0.07967350631952286, 0.022365901619195938, -0.059027060866355896, 0.07968439906835556, -0.016653019934892654, -0.05322057008743286, 0.015019325539469719, -0.019537921994924545, -0.09264189004898071, 0.030365295708179474, -0.019400067627429962, 0.004797810222953558, -0.13220170140266418, 0.04571148380637169, -0.006891278084367514, 0.09045348316431046], [0.0284607894718647, 0.08586039394140244, -0.0005434678751043975, 0.012879841960966587, -0.026326486840844154, 0.015099219977855682, 0.04859428107738495, 0.055617235600948334, 0.0925803929567337, 0.006868704687803984, 0.062498539686203, 0.07320953160524368, -0.030558928847312927, 0.023403890430927277, 0.02137092500925064, -0.06037963181734085, 0.14280737936496735, 0.045221876353025436, -0.09668437391519547, 0.05525583401322365, -0.029953040182590485, 0.020127058029174805, 0.015062447637319565, 0.008846944198012352, -0.025905827060341835, 0.034195609390735626, 0.034501709043979645, -0.0010230154730379581, -0.10240468382835388, -0.029462996870279312, 0.04075314477086067, 0.08780369162559509], [-0.020730189979076385, 0.07384233176708221, 0.012798398733139038, 0.0780775249004364, -0.07619025558233261, 0.027650076895952225, -0.028737004846334457, 0.06713171303272247, 0.09722620993852615, 0.11229333281517029, 0.00931744184345007, 0.04861344397068024, -0.08917120844125748, -0.006369860842823982, 0.05855377018451691, -0.028831996023654938, 0.04038242623209953, -0.050787441432476044, -0.03895479068160057, 0.09449096024036407, 0.05335603654384613, -0.0006932136020623147, 0.03968385234475136, 0.0734211802482605, 0.05236446112394333, -0.011350314132869244, 0.03772635757923126, 0.004207828547805548, -0.020662203431129456, -0.029995206743478775, 0.04307600110769272, 0.08957009762525558], [0.050196319818496704, 0.020441366359591484, -0.008238705806434155, 0.00699726352468133, -0.027820585295557976, -0.0586824044585228, 0.031803298741579056, 0.04913492128252983, 0.06571218371391296, 0.05701993778347969, 0.0013660171534866095, -0.0008205241174437106, -0.1300312578678131, -0.040196459740400314, 0.08419384807348251, -0.037033192813396454, 0.05396595597267151, -0.049878042191267014, -0.08847346901893616, 0.0394749753177166, 0.05404235050082207, 0.0021078281570225954, -0.003636992536485195, -0.07690487802028656, 0.08366776257753372, -0.006370259448885918, -0.07570842653512955, 0.013481221161782742, -0.06344281882047653, 0.03189051151275635, -0.047630004584789276, -0.018864020705223083], [0.009640119038522243, -0.02414771541953087, 0.05573437362909317, 0.0857875868678093, 0.002759938593953848, -0.02180991694331169, 0.07265011221170425, 0.0749768614768982, 0.019287340342998505, 0.10838260501623154, 0.013229121454060078, 0.044064369052648544, -0.054689887911081314, 0.01010109856724739, -0.037852365523576736, -0.049813445657491684, 0.08668936789035797, 0.039068225771188736, -0.08956870436668396, 0.07635802775621414, 0.012303773313760757, 0.034272585064172745, 0.0009282356477342546, 0.008045526221394539, 0.07515020668506622, 0.04876664653420448, -0.014763657003641129, -0.12623441219329834, -0.09686223417520523, -0.016162391752004623, -0.02540803700685501, 0.06337708979845047], [0.10364639014005661, 0.01848258264362812, -0.004809327889233828, -0.009221376851201057, 0.037907857447862625, -0.05480649694800377, -0.006500003859400749, 0.0789932832121849, 0.03963075205683708, -0.016446446999907494, 0.05633164197206497, 0.05163484439253807, -0.12050395458936691, 0.00010704607120715082, 0.02966310828924179, -0.06326863169670105, 0.022061718627810478, 0.028727766126394272, -0.09095833450555801, -0.10500413179397583, 0.02374616265296936, 0.053622741252183914, -0.007199413608759642, -0.021159464493393898, 0.13093991577625275, -0.017341438680887222, -0.022712815552949905, 0.05999397486448288, -0.11540410667657852, 0.03163401037454605, -0.006906816735863686, 0.029063163325190544], [-0.04569637030363083, 0.017416976392269135, 0.07718098163604736, -0.07748205959796906, 0.011627740226686, -0.03368283435702324, 0.19858817756175995, -0.0031300680711865425, 0.03882085904479027, 0.11988118290901184, -0.05848816782236099, -0.03954661265015602, -0.05357859656214714, -0.002262482885271311, 0.03535576909780502, 0.03813232481479645, 0.06250613927841187, 0.08167991042137146, -0.1383000910282135, 0.05768236145377159, 0.05191132053732872, 0.013316015712916851, -0.03592138737440109, 0.02317737601697445, 0.08606501668691635, 0.09220114350318909, -0.05316703021526337, 0.02482452243566513, -0.1341688483953476, -0.17080406844615936, -0.04084835574030876, 0.018678056076169014], [0.0327020063996315, -0.014760807156562805, 0.06713027507066727, 0.03543930500745773, 0.02612842060625553, 0.09350818395614624, 0.05254535377025604, 0.029039908200502396, 0.0031418560538440943, 0.1376979798078537, -0.010081848129630089, 0.044782888144254684, -0.07223641127347946, 0.057475633919239044, 0.008508404716849327, -0.004475992638617754, 0.06066928058862686, -0.029050210490822792, -0.05088050663471222, 0.04833359271287918, -0.06525098532438278, 0.011001971550285816, -0.00601085415109992, 0.048719391226768494, 0.018792351707816124, -0.04635701701045036, -0.003569392953068018, -0.008996833115816116, -0.04231913015246391, 0.07852809131145477, 0.0026973083149641752, 0.0025928188115358353], [-0.02594439499080181, -0.02902635745704174, 0.03228455409407616, -0.028451990336179733, 0.07030975073575974, -0.012277347967028618, -0.0018046712502837181, -0.029389509931206703, -0.03581283241510391, 0.04748668521642685, -0.04448847100138664, 0.05447079986333847, -0.08437078446149826, -0.03224039822816849, 0.02463928423821926, -0.0038055924233049154, 0.08125732094049454, -0.014091428369283676, -0.07809662073850632, 0.035688094794750214, 0.025377321988344193, 0.02574964612722397, -0.007950399070978165, 0.04115686193108559, 0.06046704575419426, -0.019383259117603302, -0.03602468594908714, 0.007179252337664366, -0.12332796305418015, -0.02602684497833252, 0.0017030291492119431, 0.020670853555202484], [0.11409299820661545, 0.04251205548644066, -0.019817205145955086, 0.01090986654162407, 0.0012319892412051558, 0.01934647373855114, -0.05788801237940788, 0.03682415559887886, 0.023635435849428177, 0.04332498088479042, 0.06181066483259201, 0.030675387009978294, 0.026357091963291168, 0.05541830509901047, -0.09924247115850449, 0.050692323595285416, -0.04041167348623276, 0.026673225685954094, -0.12677831947803497, 0.04006943851709366, 0.01725052297115326, 0.02246049977838993, 0.011107978411018848, -0.04923200234770775, 0.04842915013432503, -0.018228044733405113, -0.019044801592826843, -0.012412963435053825, -0.10786088556051254, 0.10183341801166534, -0.03657237067818642, -0.02007542923092842], [-0.007008368615061045, -0.016438601538538933, 0.05743834003806114, 0.007897064089775085, 0.004444342106580734, 0.00046001700684428215, 0.06992831081151962, 0.03913392126560211, -0.02971659041941166, 0.12826666235923767, -0.004109163302928209, -0.0453210286796093, -0.07961589097976685, -0.031672198325395584, -0.014046278782188892, -0.020084204152226448, 0.14104057848453522, 0.013928208500146866, -0.04450470954179764, 0.09445522725582123, 0.036929741501808167, -0.04793652147054672, -0.05550573766231537, -0.03146602213382721, -0.07456772774457932, 0.006598548498004675, -0.03440782427787781, 0.018671996891498566, -0.20908182859420776, -0.04012945666909218, 0.015344671905040741, 0.010647154413163662], [0.0554264597594738, -0.013662816025316715, 0.021292736753821373, -0.04241801053285599, -0.0005255299620330334, 0.06207752227783203, 0.008823730051517487, 0.029681367799639702, -0.026497431099414825, 0.02461669035255909, -0.03533452749252319, 0.07261014729738235, -0.1096462607383728, 0.014335444197058678, -0.09774011373519897, 0.055860113352537155, 0.00126688985619694, 0.029346443712711334, -0.028287164866924286, 0.001856911345385015, -0.047542646527290344, -0.06524933129549026, -0.0007688585901632905, -0.0602218434214592, 0.09177830815315247, -0.006669091526418924, -0.0071230377070605755, -0.08917729556560516, -0.04297562688589096, 0.03559194132685661, -0.0052222153171896935, -0.020174169912934303], [0.091791070997715, 0.08351597934961319, -0.008186724036931992, -0.0030663099605590105, -0.012879014015197754, 0.04789355397224426, -0.019009143114089966, -0.0249876007437706, -0.017953313887119293, 0.0996614322066307, -0.025609519332647324, -0.029293352738022804, -0.06609232723712921, 0.10386386513710022, -0.02076120860874653, 0.03487216681241989, 0.08066687732934952, -0.051896411925554276, -0.033949289470911026, 0.0857892856001854, 0.025069473311305046, 0.04994487762451172, -0.04990176111459732, -0.017184797674417496, 0.08836600184440613, 0.019295135512948036, -0.07447830587625504, -0.09250617027282715, -0.12934255599975586, -0.014823749661445618, -0.019585372880101204, -0.03553453087806702], [0.0042008450254797935, 0.02684386633336544, 0.0517413429915905, -0.02659713849425316, 0.03660246357321739, 0.0036855831276625395, 0.014661264605820179, 0.13109560310840607, 0.01800500974059105, -0.008419305086135864, -0.014139208942651749, -0.02799150161445141, -0.0717306062579155, 0.049866482615470886, -0.09198914468288422, 0.011752667836844921, 0.0036079538986086845, -0.01997743919491768, -0.09115977585315704, -0.008602917194366455, -0.045999377965927124, 0.035978738218545914, 0.07744783908128738, -0.06384239345788956, 0.04289298877120018, 0.061803512275218964, -0.011625806801021099, -0.124674491584301, -0.1007799357175827, -0.05311809480190277, -0.01507025957107544, 0.04111167788505554], [-0.004517975728958845, 0.005999494343996048, -0.04647185280919075, 0.07145585864782333, -0.03838498890399933, 0.014038951136171818, 0.0006382485153153539, 0.0016280901618301868, 0.0399414598941803, 0.062385186553001404, 0.03811221942305565, 0.038147829473018646, -0.11315565556287766, 0.05047724395990372, -0.06084541231393814, 0.020724045112729073, -0.007716307882219553, -0.02097087725996971, -0.05626401677727699, 0.059267908334732056, -0.01566396839916706, -0.06345370411872864, 0.03932453319430351, -0.012978021055459976, -0.010095895268023014, 0.016395946964621544, 0.01710306480526924, -0.11338619142770767, -0.04910523444414139, -0.04444215074181557, -0.0002331238065380603, 0.07342345267534256], [0.07169917225837708, 0.033539362251758575, -0.06979884207248688, 0.054051849991083145, -0.053046077489852905, -0.04485032334923744, -0.01651030406355858, 0.05828920379281044, -0.0816589966416359, -0.034143682569265366, 0.10399503260850906, -0.03717423602938652, -0.06542406231164932, -0.003970910329371691, -0.03287559375166893, -0.034848738461732864, -0.06879546493291855, -0.042962681502103806, -0.06704574823379517, -0.01683337613940239, 0.009353000670671463, 0.028071874752640724, 0.062164057046175, -0.03799605369567871, 0.06857331097126007, 0.03504708409309387, -0.030743930488824844, -0.0633847564458847, -0.12844149768352509, 0.016654036939144135, -0.016875630244612694, 0.00753706693649292], [0.04994907230138779, 0.03636128082871437, -0.0035057878121733665, 0.04963322728872299, 0.006715370807796717, -0.0023117223754525185, 0.071615070104599, 0.018464379012584686, 0.09752210974693298, 0.07550538331270218, 0.049696777015924454, -0.0003011323278769851, -0.06669332832098007, 0.032441310584545135, 0.03062555566430092, 0.05337018147110939, 0.06186704337596893, -0.02567104436457157, -0.07626686990261078, 0.09248345345258713, -0.0281281229108572, -0.0763373076915741, 0.020588139072060585, -0.0028572760056704283, 0.013777789659798145, -0.07432739436626434, -0.017639977857470512, -0.0820499062538147, -0.05736789107322693, 0.012684447690844536, -0.05598454177379608, 0.0012486344203352928], [-0.017851099371910095, 0.09761365503072739, 0.03349077329039574, 0.03515245020389557, 0.015320144593715668, -0.02112116850912571, 0.06471121311187744, 0.024223171174526215, 0.010496168397367, 0.00919661857187748, 0.004779502283781767, 0.06806723773479462, -0.10424942523241043, 0.04146971553564072, 0.008930185809731483, -0.010726511478424072, 0.0999889224767685, -0.03616480529308319, -0.03723679110407829, 0.054768454283475876, -0.002902881009504199, 0.002914039185270667, -0.035501331090927124, -0.006115668453276157, -0.028262723237276077, -0.011610981076955795, -0.036290667951107025, -0.030987707898020744, -0.05134943500161171, 0.07408736646175385, 0.042069707065820694, 0.018976479768753052], [-0.01001538336277008, 0.062280990183353424, 0.08874092251062393, -0.025945546105504036, 0.0446888729929924, -0.028737418353557587, 0.04672107845544815, 0.0985766276717186, 0.007372376509010792, 0.0005494594806805253, 0.026612088084220886, -0.0287727490067482, -0.041923798620700836, 0.02926722727715969, 0.015007338486611843, -0.015103401616215706, 0.11559875309467316, -0.07384078949689865, 0.04788874834775925, 0.1604449599981308, -0.06912463158369064, 0.01115244161337614, -0.005467039532959461, 0.018288912251591682, -0.01700398698449135, 0.003135870210826397, -0.06434376537799835, -0.04848652705550194, -0.0319204106926918, 0.03226728364825249, 0.04804832860827446, 0.08609791845083237], [0.1715109646320343, 0.05990798771381378, 0.016975481063127518, 0.01823720708489418, -0.07471328973770142, -0.03573381155729294, 0.0037777586840093136, 0.0924343690276146, -0.06073012948036194, 0.03191429376602173, 0.07829195261001587, 0.05175332352519035, -0.053891755640506744, -0.022817716002464294, -0.10940944403409958, -0.03637435659766197, -0.10268490016460419, 0.0520225465297699, -0.15722912549972534, -0.03395837917923927, -0.06698273122310638, -0.02419452741742134, 0.011514538899064064, -0.05991054326295853, 0.12129677087068558, -0.03696151450276375, 0.008512604050338268, -0.03787289187312126, -0.009520409628748894, -0.044200457632541656, 0.03127320483326912, 0.0768885463476181], [-0.03463149815797806, 0.09617588669061661, 0.07448360323905945, -0.03207581117749214, 0.051323052495718, -0.05102352425456047, 0.12977512180805206, -0.007471983786672354, -0.005481945350766182, 0.17279432713985443, 0.05229051783680916, 0.027310321107506752, 0.011886891908943653, -0.03835820034146309, -0.11562884598970413, 0.061744190752506256, 0.07119850814342499, -0.007777010556310415, -0.012898319400846958, 0.04670790582895279, -0.01505535002797842, -0.00869489461183548, 0.016029296442866325, 0.006080154329538345, -0.016057075932621956, 0.0032411867287009954, -0.013617098331451416, -0.09147730469703674, -0.1613312065601349, 0.05043058842420578, -0.032893020659685135, -0.00342489848844707], [0.0245731882750988, 0.07977830618619919, 0.06410664319992065, -0.03437517210841179, -0.022240210324525833, 0.0014780620113015175, -0.0007592816837131977, 0.10092484205961227, -0.04880549758672714, 0.010652690194547176, 0.01537936832755804, 0.02057606913149357, -0.008786720223724842, -0.048603419214487076, -0.06837616115808487, 0.011723906733095646, 0.08387438207864761, 0.08838596194982529, -0.11594293266534805, -0.01788965053856373, 0.05369098484516144, 0.008500777184963226, 0.030667338520288467, -0.04722880199551582, 0.004126247018575668, -0.04594175145030022, -0.042269036173820496, 0.030571088194847107, 0.014670616015791893, 0.02706604264676571, -0.06051100417971611, -0.008429299108684063], [0.10917064547538757, 0.08799710869789124, -0.011714259162545204, 0.00893314927816391, 0.007483136374503374, -0.006041467655450106, -0.05781424418091774, 0.021588865667581558, -0.004784551449120045, 0.061450500041246414, -0.001387091469950974, -0.04634818807244301, -0.058690913021564484, 0.017022185027599335, -0.07844661176204681, -0.047483060508966446, 0.05555339157581329, 0.04505884647369385, -0.023736784234642982, 0.0024140304885804653, -0.013825575821101665, -0.04050150513648987, -0.010851695202291012, 0.03506474196910858, 0.07223552465438843, -0.06853832304477692, -0.03914864361286163, -0.04591844230890274, -0.07322059571743011, 0.07663118094205856, -0.0682792067527771, -0.008145446889102459], [0.08155597746372223, -0.029530003666877747, -0.0094844875857234, -0.04740273207426071, 0.0033315292093902826, 0.028110086917877197, -0.013157401233911514, 0.05246933549642563, -0.0705244243144989, 0.0997663289308548, -0.012582981958985329, 0.0069222538731992245, -4.107491986360401e-05, 0.0950181782245636, -0.08633371442556381, -0.0634707435965538, 0.03437751159071922, -0.01987524889409542, -0.052252739667892456, -0.08159126341342926, 0.04002656415104866, 0.04812303185462952, -0.03987010195851326, -0.044107839465141296, 0.03152911737561226, 0.0038793375715613365, -0.03611190244555473, -0.06354008615016937, -0.059255484491586685, -0.005484928376972675, -0.06967154890298843, 0.006132017355412245], [-0.009869030676782131, -0.021165713667869568, -0.008528945036232471, 0.06873276829719543, -0.0071220360696315765, -0.007570710964500904, 0.023717384785413742, 0.09936743229627609, -0.04192177578806877, 0.069052554666996, 0.027230745181441307, 0.01548224501311779, -0.060584764927625656, -0.04871051013469696, -0.11520224064588547, 0.059522680938243866, 0.0014411578886210918, 0.04143134504556656, -0.07012669742107391, 0.034548722207546234, -0.053407326340675354, -0.009725215844810009, 0.023089850321412086, -0.03056846559047699, 0.032434575259685516, 0.011754009872674942, -0.060438212007284164, -0.06304442882537842, -0.04938867315649986, -0.031084835529327393, 0.018828444182872772, 0.06377602368593216], [0.15596802532672882, 0.03493068367242813, -0.03839018940925598, -0.07268813252449036, -0.08434541523456573, -0.028575314208865166, -0.061834387481212616, 0.12198824435472488, -0.07689157128334045, 0.08032958954572678, 0.13341085612773895, -0.01683965139091015, 0.02655508741736412, -0.010164092294871807, -0.160809725522995, 0.003047145903110504, 0.010083778761327267, -0.003203893080353737, -0.12498225271701813, -0.15001702308654785, 0.06362932175397873, -0.002707629930227995, 0.08590824156999588, -0.021979471668601036, 0.15624168515205383, 0.03710680454969406, -0.03944126516580582, 0.0025186091661453247, 0.02100287564098835, 0.05633905157446861, -0.03213885799050331, 0.05201679468154907], [0.019357748329639435, 0.11065585166215897, -0.10236873477697372, 0.03220212459564209, 0.020445996895432472, 0.018959900364279747, 0.07728216797113419, 0.008328640833497047, 0.14288738369941711, 0.0491398423910141, -0.020756898447871208, -0.029270751401782036, -0.005165362264961004, -0.04212583601474762, -0.05375414714217186, 0.02983720973134041, 0.03720634803175926, -0.06644221395254135, -0.04501934349536896, 0.05854643136262894, -0.0540672205388546, 0.034982163459062576, -0.036239948123693466, 0.07481873780488968, 0.04478763788938522, -0.07119457423686981, -0.002053252886980772, -0.013490916229784489, -0.13380633294582367, 0.03406129404902458, -0.06631863862276077, 0.008304785937070847], [-0.004031322430819273, -0.021070169284939766, -0.00833073165267706, -0.008397804573178291, 0.11686781048774719, 0.04026055708527565, 0.048484645783901215, 0.1012764647603035, 0.0018362544942647219, 0.06808561831712723, -0.03247479349374771, 0.05226218327879906, -0.015431588515639305, 0.001893626875244081, -0.09113594144582748, -0.008243509568274021, 0.14109645783901215, -0.017229324206709862, -0.03378307446837425, 0.06901008635759354, -0.0714641660451889, 0.01922660693526268, 0.03174052760004997, 0.009887871332466602, -0.017295829951763153, -0.09579301625490189, -0.13270002603530884, -0.08041545003652573, -0.03898878023028374, 0.07875888794660568, 0.041707441210746765, -0.035574402660131454], [0.01626443676650524, 0.010710419155657291, -0.02490968443453312, -0.035506706684827805, 0.0049056545831263065, 0.02148447372019291, 0.07903645932674408, 0.09892835468053818, 0.009747170843183994, 0.0268072672188282, 0.03869890421628952, 0.015816954895853996, 0.01676763966679573, -0.015481208451092243, -0.05475983768701553, -0.027642540633678436, 0.02859210968017578, 0.041269201785326004, 0.018835069611668587, 0.04692535102367401, -0.0622493252158165, -0.018202295526862144, -0.06763675808906555, 0.00449896976351738, 0.0813303142786026, 0.01983014866709709, -0.01581624522805214, -0.00948517769575119, 0.0499386265873909, 0.0338224396109581, -0.026494599878787994, 0.00016849482199177146], [0.006795372348278761, 0.02039378695189953, 0.04642790928483009, -0.009117907844483852, -0.039881203323602676, -0.07337528467178345, -0.07097993046045303, 0.08458183705806732, 0.0016834131674841046, 0.03592979907989502, -0.0013452486600726843, 0.02469392865896225, 0.0011133650550618768, -0.04979385435581207, -0.037251606583595276, 0.00647464906796813, -0.06292716413736343, 0.07977553457021713, 0.016342874616384506, -0.08409634977579117, -0.012319358065724373, -0.07491427659988403, 0.09155546873807907, -0.009127546101808548, 0.0950830951333046, -0.0039198813028633595, -0.034857552498579025, -0.04210516810417175, -0.14823633432388306, -0.03325002267956734, -0.0566362664103508, -0.009433054365217686], [0.0876099020242691, 0.09480943530797958, 0.07855996489524841, -0.02489018626511097, 0.06556763499975204, -0.10831908136606216, 0.09808480739593506, 0.0951722115278244, -0.04124917834997177, 0.10169930011034012, 0.08197388797998428, -0.0363956093788147, -0.09947483241558075, 0.03695463389158249, -0.06367238610982895, -0.012842203490436077, 0.01555571611970663, 0.015347479842603207, 0.035558778792619705, -0.007941538468003273, 0.008562860079109669, -0.07217933237552643, 0.0336579829454422, -0.0925135388970375, 0.00712147681042552, 0.034334130585193634, -0.061780113726854324, -0.00021237495820969343, -0.07230180501937866, 0.027867864817380905, 0.011733325198292732, 0.008731028996407986], [0.1201128289103508, 0.09377439320087433, -0.04246293380856514, 0.02513734996318817, -0.0488264374434948, -0.03650413826107979, 0.008523155003786087, 0.11525807529687881, -0.04869265481829643, 0.028455615043640137, 0.08167906850576401, -0.028495898470282555, -0.07553885877132416, -0.061532363295555115, -0.11635535210371017, 0.029699942097067833, 0.06149478256702423, 0.05477800592780113, -0.0890284925699234, 0.02894696779549122, 0.043816935271024704, -0.02492334321141243, 0.07183989882469177, 0.004674007650464773, 0.031224409118294716, -0.0065973252058029175, -0.03358153998851776, -0.03380845487117767, -0.00543294008821249, -0.0661810040473938, 0.0008034618222154677, 0.04372774437069893], [0.024551087990403175, 0.056291576474905014, -0.030296042561531067, 0.01197949517518282, -0.033190276473760605, -0.0764935091137886, 0.023176686838269234, 0.11713653057813644, -0.011992547661066055, 0.036646466702222824, -0.06089982017874718, -0.04959334805607796, -0.02254604920744896, 0.037865154445171356, -0.05765180289745331, -0.042523983865976334, 0.04609609395265579, 0.07871116697788239, -0.07861566543579102, 0.04000464081764221, -0.021372012794017792, -0.057917747646570206, 0.06734226644039154, 0.029214749112725258, 0.035448379814624786, 0.03736446425318718, -0.0037882805336266756, -0.061889488250017166, -0.07408486306667328, -0.06776715815067291, -0.06470426172018051, 0.08920611441135406], [0.06388678401708603, 0.10965777188539505, -0.01832152158021927, -0.01150696910917759, 0.05720808729529381, -0.04769861325621605, 0.04575386643409729, 0.107684426009655, 0.04985332489013672, -0.002131668385118246, 0.014939183369278908, -0.05115136131644249, -0.06577242165803909, 0.00043559205369092524, -0.04577966406941414, -0.03523411601781845, -0.039686527103185654, -0.033155836164951324, 0.005516248755156994, 0.009789004921913147, 0.009117575362324715, -0.00037817435804754496, 0.07158927619457245, -0.020017821341753006, 0.12539289891719818, -0.032838184386491776, 0.021452173590660095, 0.033313848078250885, -0.006600359920412302, 0.03117087110877037, 0.04688512161374092, 0.05758126080036163], [0.03653814643621445, 0.07356380671262741, 0.04992043599486351, -0.028189659118652344, 0.000803914328571409, 0.0031201594974845648, -0.04214014112949371, 0.12932033836841583, 0.01638065278530121, 0.025128141045570374, 0.0391409657895565, -0.023875223472714424, -0.0369567796587944, -0.024522460997104645, -0.017810337245464325, 0.0611952543258667, -0.0037358824629336596, -0.013304009102284908, 0.004817452747374773, -0.0007349008810706437, 0.04022494703531265, 0.03489764407277107, 0.026025107130408287, -0.08045686036348343, 0.10942476987838745, -0.022044235840439796, -0.07202472537755966, -0.0726209506392479, -0.028192875906825066, -0.004178028553724289, -0.06766659766435623, 0.015590542927384377], [0.1356925368309021, 0.13051238656044006, -0.0051981243304908276, 0.07457086443901062, -0.1306692510843277, -0.06081296503543854, -0.09266456216573715, 0.09324249625205994, -0.008399270474910736, 0.025359701365232468, 0.11250241100788116, -0.06325523555278778, -0.11257162690162659, -0.03519022837281227, 0.04353807121515274, -0.01863132044672966, -0.08334724605083466, 0.03325685113668442, -0.1030007004737854, -0.12785111367702484, -0.042988408356904984, -0.0032733550760895014, 0.15319302678108215, 0.017006654292345047, 0.09009691327810287, 0.0911092534661293, -0.01873254030942917, 0.05649278312921524, -0.11422673612833023, -0.01273380871862173, 0.05722276121377945, -0.05359867587685585], [0.07788440585136414, -0.028364406898617744, -0.04220005124807358, 0.03473209962248802, 0.126462921500206, 0.06427870690822601, 0.08114808797836304, 0.026451323181390762, 0.011451718397438526, 0.026148445904254913, 0.0023736997973173857, -0.01865718886256218, -0.021105818450450897, 0.011285721324384212, 0.008067766204476357, -0.04825621098279953, -0.014760170131921768, 0.020265962928533554, -0.08282722532749176, -0.008378633297979832, -0.06942634284496307, -0.023601830005645752, -0.028321197256445885, -0.009014780633151531, 0.01591554656624794, -0.03579969331622124, -0.04141615703701973, -0.10578542202711105, -0.11261161416769028, -0.07392019033432007, -0.027048973366618156, -0.00872478075325489], [-0.015585722401738167, 0.06729920953512192, -0.03907463327050209, 0.010368382558226585, 0.03905421495437622, -0.056955646723508835, -0.019707094877958298, 0.07847098261117935, -0.0558629035949707, 0.08408233523368835, -0.047097932547330856, -0.007809033617377281, 0.03202410414814949, -0.03534150496125221, -0.011095835827291012, 0.05032757669687271, 0.1135278046131134, 0.08289480954408646, 0.004286825191229582, 0.0362824983894825, -0.03494974970817566, -0.010510938242077827, -0.07202891260385513, 0.036851584911346436, 0.018391747027635574, -0.01987479254603386, -0.02036389335989952, -0.026437189429998398, -0.05185670033097267, -0.04501292482018471, -0.025798428803682327, -0.0103526022285223], [-0.011961188167333603, 0.020901288837194443, -0.07849697768688202, 0.031510647386312485, -0.021982582286000252, -0.10801368206739426, 0.01087349746376276, 0.03318777307868004, 0.0321679562330246, 0.09873282164335251, 0.02554880455136299, 0.026966316625475883, 0.00559639185667038, 0.058954160660505295, -0.11167772859334946, -0.003040502779185772, 0.06931550055742264, -0.06830025464296341, 0.044650617986917496, 0.09775102883577347, 0.04497987776994705, -0.003260189201682806, -0.040857285261154175, -0.08137302845716476, 0.07904230058193207, 0.003303866134956479, -0.077212855219841, -0.0024443035945296288, 0.14369401335716248, 0.004832958336919546, 0.018942011520266533, 0.0797697976231575], [0.05212105065584183, -0.023579111322760582, -0.003772328607738018, 0.11775929480791092, -0.08448540419340134, -0.0006665590335614979, -0.05770053714513779, 0.09038806706666946, 0.04659666121006012, 0.012617653235793114, 0.035588834434747696, -0.056727584451436996, -0.10267568379640579, -0.01048751175403595, 0.0044217887334525585, -0.020843997597694397, -0.04007728025317192, 0.03614722937345505, -0.004384432453662157, -0.03477541357278824, -0.006736906711012125, -0.056459441781044006, 0.06163055822253227, -0.03280770406126976, 0.09482116252183914, 0.0003412683727219701, -0.044783927500247955, 0.017054591327905655, -0.19138559699058533, 0.033505912870168686, -0.02660221792757511, 0.009738716296851635], [-0.011005560867488384, 0.09203168004751205, -0.08385475724935532, 0.0714184120297432, 0.007150848396122456, -0.12405379861593246, 0.08156274259090424, 0.10209041833877563, -0.08309508860111237, 0.0462149977684021, 0.034223418682813644, 0.004786125849932432, 0.03737539425492287, 0.0080900052562356, -0.06629609316587448, -0.035059716552495956, 0.08964435011148453, -0.03597169369459152, -0.03568781167268753, -0.01984255760908127, 0.007259794976562262, -0.01003322098404169, -0.009402510710060596, -0.026559287682175636, 0.07073512673377991, 0.03663967549800873, -0.001573219196870923, -0.02795368805527687, 0.07884310185909271, -0.009431847371160984, -0.056649349629879, 0.026653677225112915], [0.01744328811764717, 0.01521969586610794, 0.0023455393966287374, 0.08386442810297012, -0.04515552520751953, -0.031910303980112076, 0.011758673936128616, 0.11229697614908218, -0.033994268625974655, -0.0012415702221915126, 0.027046997100114822, 0.04130198061466217, -0.08065793663263321, 0.04707130789756775, -0.033470384776592255, 0.00350144668482244, -0.07299070805311203, -0.05706053972244263, 0.03383507952094078, -0.08139783143997192, -0.06758782267570496, 0.027050191536545753, 0.05682959780097008, 0.014212367124855518, -0.022671718150377274, 0.004248726647347212, -0.07330844551324844, 0.0033264486119151115, -0.007585838902741671, -0.028755882754921913, -0.01429881900548935, 0.08284159749746323], [0.10109319537878036, 0.038947127759456635, -0.056286003440618515, 0.08969893306493759, 0.013918020762503147, 0.009334483183920383, -0.0349438339471817, 0.1618138551712036, -0.009653144516050816, -0.03348864987492561, -0.001158232567831874, -0.013890701346099377, 0.007234741933643818, -0.0036602290347218513, -0.03679186850786209, -0.011969724670052528, -0.010210923850536346, 0.0781904086470604, -0.05448073893785477, -0.007443753536790609, -0.011129733175039291, -0.00037271875771693885, 0.0889478251338005, -0.09488555043935776, 0.0018385602161288261, 0.053835008293390274, -0.017648575827479362, -0.051901306957006454, -0.053791679441928864, -0.006741780787706375, 0.030263742431998253, 0.0637444406747818], [0.12437575310468674, 0.036222103983163834, -0.0170668326318264, -0.009075923822820187, 0.053832247853279114, -0.06579975038766861, 0.026547782123088837, 0.09019763767719269, -0.05936770513653755, -0.06325958669185638, 0.12221267074346542, -0.03563985601067543, -0.06788890808820724, -0.08062727749347687, -0.006545044481754303, 0.011976770125329494, -0.05072661116719246, -0.0030854700598865747, -0.04952812194824219, 0.0004131473251618445, -0.059927839785814285, 0.03571024909615517, 0.1254725456237793, 0.021244648844003677, 0.05197852849960327, -0.030339961871504784, -0.01451040804386139, -0.029462477192282677, -0.016867946833372116, -0.03664471209049225, -0.0005348723498173058, -0.04730037972331047], [0.12643954157829285, 0.07518883049488068, -0.0684036910533905, 0.021079210564494133, 0.01366608589887619, -0.08682873845100403, 0.06203044578433037, 0.13681373000144958, 0.028720226138830185, 0.073774553835392, 0.026772497221827507, 0.05817250907421112, -0.0068775624968111515, -0.05768628045916557, -0.021054742857813835, 0.017213542014360428, -0.009997613728046417, 0.07404426485300064, -0.0300446804612875, -0.03402487933635712, 0.030357444658875465, -0.02651497907936573, 0.09427409619092941, 0.020708786323666573, 0.020340241491794586, 0.02278772182762623, 0.036893799901008606, 0.0014566482277587056, 0.004341402091085911, -0.08278306573629379, 0.03826235234737396, 0.10463707149028778], [0.1636618822813034, 0.10813450813293457, -0.06840246170759201, 0.0001880768104456365, -0.039814144372940063, -0.0777982622385025, 0.022072678431868553, 0.15677513182163239, -0.003959798254072666, -0.005678369663655758, 0.060050442814826965, 0.05458784103393555, -0.08632216602563858, -0.01842016912996769, -0.010334356687963009, 0.026383735239505768, -0.014757520519196987, 0.07597879320383072, -0.13781096041202545, -0.06666416674852371, -0.045956090092659, 0.011280699633061886, 0.191654235124588, -0.014441726729273796, 0.05142402648925781, 0.04743734747171402, -0.018946601077914238, 0.04847041517496109, -0.14161355793476105, -0.019861191511154175, 0.06333092600107193, -0.020710432901978493], [0.08025255054235458, -0.002837924286723137, 0.04232544079422951, -0.022773301228880882, 0.06129353120923042, 0.02486862987279892, 0.05652425438165665, 0.08855116367340088, 0.02228749357163906, 0.04761140048503876, 0.05976349115371704, -0.041970472782850266, 0.015710925683379173, -0.06095246225595474, -0.019047783687710762, -0.05133191496133804, 0.034736305475234985, 0.06531836092472076, 0.00019159031216986477, 0.023302610963582993, -0.037011388689279556, 0.025514233857393265, 0.057785533368587494, -0.03666411340236664, 0.018784258514642715, -0.003942362032830715, -0.02676268108189106, 0.04238804057240486, 0.0026287008076906204, -0.04862017557024956, -0.0175786055624485, 0.043775416910648346], [-0.02403951808810234, 0.06296860426664352, -0.022223331034183502, 0.008446289226412773, -0.029556091874837875, -0.09992268681526184, -0.013319259509444237, 0.09348167479038239, -0.05794182047247887, 0.07313736528158188, -0.011044842191040516, 0.04319516941905022, 0.008237265981733799, 0.060959260910749435, -0.04519134759902954, -0.028773175552487373, 0.028369205072522163, 0.0001742802996886894, 0.032410088926553726, 0.08389277756214142, -0.03948995843529701, -0.042832378298044205, 0.05465554818511009, 0.016574712470173836, 0.032854098826646805, -0.0097977165132761, -0.036132149398326874, 0.010934356600046158, -0.058652784675359726, 0.03840213641524315, 0.007579951547086239, -0.0024078870192170143], [0.016267364844679832, -0.0012248156126588583, -0.042127374559640884, 0.03784684091806412, 0.06418729573488235, -0.09021148830652237, -0.031710680574178696, 0.06943751126527786, -0.06911750882863998, -0.014523647725582123, 0.05299217998981476, 0.03327087685465813, -0.011986739933490753, -0.004728115629404783, -0.037606120109558105, 0.008090849965810776, -0.04433780163526535, 0.03720185160636902, 0.0014351449208334088, 0.04204083979129791, -0.07038182020187378, 0.013755684718489647, 0.07000753283500671, -0.04116935282945633, 0.05384617671370506, 0.050305310636758804, -0.031073005869984627, 0.1013813316822052, -0.047862231731414795, -0.04532640799880028, 0.022905033081769943, -0.05363388732075691], [0.027237795293331146, -0.049577780067920685, 0.04898066818714142, 0.00918871071189642, -0.012205110862851143, -0.09237019717693329, 0.01059446670114994, 0.12013749778270721, 0.006426315288990736, 0.05047790706157684, -0.05283121392130852, 0.02565976232290268, -0.023758921772241592, 0.0451013557612896, -0.09381803125143051, -0.0502999946475029, 0.04842603951692581, 0.0599011555314064, 0.03819785267114639, 0.03929014503955841, -0.06179128587245941, -0.059064846485853195, 0.10242123156785965, -0.00927796121686697, 0.04984135925769806, 0.08094636350870132, -0.029262008145451546, -0.013809354975819588, -0.04954589903354645, -0.07134683430194855, -0.04407601058483124, 0.053996697068214417], [0.008780648931860924, 0.06122380495071411, 0.02164262719452381, 0.08901716768741608, 0.01779875159263611, -0.10461300611495972, 0.06754668056964874, 0.13461895287036896, -0.0031644783448427916, 0.014456158503890038, -0.010833336971700191, 0.0475936233997345, -0.05123557522892952, 0.004303627647459507, -0.024145957082509995, 0.043966371566057205, 0.06466303765773773, 0.005374655593186617, -0.0246464591473341, 0.01957569643855095, -0.05009277164936066, -0.014657403342425823, 0.04798152670264244, 0.033241044729948044, 0.01698388159275055, 0.006846449337899685, -0.06824873387813568, 0.02277592197060585, -0.06424689292907715, 0.0005465021240524948, -0.0010657879756763577, 0.05215620622038841], [0.042671170085668564, -0.008946183137595654, -0.07939116656780243, -0.066329225897789, -0.03768089786171913, -0.09684953838586807, 0.02656950242817402, 0.10180307179689407, -0.0745759978890419, 0.01283952035009861, 0.05306529998779297, -0.05229775980114937, -0.03849368169903755, 0.04176505655050278, -0.10589887201786041, -0.037593815475702286, -0.0738285705447197, 0.01589013636112213, 0.02977968379855156, -0.05789773538708687, -0.06515729427337646, 0.03697723150253296, 0.061372578144073486, 0.016513677313923836, 0.06271006166934967, 0.0808354914188385, -0.051660045981407166, -0.004930855706334114, -0.07186395674943924, -0.004521399270743132, -0.025918520987033844, -0.06413201242685318], [0.10317004472017288, -0.02370072901248932, 0.0035136749502271414, -0.03214099630713463, 0.05085834488272667, -0.09068828076124191, -0.013156493194401264, 0.09190429002046585, 0.013499981723725796, -0.06385191529989243, 0.011725456453859806, -0.05540155619382858, 0.006093103904277086, 0.045710884034633636, 0.010403534397482872, -0.007070749998092651, -0.037410885095596313, 0.009461643174290657, 0.030481265857815742, 0.03858999162912369, -0.022596552968025208, -0.003997741732746363, 0.03704739734530449, -0.020105844363570213, -0.04224902018904686, 0.04816027358174324, -0.007901457138359547, 0.01662091165781021, -0.0940006822347641, -0.007042949087917805, -0.0031459855381399393, 0.021705899387598038], [0.059270814061164856, 0.04603381082415581, -0.04028485715389252, 0.04026216268539429, -0.0137849822640419, -0.03828096389770508, -0.0014852669555693865, 0.08881445229053497, -0.053693629801273346, -0.0538250096142292, 0.012793646194040775, -0.031176675111055374, -0.13338254392147064, -0.07823798060417175, 0.019972097128629684, 0.015562359243631363, 0.03929433971643448, -0.011072718538343906, 0.03777508810162544, -0.07412789762020111, -0.01111388485878706, 0.02177954465150833, 0.03334915637969971, 0.003745450871065259, 0.015055670402944088, 0.04207304120063782, -0.04803472012281418, -0.026484528556466103, -0.07146371155977249, -0.06799980252981186, -0.03305484354496002, 0.03285179287195206], [0.045688651502132416, -0.03237355127930641, 0.049969855695962906, 0.02314428798854351, -0.07920276373624802, -0.12021499872207642, -0.019004210829734802, 0.03942396119236946, -0.009846472181379795, -0.009072714485228062, 0.050345953553915024, 0.030779847875237465, -0.12259878218173981, -0.07303671538829803, -0.1050032377243042, 0.05461761727929115, 0.010293287225067616, -0.039336565881967545, 0.03980863466858864, -0.04918299987912178, -0.05365734547376633, -0.007917993701994419, 0.12651272118091583, 0.0007151829195208848, -0.016447432339191437, -0.029294312000274658, -0.03316601738333702, -0.030422912910580635, -0.07353384792804718, -0.007297997362911701, 0.03949981555342674, 0.04449804872274399], [0.10298610478639603, 0.03414398059248924, 0.046557292342185974, 0.017156396061182022, -0.04697559401392937, 0.027483919635415077, -0.07088734209537506, 0.008792639710009098, 0.050635144114494324, 0.0256908368319273, 0.049630727618932724, -0.009979764930903912, -0.010473031550645828, -0.03885192051529884, 0.028577741235494614, -0.03890082985162735, 0.06586367636919022, 0.023769821971654892, -0.011315098963677883, -0.04099922254681587, -0.06788813322782516, 0.021807964891195297, -0.011298359371721745, 0.08934225142002106, 0.09644119441509247, -0.014476555399596691, 0.03635440394282341, 0.1400512009859085, -0.06504137068986893, 0.0634191483259201, 0.03962424397468567, 0.001329896505922079], [0.07391276210546494, -0.01098182424902916, -0.04021632671356201, -0.041666045784950256, 0.040271516889333725, -0.05711985379457474, 0.056528523564338684, 0.11109805107116699, -0.04403959959745407, -0.04295350983738899, -0.018396196886897087, 0.047415945678949356, -0.04922390356659889, -0.05598330870270729, -0.06191036477684975, 0.013518744148314, 0.06490632146596909, 0.077527716755867, 0.03522193059325218, 0.05996701121330261, -0.013604099862277508, 0.01022492628544569, -0.041601359844207764, -0.007306396961212158, -0.018264122307300568, -0.04081607982516289, -0.08701958507299423, 0.008314406499266624, -0.0010160754900425673, 0.024819184094667435, 0.04884883761405945, 0.01661520078778267], [0.013892510905861855, -0.012353877536952496, 0.016361286863684654, -0.004902533255517483, 0.035959016531705856, -0.03444505110383034, 