{"layer0": {"weights": [[0.31184334405044317, 0.07073846889428546, 0.17301806639150488, 0.3961376942675419, 0.33014072977354036, -0.1727599539910556, 0.16795349068978502, -0.026756427092191736, -0.018246687512378495, 0.07258424626641521, 0.025463546488545957, 0.25708166461836535, 0.13453371825534732, 0.02150896620406569, 0.07846433433671801, 0.05898583068556351, 0.26411836106466374, -0.036267199881314036, 0.05534307370195981, -0.1509842222606968, -0.451309102769118, 0.11554453528637638, 0.15281217452916984, -0.13119747967221188, 0.4012397215627899, -0.2570979577084336, 0.008089039470223618, -0.03308974242046816, 0.2709596441336635, 0.25974838754810387, 0.027391093859422056, 0.0668503205003219, -0.1569398305975054, -0.3501586537078756, -0.06150276001142731, 0.027638854071237572, 0.21748672079329626, 0.21255269283883546, -0.06859496029605949, -0.054227649346663485, -0.184589516116673, -0.25169331851098153, -0.3129664713085909, 0.33298614040379265, -0.0919750664498268, -0.0777773177215496, -0.22185053971911065, 0.14131359053562884, -0.28323482640120357, -0.03784927068747274, -0.15831768539254898, 0.06839534497357445, -0.09029844415996935, -0.20870825587001052, -0.004981961191802636, 0.07571909256259415, 0.011758694753207904, 0.05346998250254084, -0.11213336347456444, -0.0641241845712551, -0.11887533567552928, -0.06356061968059472, -0.14382657418914277, -0.3058430697554719, 0.03022388178772863, -0.07237129839216574, -0.29119746184380557, 0.07945871413663443, -0.16976002240337593, -0.021729444300416956, 0.10686410148977528, -0.012787864264373588, 0.17008856654942117, -0.23679735630907642, 0.07150718630346446, -0.11133804251441985, -0.1523698633249544, -0.103422115304076, -0.05696933376984389, 0.00962665570653314, -0.20618235535927143, 0.15921149494496975, 0.08231826721932003, -0.271572082030411, 0.2630883045871561, 0.33514902318735035, 0.20807410738371307, -0.031877449471662093, -0.1884036454743586, 0.18742568798557863, -0.07119685687810114, 0.21583791055916077, 0.029976109360620205, 0.1579736760777872, 0.04795918001978823, 0.1334345065374504, 0.0014284596387642056, 0.3212815124716791, 0.06546172405401553, 0.09434110716160446, 0.34393869358440227, -0.18483145500293952, -0.1452304262903564, 0.18574698014063992, -0.18348203673979088, 0.3589003258850534, -0.09920711500562399, -0.14299370164921882, 0.3398220081049798, 0.2655905765740941, 0.32947612365078965, 0.16016758048109325, -0.1522446305085525, 0.3376549707062745, -0.04842768698617296, 0.1416032624145745, 0.1682597963129944, -0.024704744832470416, 0.10787016664264872, 0.15089801236202838, 0.052133536468889366, -0.21435530003137565, 0.0443995903191636, 0.2273520729699467, -0.13922395584480599, 0.020249714302751465, -0.03467309526713096, 0.3466440878684177, 0.11755271868839576, 0.013882201859001981, -0.13219393329398138, 0.12852230097636025, -0.07023316784503507, 0.0469751147272094, -0.12882568864252328, 0.0708734774395168, 0.11126882117460016, -0.03506428216217085, 0.07066083180079862, -0.19318917692911164, -0.26361958907451505, 0.07767421289031194, 0.029294036363066368, 0.1121033248872217, 0.42296652145901553, 0.16790963832128358, -0.1693201812507282, 0.1526182225382548, -0.305621125052306, -0.16995319176876625, -0.09215795523192019, 0.17827196876796186, -0.2169248495877713, -0.12977711276787487, -0.06613655096288823, -0.09532323451826842, 0.2895887599925683, -0.053773338890588475, -0.08334372656841534, -0.004770957461815482, -0.030529257952021764, 0.4132071334388618, 0.1956752715492394, -0.03260659878316805, -0.23470937068231915, 0.14615774771070783, -0.16956978040124593, -0.2730680174395514, 0.2100159806059896, 0.0560314592423364, 0.16279365818392627, 0.05546060207652042, 0.15200495990409205, -0.12120677741406985, -0.1942742721784194, 0.08593695776579098, -0.19767818999522982, -0.2192965359675305, -0.2323515151876039, -0.15852636922984895, -0.21026535114058317, -0.3098505725780128, -0.17365939438145203, -0.39833283842816664, 0.23716205646380553, -0.18295240004546737, -0.12276983465019772, 0.12734229425036303, 0.014514158534481555, 0.29874125432196164, -0.23658669587114511, -0.006424947154291221, 0.02286709443757281, -0.19815061610666437, 0.10829612033926664, -0.029984500750677576, 0.1364345831047219, 0.1463156393896209, 0.3823422306366622, 0.2120259050853483, -0.08707120290475548, -0.07608584641628793, 0.1566770918021864, 0.05523322094687878, 0.05470643233477259, -0.37824941168393744, -0.11225600314752597, -0.21911700767612707, -0.03369555646540558, -0.14985726430829038, 0.11978448027826541, -0.0030897184411096917, 0.14455348181846267, -0.04981470745942548, -0.013796866587827215, -0.09142104688711783, 0.007139441452452378, 0.02559005212493744, 0.342409537316321, -0.06883220931905057, -0.1213239899784709, -0.019631597700006196, -0.058747279490778286, 0.08794436444620937, -0.27237700433644524, 0.011169049105028257, 0.02748967246640517, 0.02920464428098467, -0.12035047817243766, -0.061497074437702415, -0.2848139586054987, -0.1354883255474265, -0.13919304424374296, 0.027118891046590016, -0.1951594502822838, 0.07121291000765059, 0.21754220924537906, -0.3331807608746923, 0.012791417081326308, 0.0188227072011245, -0.18746549465459567, -0.050244151879176004, -0.036348547189132295, -0.0953333522013221, 0.025928436457619688, -0.2148717337827224, 0.19542928360415823, 0.1837322485476451, -0.10634848560910513, -0.20320645903605605, 0.11314934289058112, -0.10000187598111893, 0.02504889578484171, -0.05650520205073962, 0.12119649633614762, 0.12320806031790615, -0.1285553998609416, -0.24644138995235032, -0.28529428516949557, 0.09226487769447796, -0.27268769105660295, -0.15086579158281704, -0.1126149925091844, 0.019333987364937393, -0.3115695736175963, 0.0308420641684492, 0.024633085116276193, -0.07545875709206908, -0.21506575431384445, -0.058551831043164124, 0.03643418076458255, -0.5018772683785588, 0.40567990747861155, 0.11033016255271966, -0.09901643004355803, 0.02478003713556693, 0.1561773014007946, 0.034141512021766476, -0.3493101314036324, 0.36495423742725813, -0.019593483153086913, 0.18030190272612373, -0.12940553493678444, 0.2630839210463721, 0.038614162383202456, 0.10140573638223233, -0.2110882203950229, 0.1844970082777317, 0.07600013473966473, 0.18508156251412447, -0.17488288658467524, -0.10884986290132573, 0.38526552766183103, -0.13142508523645138, 0.0786851844184393, 0.20949952300859911, -0.09344898265054197, 0.11229225994302532, -0.0138320796877109, 0.014091444887067062, -0.16441512127733474, 0.3545501387794945, 0.033926759573665526, -0.03284870399008076, 0.18482545366532918, -0.06152435909330734, -0.23427934864142932, -0.2380692673738207, 0.122637285803852, -0.02820956010297773, -0.03110920181044294, 0.1836999503869455, -0.2045462744059656, -0.12403253722018029, -0.05265712981979551, 0.041155628107749684, -0.0037078226854082835, -0.11410658618332423, -0.1625813182344434, -0.1810002879957945, -0.19079148911785346, -0.13260516509239478, 0.15601422947125534, -0.01735363199274912, -0.09844458395768538, 0.05524387758513807, 0.06209456636791494, 0.33801781496660865, -0.1540085045613242, 0.1953805582679709, 0.13360212869749752, -0.1730814328960229, 0.14889116649016546, -0.205746886281754, -0.47186122509530043, 0.10718292563094332, -0.31040053464260364, 0.07969689079565587, -0.1263886992207211, 0.30894788124050465, 0.22825218980223697, -0.0202142327275258, -0.06866976733369723, -0.18796962478177012, -0.08850452118341952, -0.10516186258604927, -0.1957709478785889, -0.17927128112927757, 0.04730543556947312, 0.14846006332776496, 0.023538351957178634, -0.027594648176342093, 0.41309928378187605, 0.033929945724528295, -0.04117989112190513, -0.16425234730387717, -0.3738102403529606, -0.1011657837543734, -0.08114655403432981, 0.1146246753138779, 0.1145261700154887, 0.005566283463063436, 0.16699266883791086, 0.06009788635296178, -0.002750431126063006, 0.02843963269469853, -0.035435450080935876, -0.05085693447812807, -0.01008367323863695, -0.12857401955296174, 0.08989964292929505, -0.18811035989049196, 0.0357606230075239, -0.15888486505472457, -0.17537197416944234, -0.12694649819861167, 0.1784095058801713, -0.09994356994191543, 0.1690866454473347, 0.3191298465308915, -0.1624993470384317, 0.024488246795516366, -0.40867119292172177, -0.1986602287971696, -0.018901448339483966, -0.3269891007110168, -0.18872230069669235, -0.2662708061180442, 0.28640112209430796, 0.0381675053676083, 0.10283977413006708, -0.03936376839391545, -0.0624784965582089, -0.2857520390298559, -0.059499734261781415, -0.13650587178885618, 0.16931226899748258, 0.3029727854157156, 0.32188635041537017, 0.10762902215830204, -0.24821681304690474, -0.27946152568932303, 0.05120797935290896, -0.04632252475481662, -0.25895272888002274, 0.2047343354625522, 0.30165656449740186, 0.1315291061658581, 0.010881502000328672, -0.18227062269384353, -0.27384162223095737, 0.10010198667130804, -0.05279486850284073, -0.08687683436697217, 0.26744987160894845, 0.10914677487949942, 0.07157225390370968, 0.023918337790311425, 0.26583708566200337, 0.30398331503246745, 0.16431484186868303, 0.10292373918775977, -0.37767745166321437, 0.01478632302171545, 0.024715563904045182, 0.14110304704466162, 0.20444817035532475, -0.5269187009763898, -0.2092154901047887, -0.007933181242351787, -0.06224171411646517, -0.3397728640876494, 0.18163205411465022, 0.062016330666520285, -0.1864528496829453, 0.061595797039049986, 0.21380120957672794, 0.11004209756716363, 0.1899891757673045, -0.015675920786063103, -0.1302861434448565, -0.28795732666663176, -0.07263288414769126, 0.012057640611673172, 0.1462354949015217, -0.02900944514066714, 0.07992975590473678, -0.1705209240312826, -0.13835059580998654, -0.01950363046513893, -0.187598689608215, 0.16239453471820045, 0.18007150151401338, 0.15997519447072006, 0.15087188292696244, 0.37550285296290103, -0.14041272262544038, -0.4233191717002611, 0.024877499444120293, -0.12213436460057948, -0.14417059599759993, -0.2748508623823474, -0.10757666810366764, 0.029248335203360232, -0.12001495877664929, 0.5502807969869483, -0.11510970080842668, -0.21342070813781572, -0.5203257094264724, -0.029910437623460063, -0.3754008329750267, -0.1039984361930817, -0.05400793385783906, -0.12733347293339004, 0.3069874004075527, 0.17578575431826463, 0.233192657636521, -0.15598991135753953, 0.18596348699736545, 0.12303002027711694, 0.2263089512817607, 0.2529755466226982, -0.049519406758995084, 0.05102339550525201, 0.2397095503386376, -0.35415604480146995, 0.22346062971946998, -0.08726879517047248, -0.20961554813239652, -0.09749380330737324, -0.13892651034551695, -0.04862906291577896, 0.24033179964040405, 0.4473181728257365, 0.5245687759953118, -0.1163856713985307, -0.2285693020593947, -0.16987748619275836, -0.2204894966210072, -0.056223690398639135, 0.04634498973249252, -0.014177973117030557, 0.18735899786000818, -0.04140399731065541, -0.061768863785398476, -0.10275575978332309, -0.30511359582654074, -0.2505125809029483, -0.15016432991838793, 0.28234364363124986, 0.21981899079451128, 0.3208067114451948, -0.1537736133767735, -0.28073497616766885, -0.135849495420186, -0.06950672201697843, -0.0362907658967449, 0.16625751638152006, 0.16745206861785134, 0.3878601890044075, 0.18624639930757977, 0.013571584689566197, -0.23203383433192465, -0.2681119992847762, -0.07945871533894412, -0.23988700856727196, 0.11222676030917296, 0.21174867040617165, -0.4214317953073793, 0.15218903845716467, -0.3985296536237391, 0.06986564545558194, 0.21652705653066145, 0.011446257991489496, -0.23469190313726568, -0.09360121133420558, -0.008175418881965556, 0.014360613784534914, 0.011702986923022974, -0.0045339906956574335, 0.0344125803516525, -0.20818052899108652, -0.026390224210980008, 0.23585796684252627, -0.0580687906797415, 0.017183285089435823, 0.3460357315056937, -0.2623600599235702, 0.4027690168221142, 0.014471067177431145, 0.03801063104108225, -0.1174955118291347, 0.05050987810518037, -0.13702854285204738, -0.18132642425580164, 0.20261794604381766, -0.42817248446962586, -0.00038395436731089946, -0.2390791369354998, -0.1351050196182219, 0.355543309542334, -0.007526241579929263, 0.03893621586215172, -0.28766976992351556, -0.07424304777153806, 0.10571583139324324, 0.11519868533730897, 0.06377236652170286, 0.002369439066166227, 0.15396298201987665, 0.17038436394679565, -0.15104870912698007, 0.01182906501914837, 0.18649114608692974, 0.26813923345243784, 0.08895937677859522, -0.10161793754653663, -0.2560519377749932, -0.09575908302314476, 0.08410237471997996, -0.4296225201332582, -0.18845421881650107, -0.2418388567590754, 0.12117589649324463, -0.10718924718677215, -0.08477092629208993, -0.039249037312658656, 0.07873398777658273, -0.06937368336300193, -0.5382243671591549, 0.10367101505687708, 0.1100276577033696, -0.02755665174847996, -0.14474818842809878, 0.12398717113026765, 0.14192270585197408, 0.028551374795727304, 0.12208426983909208, -0.013500256056059944, 0.12321583698848486, -0.17956504246411417, 0.21849969867146438, -0.010658585196990105, 0.044945459611649724, -0.29403531192307186, -0.2400507259429199, -0.13089243046116797, -0.3772469220556122, -0.06252635922699716, -0.12070443576138103, -0.3318116272590569, -0.2503108608403306, 0.09911199766519528, 0.15877144064490853, -0.025452140235641345, 0.07155245551479764, 0.03956213654275857, 0.05828061515070551, 0.22979033740920204, -0.2557092046780865, 0.10889933097312234, -0.07924992202570155, -0.03567054227624188, -0.012447154172089223, -0.019764046402731616, -0.0663704337098507, 0.15561492397854607, 0.4597765315588773, 0.11602732545734745, 0.13877775284190608, -0.153866247804596, -0.14464705793868124, -0.029173354047180987, -0.20625503802696277, -0.15711042604126102, 0.046584271335367015, -0.19429660861829068, -0.0007373538755797186, 0.12651031266118765, 0.2221735907864534, -0.027185731558375486, 0.23736975932986795, 0.1751269899274949, -0.17610717837753403, -0.21530314515394186, -0.05391046408554479, 0.1845512300118252, -0.004821688534590312, -0.11653462388032101, 0.2644367199866202, 0.00469861845410536, -0.36699911203135976, 0.11430579708856375, 0.09424534633346858, 0.046738741254005324, 0.07299252382952225, -0.037985800016701994, -0.25788182377491076, -0.23800481296931789, -0.31390778241008105, -0.2403815264210235, -0.2653938034521821, 0.05998498578363293, 0.020437386559726572, -0.08282333597764958, -0.12867341400547153, -0.008534144712663734, 0.1869346515106942, -0.3558425719238623, 0.05702720892872367, -0.10068433167527384, -0.3331508576782867, -0.34395496107020207, -0.16135884961455402, 0.03902681110300835, 0.07367598089353322, -0.18277935032046477, 0.12900255140563374, 0.20418326159108705, 0.054431122837668405, -0.1227882881498508, 0.16741320645918362, -0.001654137513022661, 0.04814246741751303, -0.22054956714130405, -0.6314620733532281, 0.15685561181969557, -0.4150556494975605, -0.021266808474941733, 0.40409615519345454, 0.024289141987195582, 0.1735217838036769, -0.2558546202325761, -0.314574709741797, -0.09259791980516123, 0.19362408275820794, -0.06121361143296382, -0.14047318280169682, 0.03499600329330248, 0.19126093244745576, -0.25543175329345524, -0.21399579001562222, -0.13941834430743644, 0.19231451690849619, 0.016154592750787136, 0.3524993897722791, 0.11762757398175855, -0.07320695230764677, 0.09789353667002772, -0.11274657187909809, -0.28820968068707853, 0.002919481032074033, -0.16096412902981494, -0.10823126840438294, 0.12260956319166333, -0.07111756168468758, -0.12243360681821018, -0.0756063554379872, 0.1835060720114134, -0.07937343936756402, -0.06371399920318316, -0.09065237169253212, 0.033588363146938194, -0.06797930549886917, -0.2831672831443869, -0.15683291502952398, -0.1648953641664256, 0.21978989198223103, 0.14366183151739642, 0.1038137723722551, -0.08933557326667174, -0.14421293284464182, -0.08480758683255842, -0.16376378018505347, 0.44677550368911356, -0.4266187353046923, 0.05490053768159252, -0.29546046801902537, -0.10890878735118259, -0.22776312175773542, -0.22070493315134757, -0.2029668540404213, 0.2836992749327692, -0.04997299369728558, -0.1348381786556518, 0.12175596046668592, 0.02493342628017284, 0.14970454205484793, -0.3167881144586803, 0.05345073080460486, 0.13669448382353136, -0.2936518195755324, 0.07923048122788941, 0.29984537306761405, -0.0026264956987421015, 0.14520542704428355, 0.1185412281695403, -0.1250705191094618, 0.007029831922939087, -0.2770081465334231, -0.07978456992436886, 0.04672955767913761, 0.12745411974532767, 0.004157605080861801, 0.12710000545362923, -0.19528089451464606, -0.019867378458981226, 0.0024253627302331265, 0.32594722247257985, -0.03889674836357631, -0.08653865634642947, 0.0037082979892982953, -0.1624838040839299, 0.03406796361563351, -0.06453504397440364, -0.316664964136548, -0.010356736898271355, -0.056134218759250176, -0.28857439666480167, -0.011867753994288622, 0.2632834250958699, 0.09215435386593053, 0.10817446689316226, -0.2371453578998296], [0.08430451765042683, 0.02624242641453936, 0.09352286889518245, 0.07471089108345869, -0.24037754298262748, -0.00731869864981629, -0.1339739061675796, -0.008853700674596027, -0.1586395702138444, 0.23201417417794903, -0.15184630018024992, -0.1589120236828097, 0.013144983311353406, -0.1904946364483499, -0.07507135030790411, -0.14671843106138355, 0.24946233394934006, 0.1389118036586654, -0.010159271554601515, -0.06915805762701456, 0.16633230645098324, 0.07163063824019315, 0.08804405818437865, -0.004630177160141761, -0.29843972520998324, -0.019881364730166926, -0.09413180819655215, 0.11403073952590544, 0.17887016146562146, -0.11631041135984899, 0.08279959384123824, 0.3068629526457187, -0.11803604814999014, 0.2973245669576983, -0.15093292325842064, 0.0008214337606922427, -0.014012800316724586, 0.0015192092240289567, -0.14833050045073404, -0.1065192946659069, -0.12059506886271516, 0.05789272234939553, 0.06057959476993767, 0.3829062651153677, 0.2295239393844874, -0.09918259651122938, 0.05504679713679664, 0.17411397040784027, -0.005138709948237103, -0.05383207344484541, -0.014207055806849733, 0.15158457509237555, -0.1499632985738243, -0.05757077245704151, 0.08316161670396516, 0.05505658406915881, 0.04235264853746061, -0.06537222809602836, 0.17192166188488447, 0.3772181769392451, 0.07183837497508086, -0.03432015311194969, 0.122431484635034, -0.1239746607356401, -0.16197645250288303, -0.0069905501307017575, -0.4652280870703936, -0.1819428194498532, -0.046516035092769754, -0.21910334639502357, -0.12997436799529427, -0.001048019533081703, -0.20429733303557113, -0.04555750625403943, -0.14412802004318107, -0.04018366989857802, 0.18763960135477473, -0.011000251517939567, -0.04607252495790531, 0.0026939005850991774, 0.03888878283748794, -0.17966511239564975, -0.020289602614579925, 0.0545800242006092, -0.2423184197588379, 0.1530272629692612, 0.19116176872468213, -0.1116674194699982, -0.04753394525330428, -0.1622371551788535, 0.0928468926944795, -0.22846782425933362, -0.08143319516638588, -0.20463640118613877, -0.036545337981007196, -0.3237673848837134, 0.25624154915174163, -0.01609351165538742, 0.2674315778815641, 0.1941091309552942, 0.021617467417924894, -0.007743256581163993, 0.2033988752209441, -0.16272116783338095, -0.03117757913242958, -0.1970196139470076, -0.10301845193137885, 0.08038520599609422, 0.16507989535113585, -0.03035079341332313, -0.25088422422323586, 0.3531920731260297, -0.15141795606826394, -0.2725165903043454, 0.45895641755403355, -0.0705471686838574, -0.2620942197541991, -0.12537233446727156, 0.05669181269133164, 0.05847910209681615, -0.16687790818614018, 0.3002420378662819, -0.07241047861069166, -0.19967714325224778, 0.12274836586916754, 0.2708789733635777, 0.006071167486991793, 0.047569087254429175, 0.4616813108611124, -0.12486524766928431, -0.1110154880569753, 0.09437598080895894, -0.11189006954700002, -0.08335779697624623, 0.13178996885294272, -0.08841577005690798, -0.28703471702233946, 0.20715107074380562, 0.23189927598084906, 0.034602521602723944, 0.007978642093538187, 0.41359114144226095, -0.04731525105783676, -0.043655173715675684, 0.03224428674626591, 0.25631392473951486, 0.30847600436600725, -0.009909364202748952, 0.005010488426756388, -0.2954866243225298, -0.06513326678410143, -0.36893385755080665, -0.4218016480928478, 0.16133676257820975, -0.24280770237234825, -0.19032991267149602, 0.11627613736681239, 0.1802157978354681, 0.05741301901469146, 0.5156302884227726, 0.0598642072958256, 0.09883266677736079, 0.13130414776037283, 0.2007610366981731, 0.02012567789835181, -0.0241041805547986, -0.17446849419456678, 0.041136815354258276, 0.24772510824681573, -0.072472836990029, 0.09156408538350072, 0.038321261181461716, 0.10329585910532818, -0.19430519202307514, 0.3934142873336057, -0.24288181122791977, -0.1874261453185234, 0.1398988445746154, 0.08485406318951046, -0.04521556707339377, -0.1051491207527322, -0.003071250457202956, -0.12715799308620376, 0.049466160874524226, -0.15809219726663137, -0.018177635585651233, -0.003918588528794863, 0.1752626336685701, 0.08419175702287042, 0.18865558717141495, 0.2584954029051387, -0.16754976639960467, -0.14792048350694598, -0.1523258014258334, -0.03850548309666393, -0.06890022827897926, 0.06356171930439049, -0.019858026104664393, -0.05358425017599837, 0.20723466099047777, -0.1634791757532927, 0.00551874833841008, -0.136442739784142, 0.19482720970709014, 0.19379004381978715, -0.04376174059989732, 0.02236199851320867, 0.07236729211373004, 0.0013650576786495945, 0.03410515924975774, -0.10738611426613408, -0.09243702750900844, -0.31481750486780713, -0.11595485344609563, 0.0058445268784755285, 0.25928006248642255, 0.30492118782833505, 0.18100173109218792, -0.061740782934674644, -0.011798559885524895, -0.003113238441831456, 0.0023195318601311756, 0.09074953697272595, -0.3258772088157466, -0.008679847304533408, 0.04325884556546993, -0.16241908603003366, 0.3445852145277763, 0.050836921536564744, 0.22802195045903467, -0.24331801011912121, -0.11667368260132731, 0.015782838019701928, -0.2420195729534625, -0.004994749948539784, 0.10593399886335457, 0.20756321523195775, 0.014353573388467794, -0.3326052149310786, -0.5136808721780927, 0.04158472222900869, 0.12227132648125766, 0.23680451267485464, 0.22908904309146016, 0.36901347205957535, 0.020838954077193588, 0.04187669896368696, 0.08383133216045804, -0.1918259819926339, -0.14591260192566413, 0.12143705833937957, 0.1870400447634034, 0.17418758385069552, 0.13610189735619965, 0.09606228307173133, -0.27000806502054064, 0.2756755598548503, -0.05851958551185691, -0.0426622740523948, 0.07359808428976028, 0.32119041478351135, 0.14489200089922413, 0.051302243900590946, -0.27093891888018434, -0.041180857006499504, -0.2976236987473027, -0.4795681346762393, -0.4110671306418259, 0.10005793188946044, 0.4775255499327211, 0.6951431468792878, 0.3408244071670554, -0.07528130331154165, 0.44069593969062865, 0.1467022371281395, -0.03579768183303038, -0.14042675960413256, -0.29242051061372065, 0.03342429303421515, 0.0016902264099061088, 0.017390921257040275, 0.06836014517892673, 0.030812903517257222, 0.04203102159281854, -0.03595523029587199, -0.12973482929353272, -0.44898732946660597, -0.49197742660879773, 0.010413286220174813, -0.24733688082497104, -0.19776198593467295, -0.09723514150209113, -0.13345515182730527, -0.410836927892632, -0.34583987915319525, -0.08512014807389728, 0.22690828293293466, 0.14714989847773466, 0.28349594002817285, 0.11840369613695079, 0.09575341766782573, -0.03553371640615153, -0.15432411874119428, -0.2639940761688901, -0.07796717404257714, -0.0752384483206007, -0.14706549201316707, -0.031159331187315908, -0.28970293998103924, -0.13175540841550748, 0.42957222812505513, 0.023508937730535643, -0.011431102530321452, -0.261105648055752, -0.2915095198834966, -0.25775914426648877, -0.3387474186917283, -0.08367362682333422, -0.021846431872228553, -0.3830816623541232, -0.29001427056791856, -0.058779651222995166, 0.08926518320171455, 0.04776863347631862, 0.18457606321892597, 0.11463750630916422, 0.02923592755262035, 0.2743800007690687, 0.30220044506451166, -0.317882156701385, 0.31227840850388144, 0.13641492738701694, -0.11799186236843615, 0.055504548122387476, 0.24289020591024837, -0.026578722172550417, 0.12910917590683155, 0.19626692289786588, -0.1456652392602019, -0.14534834391293325, -0.00596055232803945, -0.2624823846333055, -0.2191580479991257, -0.38716087109743463, -0.280291528086503, -0.515520331122265, -0.3254389899400611, -0.18624491508905172, 0.2816152987774792, 0.21984980423362468, -0.0028751542202840406, -0.11450968494293536, 0.12835249679576452, 0.02564331771879133, 0.20818641007127014, -0.09932869180769258, -0.28401603650194984, -0.2758039441546675, 0.14520376890781567, -0.32662737121085683, 0.11313363058621471, -0.03148253463579728, -0.016005007164189445, -0.020997019153603674, 0.2159092717214256, -0.034353746402119224, 0.009863111644854658, -0.31798174098350007, -0.1637722093868623, -0.26839806670367405, -0.30189977882079383, -0.0685624622113576, 0.0032882695300931516, -0.22542782102997447, -0.00026690455912165977, -0.2797787159455672, 0.08043066492798534, 0.4854276256910514, 0.19320560017262398, 0.13865807175236897, 0.10638330978100424, -0.04741118641838797, 0.11980148508278109, -0.14248093970258857, 0.01750015128204655, -0.023833742951617682, -0.030626225414233568, -0.2635199011797594, 0.15915057066694013, 0.021217435731592897, 0.34922272570787016, -0.009914015058237892, 0.07440854326650326, 0.046955529963772585, -0.09650930181357367, 0.15592982902608973, 0.17522987784199534, -0.26105607445538165, -0.30443804003565045, -0.17307924028300595, -0.27638840325544783, -0.14522397463076067, -0.07522264302466598, 0.34830492619072967, 0.5061928680026413, 0.06623733515358848, 0.1359027088470815, 0.25477945899959903, 0.03953383422660422, -0.0004504992516534489, 0.00907820208122709, 0.1080407019593921, 0.19483307080078124, -0.057607004699492835, -0.28021501935046345, 0.19465495799460172, -0.06164794325502227, -0.272437908308652, 0.3018954832078589, 0.11493752064511913, -0.2013501042950107, -0.20670769313764453, 0.17383229042544573, -0.1678044703446241, 0.11730113485095252, -0.04071745728883947, 0.03427110282333467, 0.09194710711635243, 0.10474917066623168, 0.20793742140780805, 0.09116353923331874, 0.2874578635600815, 0.08845727525665013, 0.32794416425155537, 0.11849541339936528, 0.1060525392268079, 0.1712516564560372, -0.024313602111964584, 0.22958368491239628, -0.13855265746927087, -0.021128655275510243, 0.18669796092773086, 0.12598121178595525, 0.09270008205650594, -0.02347838885340527, 0.10688864807940428, 0.20931944877971947, 0.10589512045770862, -0.1375647112573128, 0.3110413645730177, -0.23181817004673883, -0.2568580804383067, 0.13293833143023223, -0.02701816739611266, -0.04643605062264662, -0.08412013057028586, 0.4254453359792143, 0.3442467865239806, 0.4024039215596339, 0.22211385079403806, 0.044089851433287246, 0.03987374251215585, 0.12411257285449416, -0.06510744025098099, 0.020594743724860327, -0.009775414927251, -0.09211771362767779, 0.1910854003774702, 0.060044441991743726, 0.12872697185247786, -0.07935814866673857, -0.08956541898516861, -0.3501205359612466, 0.25133813911896485, -0.08529034357078769, -0.07887956884850895, 0.023259211233854143, -0.2470978430858199, -0.04798351620844662, 0.409000681533146, 0.224190373784338, 0.13934573331201508, -0.31396771396109135, 0.4090745258377882, -0.17114158928380668, 0.3740443207764304, -0.35999329555445536, 0.30282883827346835, 0.4296775613215182, -0.06759631424935707, -0.10183635142059982, -0.07767611591161891, -0.16545743770324162, -0.17507343523040927, -0.09757230427742429, 0.06855862040402916, -0.18380011799507814, -0.11503943416793343, 0.18995983430044108, 0.23328432930908893, 0.03373971496970572, -0.13185184375561332, 0.11018777518024399, -0.09085570944294047, 0.01775524328858507, 0.27867468360298514, 0.10342596758877741, -0.039567829604382265, 0.09524602275132957, -0.06517044862727303, 0.1932254705341722, -0.14784182701768622, 0.023353629992167738, 0.16999367877805052, -0.053073958987466384, -0.2805551851453276, -0.1426639807776473, -0.032581407868178314, -0.1924297008705383, -0.25902939644902284, -0.2129387235593103, -0.23507594794237516, 0.060265517093599646, -0.14743398731592763, -0.1143086387874131, -0.12058612810763286, 0.17494280582228278, 0.05891500095142755, 0.08377580053268845, -0.0026922957530608597, -0.14131498746684396, 0.11116460612035586, -0.14382380973916772, -0.093170870204823, 0.005016731465928214, -0.11680565145839295, 0.04938858803738177, -0.0759936063942295, 0.08794194297126012, 0.21233447335955533, -0.06332088149240521, 0.2033935415626409, 0.21895777904159713, -0.04797652095104582, 0.08578065167381982, 0.024599247740129337, -0.06669534037585825, -0.1427697441712453, 0.04249544976614687, -0.0057426041515849366, -0.12028175280665461, -0.056212585173277325, -0.25650580522229516, 0.2432360820368968, -0.06672545005708441, 0.30148391337502706, -0.07402703114051151, -0.14198887085040368, 0.11248379769288018, -0.11140540725196743, 0.1004902890993325, -0.06080941527251536, 0.13819265459949967, -0.011216427319197168, 0.29887784502817455, 0.09211551797905765, 0.10856175418427176, 0.6546709694066463, 0.015000390219590223, 0.1664898516132075, 0.07177820369883578, -0.22321221383455692, -0.14710569766861964, -0.11886393225623099, -0.22885725792335868, -0.17471201120557953, -0.14503646621050942, -0.007065420484314064, -0.1349721755457339, 0.3992129682049238, -0.01471597792192879, 0.009573778133936998, 0.014782417857780433, 0.08893067240450797, 0.03360914994449892, 0.14310871031330846, 0.13723512143464922, 0.04299543435579124, 0.06901545665123833, 0.28139303026832185, -0.0326513481001747, 0.25944054182306475, -0.17677621338663982, 0.047973867486812115, 0.11442130197297327, 0.14958320293085975, 0.16866059362803637, -0.13609224051866167, 0.07198701940838577, 0.07067324980149099, -0.09529235329839747, 0.18207581966436326, 0.008118612761772448, -0.10745207671017439, -0.2877196190270462, 0.1423434447338993, 0.2895048690929187, 0.19400821978791633, 0.1272450537142549, 0.23849734802434033, 0.04271265832355176, -0.16231633685093938, -0.01832891180246002, -0.39672139087945935, 0.13690991244775438, -0.07448400031528185, -0.08295542004784268, 0.15482318758129932, -0.22469373800665335, 0.3845090246200751, 0.030334550887791887, 0.05525958075637416, 0.3063497490002264, 0.15793171495760897, 0.36859346581456454, -0.1223277953809066, 0.015219077974319086, -0.2498739334783202, -0.2600755954858025, -0.010238671141755981, -0.03598591533572427, -0.4638419767655159, 0.0042616435605657005, -0.21615334195705993, -0.3086711746860388, -0.10188959251331063, -0.09177418431424023, -0.17830553436083801, 0.20478260555740652, -0.06358899610832179, -0.07342454996472952, 0.05339631401286091, 0.05156779191144811, 0.17298216658500554, -0.19612977543759494, -0.09678844045320126, 0.11272860189147008, -0.44385160066325596, -0.21263568996470064, 0.22864924120037647, -0.029704201514696115, 0.1416976046432198, 0.0023402672073546934, -0.28094395278140033, -0.06233680101862948, 0.22370921818853684, 0.044717687671534216, -0.007445132301432599, -0.04865651865395974, -0.2623526216215197, -0.1993520427469186, 0.010210356262956282, -0.5029229614971931, 0.1864240035261742, 0.22505277297519696, -0.005667786823432774, -0.019329924092092467, 0.05534547774484411, -0.0011120958637732671, 0.09277892035962369, 0.0005160095652458857, -0.13553555045292193, -0.17754085007665463, -0.1764570349892676, -0.24597499202183784, -0.18457441068785047, 0.3209479435359547, 0.1252054535453442, -0.09219408476099351, -0.11162867100743683, -0.0721761861375015, -0.23272880624468467, 0.021218820283920244, 0.03904692057807813, -0.11652187360673534, -0.004489227399566968, -0.03090614183064599, -0.28153537482954943, -0.066129829913339, -0.11394215421600065, -0.026023362345494152, -0.12893205158833987, -0.2371431777513665, -0.10884671475370176, 0.014499093833733899, -0.03007276965894394, 0.07056896498933887, -0.12951334411377866, -0.2126654638374833, 0.07372357224954613, 0.12160139908792626, 0.008813602826040039, 0.2376634154034548, 0.15659006974275824, 0.4597354306241172, -0.06967515478126655, -0.22771514776679477, -0.1655958249497697, -0.006575476500911476, 0.20494728514672428, -0.280534782389028, 0.2429443530980629, 0.08749052384364098, 0.10537882926551793, -0.09929460384428997, -0.03896428510281706, 0.041829604619859184, -0.0172146363171152, 0.058640977357539245, -0.12872180143129316, -0.2288949721985468, -0.08195631735436816, -0.07033113862868424, -0.0076986721737869164, 0.16940645774278645, -0.18065292836292354, -0.1510519489923741, 0.22224713513554128, -0.2621392194623203, -0.23147355200967298, 0.14457891172613946, 0.04180254901063811, 0.007372900020582467, -0.06435178308145646, -0.03966061342268292, -0.042887309918570635, 0.22518030737860872, -0.03874971699245468, 0.029320772519555494, 0.3069170218129728, -0.09004705532484115, 0.3424158257108165, -0.07424464341716155, 0.16498192149411398, -0.32611200347062086, 0.03807522553921876, -0.295514864824018, 0.09831599374720369, -0.2795431433221302, -0.028944128082936834, -0.07018875862561959, -0.20558188681240724, -0.2865979337127453, -0.09034066049158337, 0.3077027211813928, -0.05188131812229623, 0.16214339307012607, -0.010083849635565014, 0.15498486173108061, -0.3229553560564966, -0.07124328099700944, 0.16784045836764744, -0.029439327391733154, -0.018403319316882966, -0.07901603780340719, 0.20260998429210464, 0.04832139114171955, 0.003325692826623606, 0.10429314799021247, 0.09698443982123801, 0.02943057933131157, 0.2644475865407521, 0.0033949081791554776, 0.05406559242705001, -0.11707712983043363, 0.023137093455168654, 0.2745400025831886, -0.11754634515895615, -0.22286038944821587, 0.17620387566274312, -0.026298388763866212, 0.016971306089136905, -0.007974980740821291, 0.013986876882436045], [0.1503540034816631, -0.14833760135760485, -0.1788580789749498, 0.015020386471037735, -0.28398109949429706, -0.2427238665668538, 0.32998607812798686, 0.13390274818011716, -0.0017777498633479833, 0.21885077489304813, -0.18395369302267658, -0.05579127717744875, 0.11021211648111379, 0.15745102754206422, 0.09067277624850893, -0.4492317554200099, -0.17113435753651407, 0.08433452079831738, -0.06292392862671824, 0.4490537512058261, 0.16379391444462996, 0.09865587056069997, -0.19745065092439906, -0.006239640981749339, 0.04263923968707467, 0.19936586314363752, 0.15576344346837306, 0.18260841608437078, -0.16332611289974627, 0.24963551048276533, -0.24402798647872934, -0.0947372051726898, 0.07615029766487211, -0.026497340239337062, -0.177843871089779, -0.14501096948544404, -0.2721742067037611, 0.0944506966255874, 0.2227504924952672, -0.01115154091005279, -0.05706505174089271, -0.2535178806253364, 0.13138093292323627, 0.3357953673396954, -0.323336868245455, -0.1870473013274647, -0.11838824590442343, -0.09805579965929558, 0.03916932085790104, 0.2840006033987662, 0.17819621885950473, 0.09326692177399833, -0.1279737239338567, -0.19792417911084143, -0.14085130554279346, 0.27366213324616856, -0.010914776788431772, -0.07899023626120792, -0.03248373073541388, 0.14801244365853547, -0.23130156011316902, 0.2501158205945064, 0.027479054446234247, -0.03939893821181887, 0.06828591899479448, 0.03197794570457053, -0.053765057297163354, -0.025795654054340696, -0.13062363958153775, 0.1201789099586573, -0.08208298488328204, -0.2112509777168443, -0.02447161224634106, 0.1692981482862656, -0.049676292175214916, -0.12432967271434663, 0.05469981096291042, 0.32121589525984745, -0.2734397992029394, 0.059733041467691, 0.03369776652860276, 0.2062798933574136, 0.1751696490631281, -0.033005819767503046, -0.29778339358417155, 0.14258167743470443, -0.14780194636332633, -0.16124585785013995, 0.2044061101568301, -0.16388789226593617, 0.24181962990333952, 0.0438288348830787, 0.03980064017305733, 0.059538212910483335, -0.22184990129618914, -0.14946025577617478, 0.18490984765518467, 0.28517188938668964, 0.231119055717494, -0.12236198428929759, 0.001303733634581243, 0.08298185375828132, -0.11216286810688973, 0.1943989555350518, -0.278901458213805, 0.02279358889451065, -0.07693709543786283, 0.12721333796399462, -0.1586272950048056, 0.027428670842980257, 0.3852242371980105, 0.11703930485023858, 0.017780413688047357, 0.09531152796105156, 0.014995928900511364, 0.38758316038952956, 0.18052539849852628, 0.004145739639022919, 0.06112666747287835, -0.002257810557716968, 0.3865192666612569, -0.025158118153058885, -0.052206266667131164, 0.4752482210764901, 0.4839580497142801, 0.28634893959694546, 0.02846616498345332, 0.027446082627496496, -0.1325438452619568, -0.012582452750245629, -0.012420994055207217, 0.04616416092158282, -0.4237364469625925, -0.30689949003951295, -0.026546672185966128, -0.3163685728649682, -0.186281793817134, 0.38414141683810676, 0.008636448948617141, -0.0995989930016738, -0.2991716531543965, 0.1289314368221303, 0.12414176353793926, -0.04999241552103181, -0.19083056922333452, -0.016532791975856227, -0.13337812362353757, -0.003871681240414812, 0.22242955295925176, -0.021214336702055442, 0.3174074771960983, 0.22165499227629323, -0.016406701073681616, -0.16747369000255777, 0.37942466805174807, 0.006119362408300834, 0.07811178785498518, 0.09329038394007108, 0.07206642335843118, -0.11082416940706852, -0.006764365856234281, -0.1700503997584209, -0.24656599447001076, 0.09050704977575504, 0.36701069637452405, 0.2957687514835317, 0.03329184970932596, 0.32793803039016484, 0.06288009201508128, -0.08433725360908027, 0.0857451013101238, -0.002331706087703963, -0.14210189055134376, -0.11619173487393863, 0.1678293901224581, -0.22401034393793393, 0.18455287463208125, -0.23772671934581194, -0.22506018955240079, -0.2306611720952674, 0.32974509206405217, 0.1467732177629489, 0.1831969707888572, 0.25776139119502084, 0.036377132691027464, -0.20777717428707992, 0.06943624902180225, 0.07138804016587239, -0.0008993811194068574, 0.06033510457187731, 0.4512123276192395, -0.1878422479060795, 0.03751724326005895, -0.032709908292175106, -0.3044894225863273, -0.14018682738075272, 0.034155653427173686, 0.2328367493752478, 0.18405336922146176, 0.11583096087225582, -0.13490091864205164, 0.3479927209438633, 0.03377979409170306, -0.18298275675525735, -0.07920870460053875, 0.09744553318671512, -0.08518703547259976, 0.10676903667068248, 0.036305549224352605, -0.016327131297416402, -0.0391050440494099, 0.024051232073697828, -0.030364642566574743, 0.2717930863376412, -0.1269607581038921, 0.10210919533502422, -0.07434050857733059, 0.16852405963322709, -0.22251235038572328, 0.22641853406138157, -0.02942701569345339, -0.34923130997805857, -0.0469377905146885, 0.1110229088614801, -0.2782166184582847, 0.0006418317174014953, -0.1801664065003896, -0.07582076306178236, 0.03817146447784539, 0.026062447823003716, -0.06783376392144945, -0.011987447459195279, -0.05539637872289134, -0.2727771608938019, -0.03508453431207334, -0.23368866077476452, -0.3230037930138771, -0.18509493147049402, -0.09940472914844985, 0.0771928957615115, 0.11731227987319938, 0.1887952385859964, -0.04926880197631746, 0.06676802341833546, 0.1764269525308835, -0.09887880547396027, -0.02492574144966375, -0.19704254723811698, 0.428576500286864, -0.12317844040658132, -0.21161795749619886, -0.14038130283893452, -0.13687732551290077, -0.047664090486724396, 0.14922900035126527, -0.020850287766006476, -0.18886691741827027, -0.3199662304904295, -0.13967608697855252, -0.20548842070847387, -0.13529325074863874, -0.3650850491642529, -0.3147364933257429, -0.6418950120043018, -0.35291975841888745, -0.21625907214154486, -0.21063037742441107, -0.10807822340154052, 0.3766404143311048, 0.24456772335652868, 0.20946827568778978, -0.015291981341018026, 0.18854732192688684, 0.05941713095985818, -0.01719992329150036, 0.3327003577314235, -0.09034775766933169, 0.07515528267410557, -0.03244547883637688, -0.23078888757560564, 0.033535000852641515, 0.3008962007484334, 0.0158885065433999, -0.05520825186829692, -0.015134374510869443, -0.18667585927462874, -0.2565523729349038, -0.43662411881038576, -0.126162835091792, -0.20119890483998457, -0.5281758920309121, -0.3253248632208347, -0.18644564563779342, -0.06184256105071731, 0.06566581448295059, -0.1963817216413132, 0.13806020670291075, -0.010934111162209008, 0.3325476352158551, -0.0039732562368457, 0.264612856300038, -0.01414357720937241, 0.20054838982710357, -0.07095111222258312, -0.06051911885030983, -0.3050466542961181, 0.04839875231152344, -0.12513715435906295, -0.0027893978570176395, -0.08701814766108282, 0.1802814689199399, 0.11590310102909755, -0.020372938755703954, -0.3584713260132578, -0.18481239720193773, 0.05394062059759874, -0.2908546159911093, -0.16060538698218543, -0.5114526940960383, 0.18268354950300467, -0.01932859325472523, 0.3553551002873599, 0.04592371354925472, 0.14877005763181855, -0.5034670287462734, -0.0828384056765301, 0.11733998645680226, 0.03512839339605335, 0.3840384106444213, -0.22639120939260282, -0.03675388822438307, -0.10592368296385253, -0.13011496001359488, -0.10249356369319407, -0.03498024748151895, -0.21701875985089056, 0.006740032960608102, 0.0856967874531809, 0.014204158916821601, -0.05094946785244807, -0.16216139820589479, -0.19667402914354268, 0.09842569438762808, -0.4210220683316411, 0.12447541561201403, 0.15993646599843273, 0.45054664396413885, 0.2016232356901207, 0.5429664912641802, 0.0569789098077453, 0.20389082473495287, -0.2678656433336232, -0.1536033280489834, -0.41775033714199405, 0.0764175757290803, 0.013877077768202883, -0.1562990020312553, 0.26986922582360195, -0.05086918987872844, 0.18368479394496814, 0.04812683421245229, 0.14249548346655525, 0.11679919146571366, -0.18799379320158477, -0.07621131623882715, 0.0950070329587926, 0.11435718913117106, 0.2286407466881642, -0.1261101517951704, -0.1397228713878329, 0.22195409062352414, 0.13131512693154793, 0.41768084675798905, 0.4298737576389401, 0.3474143991931382, -0.004679942358102245, 0.21438776923683017, 0.23830844812630875, -0.1936701248436067, -0.052643128904022694, -0.3739101494745271, -0.3621017918781614, -0.19409710302222602, -0.1269611337511231, -0.49627180032223345, -0.06253166493658352, -0.11859405245392576, -0.033619478380769605, 0.004854168957020028, -0.21919647277568638, 0.16556701238940874, 0.31881221596456016, -0.03671029887378012, 0.2859407909553341, 0.02755726483517126, 0.30636731092352093, 0.201130037491643, -0.14337221504316974, 0.17690224638857566, 0.40890047748082275, 0.10347029101097506, 0.07372941206906067, 0.22367023784034537, -0.031229631076756574, 0.2627571680388529, 0.12781028272262107, -0.11469309439980485, -0.29489502737327633, -0.23563761241865847, 0.02803841817434286, -0.28018550578227225, -0.21246196611640725, -0.1653996431031742, 0.08140897672965562, -0.02579457956911196, -0.11549516845195576, -0.10648377907013656, -0.28285962940466763, 0.07976992356076801, -0.0072037480741464835, -0.22266513915572822, 0.03106597139700625, 0.2403567442297242, -0.17501557833041706, 0.30892681322417914, 0.1585200845594113, 0.12802496615777098, -0.13256190586162936, -0.22371010387898446, -0.2567662033300544, -0.3921487005274013, -0.3005042180934244, -0.10467416357886286, -0.2018307101708571, -0.11189737793918485, -0.27906910568495075, -0.1539657056927341, -0.1325130089097529, -0.3008777247993103, -0.1609865967474257, 0.04157832959897609, 0.02583968958387144, 0.009029760223163713, 0.007588553004218631, 0.20509690085900173, 0.13553959055166528, 0.06499598146785483, -0.10617563207866403, 0.12530985316278034, 0.08727602821404765, -0.5191723150979549, 0.12992859830918582, -0.17165660086922882, 0.38832527963132396, -0.13079469458768175, -0.09750311387651715, -0.4178938041142004, -0.5354602475262193, -0.34831476167155995, -0.2130029142527762, -0.1045511682705717, -0.040746185743951474, -0.12426970244809131, -0.06871015806037564, -0.04815687596870979, 0.29954866115153034, 0.16087816012495232, 0.12307068046280557, -0.07773374846338155, 0.10019302904107977, 0.191052411947203, 0.23090040696691883, -0.15032225056468104, 0.05346169333368849, -0.12086244852903272, -0.026686475206674203, 0.04243647064413234, 0.02204686038206775, -0.05951432961387101, 0.29831513047769265, -0.07315922504708265, 0.29874823179290205, -0.33432143404916836, -0.027173550530803788, -0.30096094817396224, -0.028960222804815212, -0.36741672982128004, -0.3685856156418956, -0.47320258219521616, -0.3610097192713062, -0.18671513332319603, -0.08649779108863138, 0.3670950219424087, 0.03350741078716987, 0.10519784672179587, -0.10439014100431691, -0.2948970647902186, -0.24034753181987317, -0.18857414233311118, 0.27547681305354427, -0.12451779912949194, 0.2324184659699379, 0.2619625831049904, 0.00824257949964205, 0.09038886587344366, -0.00987727667919987, 0.10406201123101642, 0.2089204960904388, 0.13882451746364918, 0.28886750295732566, 0.41374512531139424, 0.32711058012880656, 0.33525659917655143, 0.22582912865565993, -0.1999644633864691, -0.4796848947903475, -0.13785776029663674, -0.24319956264131265, -0.09416867369637259, 0.1803189466697611, 0.27195169558455196, -0.3691861383324208, 0.20910547817973663, 0.1011899637520323, -0.15402412021292863, -0.13202180323474674, 0.3043562070919296, -0.3728093086735133, -0.013143091648317461, -0.2145049691563245, 0.09728706733687986, 0.2685750940341721, -7.53901413294873e-05, 0.06953544157993319, 0.08143798685490686, -0.05572326783118203, 0.35713096307141284, 0.36442448633827734, 0.2685158260123781, 0.3376931849828491, 0.22699454585336004, 0.14877222164674295, 0.3333554498802446, 0.23152471538152852, 0.07934511983136909, -0.07156218470654027, -0.33258300047855743, -0.10537150497006688, -0.20789124447179386, 0.36134559884314527, -0.09770620712843991, -0.10572320447150234, 0.0804507845388918, -0.06654038676447746, 0.03263501487817369, -0.2906712346763185, -0.34758217056486945, 0.0028565732413954386, -0.03944272217325425, 0.020227166755783694, -0.008357598341956507, 0.11961961183998507, -0.1036568032847697, 0.08751553619052461, 0.3859244942820194, -0.12686315643933274, 0.08430857728434299, 0.04273628192079074, 0.2893724453675755, 0.45776187787625305, 0.12391416149987032, 0.2569908174193542, 0.19495327146171906, 0.3564693951706453, 0.016365795213611672, -0.037992161632556525, -0.3827280334806603, -0.17600976313048716, -0.18110981082700653, -0.19393169407209748, -0.1422654471867524, -0.1754402927394991, -0.21604175687139485, -0.08898506182051204, -0.45409811865790906, 0.1435593175331418, 0.00700960353467959, -0.2840799678346591, -0.17076332057496243, -0.12748727338070218, -0.10587955335225445, -0.1310486260107888, -0.14246660412733517, -0.21247124388339392, -0.19976037695855428, 0.18920358359177636, 0.2057120169514868, 0.0025177002622664957, 0.17799649586907898, 0.013647701135688924, 0.08324262302563233, 0.2533963408833868, 0.1084512816371532, 0.4580897464304804, 0.04377714721106133, -0.1768440913007542, -0.22516777184168402, 0.00992970469528001, -0.07584741035806128, -0.22756676810291906, -0.012792115139047428, 0.12998580169785223, -0.4233921446419315, -0.08843923733958715, -0.25386955665552663, -0.16485383088875888, -0.1789838570163593, 0.22110643182767514, -0.02672490160548493, -0.07389044580021052, -0.211820149193812, -0.04099007242642373, -0.09658776921273954, 0.017262158550250636, 0.024034613800997088, 0.12392064161515522, 0.20385405575261234, 0.42312760860438825, 0.03394489827739112, 0.37869193905749443, -0.05657507878834723, 0.30228440959954106, -0.05434664456678941, 0.004108351687275512, 0.09940013004575622, -0.03764187207745353, 0.037540160188883245, -0.017721787690779717, 0.11180993775776053, -0.17622942117473225, -0.07381244775671976, 0.07021201705153036, -0.16262341470722988, 0.28806289875349483, -0.13739580478405983, -0.05303364090823378, -0.157565198806495, -0.3264637328585731, 0.3017730419975131, -0.013674022485435108, -0.12388381264663628, -0.030649515267706196, 0.10009772593131122, -0.12927020614789847, 0.34252844678927863, 0.18755784185985375, -0.06370950358112078, 0.054120125089258786, 0.3868420668305421, 0.09850971590292935, -0.19124093930530056, -0.11678705322418848, 0.2412763071212871, -0.1704372569977182, -0.49388962799126634, 0.1931458723174902, -0.24138863476150998, 0.11987552863673027, 0.0025174677744639875, 0.04221096880018107, -0.10820492676643066, 0.06462805016718302, -0.2948246179462545, 0.10395136993189821, 0.28119762750781674, 0.18065000565469527, -0.35319901337386667, -0.16802258754062352, -0.05517531866524805, 0.07540328200145538, -0.05012673626049267, -0.19115723896004688, 0.010111422949709407, 0.18070521880830462, -0.08901485418191733, 0.23712458675351833, -0.27653637997081637, -0.01593069176289689, 0.01445470232815836, 0.0019004883973360025, 0.09252432708952263, 0.0413863066103642, -0.01477538453701173, -0.16542650942633513, -0.28691569794619376, 0.09313859715425502, -0.32155371155621226, 0.11679114940656597, -0.033312753297402284, -0.20786022338188095, 0.05078039839767303, -0.0005084279233920653, -0.005903733910004862, -0.010921969358981333, 0.08963823139464729, 0.13585990137272264, -0.026083860085900912, 0.06425721176620337, -0.21779645338989873, 0.02614594385887037, -0.12469411281327683, -0.31179659934562104, -0.5129606853884157, -0.1319245062603291, -0.29359953142857376, -0.2079780629608939, 0.010743565264082424, -0.1627497819494361, -0.2349382001171379, -0.06383674743217684, -0.06316733504626082, -0.09157570008866951, -0.0821273576651137, 0.14826903560395238, 0.058829372661411784, -0.03949652975675398, 0.43563468755386475, 0.034264933897811954, 0.20011212659030603, -0.09916836785782421, -0.24093619653189996, -0.13996410031503162, -0.04728119667803276, -0.10702544648898606, 0.19796939179218787, -0.085905733886911, -0.00813470325609176, -0.13093017282576364, -0.18287480797985992, -0.07855894647929426, 0.2486751037266854, -0.16694575146681215, 0.11608325007144753, -0.20400947240553266, -0.09783168263544804, -0.02132668781461533, 0.03383046142664969, 0.2518704902645875, -0.027749598601047986, -0.17609140218123562, 0.10609220365561976, -0.06525639828970892, 0.04219333933753968, -0.02054541878079696, -0.34355787962209194, 0.08985545025127446, 0.10312586838765511, 0.16380212878770115, 0.3182798571523727, -0.2112664956094138, 0.09130565180093021, 0.07221046708520866, -0.0743244917667571, 0.06976980938723087, 0.08739532627872094, -0.21735491798421802, 0.03972548762513218, -0.16498627651848524, -0.11810181987685392, -0.3147747243933504, -0.08340623428645219, -0.0361119190619479, 0.09879451947541917, 0.00012068944721533426, -0.2732184555653592, 0.15045037988216023, -0.024537630035149673, 0.08210000678368207, 0.1625969333729841, 0.24983836542423807, 0.3466992259065198, -0.012770129030308731, 0.054999551406432715, -0.19062910997106683], [0.18766616978518125, -0.20946048674987444, -0.31912642769475913, 0.1467928938446499, -0.09222378762801427, 0.13746284543428341, 0.07213808794574961, -0.28814648197272846, -0.48077593029140986, -0.19385363290756927, 0.0029153105690047443, -0.2159815828389795, -0.11492390470605242, -0.25687801319842146, 0.03003216130698034, 0.016055977935832744, -0.08509899721931694, 0.24696858707984365, 0.26476111302566463, 0.09992606802396851, -0.31815760174981483, -0.19528347354976294, 0.07197115448392225, -0.11111433183928922, -0.08610641360532363, 0.158916485194705, 0.09031076272439952, 0.23231187791905278, -0.07587420105175814, 0.24310780511453048, -0.09795749062019952, 0.2650751502521601, 0.01870925229818046, -0.15212261726710688, -0.288722289378631, -0.05439774131549588, -0.039381057429219865, 0.1570351237175932, -0.01643200142882574, -0.07535238941098091, 0.1925280987314529, -0.033313849945397475, -0.07292910013275826, 0.14202120380438504, -0.09370583057328338, 0.1226201554479216, -0.09564529399956961, -0.031052823105363888, 0.03758578567969971, -0.04138265236146502, 0.013145176045283523, 0.14529957952392897, 0.07258482775243734, 0.08502426062643977, -0.11232929303000651, 0.15076042808613938, 0.11836301785027711, 0.17755790550052736, -0.12840454589762143, -0.03020258806495014, 0.11213724431701383, -0.10749269521435245, -0.039553083572494416, 0.34432640582142665, 0.3533020486298283, 0.22337817177587146, 0.16534839574148122, -0.18161425435591735, 0.12005301202694098, -0.03502809907727239, -0.14812161202484994, -0.0223333237485768, 0.07630422174984566, -0.025590086620263002, -0.00483085919978415, 0.20668766033485747, 0.0798131671561427, 0.09576622960694, 0.06524105877355117, -0.10236165090539842, -0.2466007581211766, 0.05004214348746785, -0.08963226022147254, -0.355459444401686, -0.069396742544742, -0.19307867821389138, 0.12354222795396924, 0.09338256931259413, 0.08846975283190674, -0.12367915111535543, 0.13145454942996634, 0.049182033322745025, -0.10505376357239067, -0.09841993918867163, 0.12313534707538795, -0.1183286196979983, 0.008531241379924188, 0.06503259577030011, 0.16995506993866372, 0.04112118924993718, -0.03250335770387171, -0.3380564145069187, -0.0758771421753161, -0.04556162564566297, 0.32659818204457813, 0.002314688881302072, 0.21014779560984545, 0.10733801470591396, -0.15945793221440163, 0.04463426926759749, 0.06786073220130863, -0.2219917336307876, 0.2161762338428898, -0.3688463476043105, -0.10430412398361914, 0.16926236905191167, -0.21701968830234444, 0.028518458081242183, -0.27557820945364464, -0.07502074166497202, -0.43233416787492834, -0.07166254957550733, -0.21717483769452448, -0.028200800266483608, 0.01389832504871107, -0.1343772604146089, 0.0487023526133678, -0.3919971794068008, 0.02415155019818145, 0.194054938495232, 0.0008038154071128373, 0.039600336854310844, 0.023067064682759934, 0.0983184505250289, 0.32710250675357727, 0.196207453244486, 0.1917378546522087, 0.1072924889355231, 0.028405542572517303, 0.08709757071137321, 0.3279642938629646, 0.2502550293392683, -0.054584310535015695, 0.15248841573197536, 0.05646009342596279, 0.11307426109104268, -0.0029250834784878667, -0.3048697259500295, -0.24492207310411623, 0.11910380698135267, 0.20216332375300494, -0.1980395858760115, 0.0014601293527234031, -0.1944402411129567, 0.0762270752675932, -0.5730309871929714, -0.5241710861365035, 0.10549197996764761, 0.015531592213720753, 0.1449052981850313, 0.11632283929341582, 0.2297596351414982, 0.004348300068821563, -0.09135313294309028, -0.15023685375774035, 0.13309890424138784, -0.09603682185505148, -0.2400293424320176, 0.018062746968094456, 0.08924256705206954, 0.2377211123691752, -0.005385115101774546, -0.21297866641379293, -0.03794338911133654, -0.11498546850188268, -0.2677097620513109, -0.08557982641785597, -0.07726889489601976, -0.31798551041760525, -0.2223198316641541, -0.22911979517298262, -0.2588424873657901, -0.11829128549235961, 0.15696813210279395, -0.05195633639776025, 0.08942883529948094, -0.04125262751287166, -0.0708424569252298, 0.23971010456900305, -0.061465868398951136, 0.2197284340713892, 0.09504699180870524, 0.30563269577836105, -0.061487872744246524, 0.13573841213804533, 0.15640809154263355, -0.0981544295823715, -0.03169571039284217, -0.25837977519985406, -0.3595302072692382, -0.10919764189670085, 0.027810511637390206, -0.10708381568206493, -0.2726871356196285, -0.016827902842704433, -0.28066300432308866, -0.11127101583397397, -0.08925259241258796, -0.17396538130185196, -0.16396618935796733, 0.24140375393173175, 0.04235970383646327, -0.11953703172644504, 0.07147161717878643, 0.1116823253112385, 0.1255409331639419, -0.15516875679869793, 0.02793128728956748, 0.18006273910077045, 0.09677142119155753, 0.03611766785968152, -0.41103415412813643, -0.20200954716969027, 0.0805290253334743, -0.010226194969686806, 0.0891742541107369, -0.23196140411885457, -0.07781043794234385, -0.3562301338387969, -0.375743527666161, -0.013070592068095277, -0.017204360141241732, -0.007965124318916363, 0.006942573589884953, -0.3117283832075914, 0.08505536031018628, 0.02895264599367927, 0.43438168608649036, 0.22578623120572536, -0.3008151751486624, -0.0428181888877641, -0.3154137160480476, -0.13211624927048526, -0.018362716983562597, -0.2382508209220952, -0.008500986084101589, -0.26312851946794663, -0.2866136405705412, 0.03557678869221229, -0.08615882860632514, 0.006417478110335555, -0.39136546088043744, -0.03136198714456647, -0.16256487167109712, -0.18227693007154908, 0.07716188359791301, -0.32718233192657953, -0.2999384887194215, -0.12071981838273248, -0.01884658220176771, -0.1467295849263502, 0.20328071462308667, 0.177413098883569, -0.17752674105797725, -0.052015647898496276, -0.2491030290217453, -0.37635054014306035, -0.06233531496692849, -0.0846701282330451, 0.24112280086967441, -0.05264355302242653, 0.12334912047707143, -0.05987918861500684, -0.21866221706274158, -0.044171703837380345, 0.025015032651476282, 0.20817856570808796, -0.03706762484943329, -0.05242956911318364, -0.17973907171566966, 0.05393361965272731, 0.17773173897101177, 0.013715380332389322, -0.22527694986231317, -0.115562850057997, -0.20360604887277647, -0.09672824953573157, -0.24415127551103277, 0.11938783849909917, -0.05415290045279265, 0.1335961253019765, 0.09090689410859118, -0.02667889066322814, -0.10510117225828891, -0.03880614787561751, -0.2570998297684533, -0.5209454831268626, -0.2550056042943307, -0.020119794094679618, -0.09951264733233565, -0.2340732823806858, -0.24307099114167746, -0.3055527122682377, -0.16961772311952555, 0.01312460251258132, -0.08940760744640307, 0.08019825357970886, 0.06866078019364451, -0.03623948931322363, -0.03226210568188298, 0.2968210496743703, -0.0345014491299898, -0.21670625575891297, -0.13204817861115728, -0.03703993813853263, -0.374569767967273, -0.027864614589167485, 0.13962208603951018, -0.09266618660959165, 0.394529479307246, 0.5076105182385304, 0.21171093911434907, 0.1134126899528336, -0.08931683945525726, 0.19747137903686401, -0.18548147718943503, -0.013077685996165303, -0.14376523614083578, -0.08862031623502736, -0.15171944818026556, -0.3020095676742309, -0.013390317443055381, -0.1343036024274243, 0.09524914217850462, -0.0796626900642426, 0.007722511603392359, -0.07167891167603352, 0.07487366823938083, -0.03968964532586729, -0.03527901243310491, -0.6432962373535449, -0.25829693831080924, -0.02319309332874785, -0.08915011261515726, 0.020322478461229875, 0.02552748016019415, 0.2931430314570324, 0.40849485280346987, -0.020653189131547192, -0.005485353789083, -0.09181479085121999, 0.08225916840456561, -0.006246236047230091, 0.22743161118811464, 0.07149684419709344, -0.02061156886558295, 0.1919852201559134, 0.2405206693379814, -0.06028089111285264, 0.05117761554287939, 0.10263315632635718, -0.01040455053548267, -0.28128541340620977, -0.14284452434015982, -0.21750982450835224, -0.09077734551292414, 0.13883836048648807, 0.03551644140822618, -0.40163248259951845, -0.16976462126713907, -0.13794097514242776, -0.06301136801611433, -0.07351673363103084, 0.12422098008964627, 0.2876354692856542, -0.007880906454390865, 0.06651792915295043, 0.5861368656532558, 0.23917718253618753, 0.16771123743117783, -0.10194334004426926, 0.1469745051642343, 0.09343234239870969, 0.3925818445256124, 0.24044139755199853, 0.035684620489399015, 0.22427937060778147, -0.08833656471910281, 0.1937179706562145, -0.224274005430026, -0.24687523077739423, 0.017686378166362465, 0.1736065192272519, 0.18313310986644146, 0.028204086661752337, -0.18297610478668824, -0.20676770774245137, -0.4582422650366035, -0.32914883161779157, -0.025959451147106682, 0.1263255349419798, -0.006646118274673915, 0.1279582194510044, 0.06792613434206815, 0.07869252964935679, 0.12602054476166588, 0.32138186601353935, 0.16781456479608747, 0.284579301487508, 0.18660058181744776, -0.056849002466214514, 0.09390310613879611, -0.26178254410015794, -0.05798589183538872, -0.1527876808074562, -0.32393162326619257, -0.32759181063726145, 0.06516354677888779, 0.1560046144134039, -0.12400482686736965, 0.036637120853048946, 0.13387610856504842, 0.02490660866851817, -0.1698884183416685, -0.3005231711625192, 0.016566064343237506, -0.051136422472518255, 0.09265702739011981, -0.08110958322499034, 0.05403411823182371, 0.1812759459416574, -0.1158504280719734, -0.2387209635272247, 0.4485639699023712, -0.09060896206840573, -0.005181689634848241, 0.24582033513369841, 0.3152854586486156, -0.06247681420278412, -0.2848386258504665, 0.014363974141026819, -0.050606715991114125, -0.017117625241369356, -0.15973414447334305, -0.3070239300362499, 0.011195533699220581, -0.27750035971735326, 0.09053763843943934, -0.17092885450026699, -0.30641198218444377, -0.009695926228537663, 0.05714484806158751, 0.0261966662460816, 0.012544935575114248, -0.4783973642297907, -0.17438961339271644, 0.031741527698456125, 0.061926492015495396, 0.039473701022560176, 0.3311834493738874, 0.10696918697335493, 0.13558536669886675, -0.10567420713091903, -0.03452834695270258, 0.017795714017816693, -0.2546965253072593, -0.29576757027267453, -0.34649039509006496, -0.20874444722649546, 0.0075241267751481955, -0.09274720955635031, -0.16104453395122958, -0.16659662647997808, -0.13883704263764726, -0.17028935383094185, 0.06890326821726163, 0.1530046829028573, 0.22510111545597203, -0.1492756191570135, 0.039093507248832135, -0.3483558715150425, -0.007944330266522553, 0.15429671131745681, -0.10115245528061916, 0.18316827003230066, -0.32104402229034246, 0.16115095038488297, 0.17074733631020356, 0.2744835972617791, -0.12503835970121185, -0.10117550816262191, -0.09487688121730652, 0.19271448956561774, 0.09322437596251168, -0.13294736537880236, -0.2182480917974345, -0.09805618290175716, -0.11184110451883691, 0.01596208541747098, -0.11459506092124612, -0.12580907440273187, 0.07538387072582269, -0.08702649191533489, -0.1637127242416174, 0.15565405495573095, 0.014258946525032587, -0.19718972984730587, -0.26182533712027045, -0.1282402496076634, 0.31916289683578536, -0.024777892211537773, -0.13717370094858602, 0.173932169193838, 0.10501974413614917, -0.02337318355819573, -0.0761893491252493, 0.2504889351284945, 0.0370005474134875, 0.0848261519953829, -0.03341664822458887, -0.00439401532346846, 0.049201821872418366, -0.11254452611620845, -0.3148805466449237, 0.15693358482660624, -0.20713786411850568, -0.20134568490629914, -0.19063662338763607, -0.20644250676891923, -0.4009129741138185, 0.06955690688355426, -0.1334105503325673, 0.23436265854603205, -0.06576967772586782, -0.11461789674281536, -0.059231264787481135, 0.06091092507186396, -0.19221759315865944, -0.014255122173735176, -0.06570660184061823, -0.011903886894165525, 0.2441333628246546, 0.29057610262646166, 0.31094120111214213, 0.16291020264183942, -0.17976001305693604, -0.11658604905373038, -0.3966082252412138, -0.14472049211791685, -0.1614931295963622, -0.18482946413636397, -0.0637334476239079, -0.17597841378778853, -0.4193625280237869, -0.17949635560074775, -0.13664204635045932, -0.1714867274760266, -0.12735934802158805, -0.16803287390664956, -0.06983833057674911, -0.1513743839293883, 0.22190128219087293, 0.034657187989480844, -0.2713562389852487, -0.1864440309662748, -0.2904643913678708, -0.07011331203961979, -0.028980842382978492, 0.07852300581617304, -0.20053737407033262, 0.076338113271399, -0.04448101263286667, 0.2596491484575158, -0.20608217418498193, -0.05412027923635373, 0.0834579190793426, -0.09520223418907606, -0.006860023715561557, -0.08734880590449999, 0.03884890218710031, -0.024983493795309408, -0.18202948102831393, -0.36922749335881894, -0.31982180701166973, 0.08716015313104762, -0.08889812266252464, -0.30335715205714586, 0.10842283060978371, 0.02292027879143518, -0.24848469563684406, 0.20039551079739423, 0.08002992771798716, -0.06166735263288457, -0.3767699680255212, -0.46603530258641007, -0.3328480721244589, -0.3882825712245583, 0.24238370668176534, -0.09437352653410018, 0.06010956058213444, 0.1265050869911855, 0.2762743451103546, -0.08164988170134671, -0.0071668559619213, -0.4339976393421794, 0.14169012246242188, 0.03850952971070573, -0.0677025728969995, -0.3314785876478248, -0.0014187871180525527, -0.04313416571921983, 0.026464117550673797, 0.056246800471674054, -0.05574684352200463, 0.21112677941001154, -0.027559290760281224, -0.13065039405875556, -0.010376269512156162, -0.17185266322805098, -0.10488593777511035, -0.06870483003301178, -0.13468695986740029, -0.139246196588384, 0.05395139122661407, -0.0917910159135183, 0.05318706310105429, 0.10778988378280442, -0.06393959491346231, 0.11559632771596981, 0.27726194221789474, -0.2764159606257116, -0.07605980458070191, 0.16081669496695847, -0.055438282054417275, 0.31131840680086276, -0.020941115267380992, -0.18121373059189727, -0.2925327028288385, -0.17448169017560533, -0.2889884177923146, 0.07557151379411092, 0.026681788494598003, 0.05779953810199151, 0.3675496842944091, -0.1604188372895995, -0.03401258001532781, -0.2161630239200459, -0.03459515799008898, 0.23593235906887808, 0.05554673789337537, -0.15308793365515969, -0.2583252479633749, -0.31406024772446567, -0.15594852734073256, 0.10675216054555237, 0.02077579525698846, -0.1290460801628377, 0.22142664630377654, 0.28047700740141174, 0.13956195094582555, 0.19163738276816714, -0.10397053966359562, -0.1412065213246345, 0.061370320187695615, -0.11105717619396888, -0.0046567134983432285, 0.08714834679282031, -0.07348432235926194, -0.5019822828683634, -0.02284518382902966, -0.0844439041772576, -0.04148849236198377, 0.15905143970295693, -0.27904734969665584, 0.04299809189007691, 0.2635361825623731, -0.13330044666732932, 0.04028921483279357, 0.01873101862132812, -0.16962854852865078, -0.21061522180317344, -0.11821025008547274, 0.02498592439921804, -0.028151835467115662, -0.17346358407762227, -0.24523793135400393, -0.22520457044683684, 0.32675608985163584, 0.015461497621347756, 0.25065876823108413, 0.05475638752788055, 0.06295016116763524, 0.018894981261812775, 0.16013339864844922, -0.1632105829560653, 0.3719645003544687, -0.01884572158235053, -0.1242542263959253, 0.05334393353958597, 0.19310005664876717, -0.1781122212709279, 0.10020929432501102, -0.12635228261782674, -0.09020707559535374, -0.12425049927206704, 0.06868070005543789, -0.25584983864986316, -0.03231818358362414, -0.10065178628026787, -0.231653743145227, -0.2445744216916061, -0.1895918345405214, -0.19829137702999367, 0.11907411589765812, -0.15602541720449617, -0.01925234903442049, 0.19555568030559578, -0.11115257296058752, -0.12437195701784691, -0.02305699071489206, -0.3416644418149836, -0.10814088073829464, -0.17873307004331904, 0.0591992697366014, -0.0726470624494454, 0.35489113478231016, 0.16566410718360572, -0.15083267955010096, -0.06846798951760263, -0.06144484152948341, 0.5845252861883932, -0.26675613001154247, 0.04369886567516915, -0.3361368009607626, 0.0369009272989155, 0.35120269473248344, -0.0682022699273858, 0.1908147864621914, -0.04967618592159462, -0.03343063977447145, 0.09787227575598823, -0.04663567279741199, -0.008807542771531018, -0.17263144660178575, 0.2421543346031028, 0.009518394315937094, 0.10939575536828278, -0.18085081735596853, 0.1545006104297057, -0.09244178871002728, -0.037776955291297126, -0.32353217613921437, 0.07000421883894549, 0.32023199200912805, -0.15363266360944314, -0.08100423548009954, -0.20122914751023752, 0.0228328623195421, 0.01131798612498691, 0.12464190703830484, 0.0974507235382151, -0.1438074744535547, 0.0392795320464264, -0.05916474756012675, -0.1938883549243392, -0.02290232795349263, 0.6620642353562142, 0.41794265210366005, 0.05801329120224556, 0.3199275731858819, 0.01565346967536746, 0.007522920600569056, -0.3496207467907394, -0.17104672158150666, -0.13487862237854265, 0.014104984521160102, -0.0008849461206999801, -0.10783347754979551, -0.10505829976889133, -0.029372002225947755, -0.24420138645188605, -0.10830022011324304, -0.06740316313479532, -0.22078506498288325], [-0.058378363433029636, -0.14757445157958946, 0.2183868166870897, -0.04309882955902562, -0.03350725684219009, 0.07566539425331253, 0.09845901843601661, -0.30692708840005084, -0.06660664964831747, -0.16069573055265893, -0.02566271602388288, -0.09481109067765746, 0.027766220576021187, -0.17332234530351168, -0.10036801665362613, -0.10450325266474754, 0.19137692482850163, 0.06505447074468391, 0.06521092665924141, -0.05061439948461082, -0.0680091505147188, 0.09917223668047999, 0.13743220162752967, 0.0026775987078330723, 0.2018167509934603, 0.22524091505972965, -0.29427981806996295, 0.0760809569773996, -0.007531028131909093, 0.06864041335395656, 0.19727864265318218, -0.16272969436574133, -0.286426701300985, 0.1955488729359272, -0.17653189888374396, -0.12138385986569615, 0.03598153775098511, -0.12135606014701125, -0.2815173776354609, 0.005691962889694542, -0.13816225554805917, 0.10737893989724304, -0.09065047695892685, -0.1253197897602901, -0.030883917049695262, 0.18841191298425317, 0.15948540257412774, -0.19609441376998135, 0.4921579172669196, -0.06264607436945385, -0.21432717222776176, 0.15612531032903412, -0.06393526179091615, 0.3807274171917925, 0.14980204864878324, -0.035129037720319604, 0.2784775439235623, 0.1501037810098502, -0.21724003178005954, 0.1580287147912077, -0.09095011138849302, -0.014806926148847351, 0.022667739275734462, -0.15363543757187784, -0.23708067969897967, 0.062994259494213, -0.24995966098962416, -0.44798458244081, -0.13022664200495251, 0.07747936744735981, -0.030548185275444357, 0.22072847937521536, 0.032878057274715364, -0.13155734831552768, -0.10608871317774929, -0.2967166817424284, 0.17062340414042743, -0.24972728312928527, -0.1723666268877672, -0.031942571470531984, 0.0006882656758614595, -0.26559054639520896, -0.16007762535171444, 0.04685300178329717, 0.19970876200290472, 0.06169569635305576, -0.004562564360425271, -0.2735877772054802, -0.11000488958744892, 0.07725465345825126, 0.16761974844266408, 0.12997279479097165, 0.0059174828757230695, 0.20024875581869198, 0.5084104643046833, -0.10393095107019772, -0.1367132345683818, 0.3043815468137475, 0.059900147159556404, 0.013036765635829799, 0.0392574040530165, -0.14487615659813652, -0.2735521791312186, -0.31797645838383437, 0.09559559856884313, -0.2960560529291303, 0.09129770839453683, -0.08348528123983076, -0.05286320578277422, 0.13592799420008692, 0.1464023537254175, 0.06063025892839879, -0.3311239038082148, 0.27770994962735024, 0.23156860527300388, 0.01590565825515418, -0.0025927558588750366, 0.2864991359440435, 0.12018353329449652, -0.06268283727635383, -0.11118773843054387, -0.07050657360970873, 0.1560173517386492, 0.17473710581749569, -0.31535745075271093, 0.10534099121012037, 0.18030538235303345, -0.22813325381964153, 0.09161186704676175, -0.24090898796796673, 0.03425651022369067, -0.5068560529402384, -0.2635827190118824, -0.2913849178990043, -0.26755268001048715, 0.16110754566722696, 0.06962256233069603, -0.07216528767545986, -0.16729283781971166, -0.045379704834983, -0.18192318962286555, 0.17201786739281544, 0.3527689105656146, 0.18029011987302748, 0.041589984433186004, -0.07580290608584979, -0.13966591176046483, 0.21592071544808794, -0.18897361661054451, 0.20347099538988525, -0.21803794704688648, -0.012014903115584737, -0.3185536181607113, 0.0621626832196609, -0.2702467418642441, 0.28879098856999796, 0.13855114168650506, 0.28685450056904443, 0.20144972897604432, -0.21238321293747223, -0.07830969337041774, 0.29096847175778834, -0.052170446071192464, -0.2763160526682978, -0.32220727571193414, -0.11253207691519784, -0.32469683214264994, 0.1420939608175088, 0.13809216778960565, -0.15483408810554636, 0.10215166572201902, -0.12051065349032848, -0.04623089006419623, -0.0027959137016747427, -0.21382162512364353, -0.07501192815958467, -0.38071080408390795, -0.05927023427704748, -0.007590361805876979, -0.3341501047778008, -0.39975749764298363, -0.4700694789478025, -0.11490758520869962, -0.11086851501643381, 0.20335000534657435, 0.23402680512198729, 0.67167332635936, 0.15009808572440855, -0.18009676017967632, 0.20439867977848467, -0.0838132418259934, -0.23084179007013164, -0.23568973478502855, 0.18059553366353742, -0.03670416455354708, 0.15461649706348118, -0.015622308943233508, 0.04571318197541094, 0.37115568486875744, 0.21734266827808382, -0.11624500914485007, 0.022471355027988603, 0.0036852990300779093, 0.04173183905300241, -0.0577344672802843, -0.0925830928726092, -0.0379628353263151, -0.20967661256193024, 0.030530402701223144, 0.01913919130558577, -0.16709375316343245, 0.13169308956624914, 0.1205110486513193, 0.5301393671860799, 0.6185610538494626, 0.3736703553594085, 0.2650012463284001, 0.12967788170776265, 0.1848371674760789, 0.1735022913905421, 0.1225396315138701, -0.015587919075810083, -0.2855030003952829, -0.0037860691010705816, -0.12975637983578803, 0.011779398296637428, 0.18184980609609913, -0.024994482419605498, -0.09411935558106595, -0.19342321450668346, -0.30950848113908785, 0.1611715812088493, -0.4079803520623446, -0.2579091219000623, -0.5312257007481546, -0.06428534758573241, -0.08210469011771018, -0.10893899052556733, -0.03394336768177652, -0.1930008579010095, -0.04256401336905022, 0.36860166241879666, 0.09144658182134414, 0.4278180316034236, -0.006067976617357252, 0.20325922916117603, 0.4432148239467288, 0.30480296779150107, -0.14195715714177048, -0.008112076412304884, -0.008461648559637928, 0.04368314683284402, -0.17292660780281754, -0.26934804489281683, 0.0033607417872085934, -0.06553264056804327, -0.00791612036179127, 0.08350344313150361, -0.32423694662200403, 0.046398763079721794, -0.325663585662236, -0.11730991437208352, -0.009040953875149828, -0.0037900930328504333, -0.3771856759954128, -0.05881820804471216, -0.0628645151916028, 0.10644051842975849, -0.03413076035505633, -0.0850852953498855, -0.08093936534913243, 0.008717039315467327, 0.4679031990145871, -0.07136232710014781, 0.1467093236424421, 0.33523793217896436, 0.21895037737522172, -0.06422760604371792, 0.2536068720083658, -0.11647526220729634, 0.11766071095559535, 0.0006078750875682841, 0.24078002260434078, -0.063978397486325, -0.40015456939100763, 0.07567542414833073, -0.166469293500985, -0.3005585519921866, 0.040412372074031734, -0.03461951956009536, 0.19757199024331404, 0.0331353829920046, 0.11243172582245599, 0.48659495960407034, 0.14956377752650404, 0.0014337050831632213, -0.38537128446127744, -0.047059106607513945, -0.1512483864326509, -0.0678217712902142, 0.3910544020568591, -0.10994726573379046, 0.03195153518025935, 0.3548224674567576, -0.19616981882978857, 0.2015412314754682, 0.010998040576569931, -0.05618990259432575, 0.041763818403267775, -0.13018163934772328, -0.02287232461275051, 0.5201109086662266, 0.026204747311985147, 0.2134778517439155, -0.1578642954007872, -0.19545438275580307, 0.08562413263320812, -0.0804387285174582, -0.390320814287349, 0.12254896020054977, 0.21236358581790193, 0.3965160339228282, 0.26675771720402897, 0.20492248595931903, -0.3200107335437201, -0.38409786732799145, -0.6650246778397348, -0.2090816547633496, 0.14898137245034276, -0.016570929815063442, 0.19062812889078026, 0.5976620346599735, 0.15501977613298207, 0.2337684472460135, -0.24734325285128467, 0.18279106679732005, 0.011223637305569016, -0.04034972979313423, -0.056684789610975964, -0.09616502747793834, -0.14743517250657126, -0.020974855264661463, -0.036546540921107644, -0.1932730569569295, -0.028007179312718854, -0.0236121960931754, 0.16607134038038684, -0.15135546225347798, 0.01449183759504744, -0.2837704951183798, -0.26803822884101164, -0.0754017093128354, -0.23303995672534386, -0.08208568116064, -0.03169848349962879, 0.17759711909838413, -0.010376069007141369, 0.2644979491401177, 0.08282080594876161, 0.16850587221461563, -0.09486645471952236, 0.20673097186519263, 0.0495614436829889, -0.0004632371788783126, 0.05981984695419743, 0.25519065239913674, -0.046745524427854276, 0.22106744291168648, -0.2663694732033789, -0.04303157615529583, 0.29360658161070247, -0.05915905794114052, 0.08795460639147466, 0.2495463491690877, -0.17382482403093835, -0.438986433877652, -0.08002049937631595, 0.2256831775787634, 0.19561661800214603, 0.0038131970899249515, -0.004001667606865119, -0.04152557052887604, 0.05389220940804245, -0.267414725272639, -0.10653873942803188, 0.19866857330298346, -0.05102641990550145, 0.10730036588159295, -0.3333725733824898, 0.19002591000356872, 0.11333069510722193, 0.38286041928130105, 0.2498005913785158, 0.2582280152636302, 0.12920437216206584, 0.051651712868267224, -0.3441096683745068, -0.2647867646885769, 0.20059401586255343, -0.13080777901259094, -0.12426531130366472, -0.1780225874652934, 0.3863535487028897, -0.10647556805824908, 0.3166525574636847, 0.015383944185994074, 0.031368374152211075, 0.22957148929980936, -0.007527723230587265, -0.4106978659388133, 0.06346569754828427, 0.09745671955682186, 0.1780597876681409, -0.053420481295773016, -0.00038347920432198353, -0.1722116953733032, -0.02979074403802187, -0.003979864206957033, -0.08492312227113406, 0.030036574830798905, 0.14185249871983188, 0.03257383819108778, -0.1251968233512856, -0.002536550129282089, 0.06565318873748473, 0.0893258024103207, 0.008424789206569853, 0.04063804758335623, -0.1368951585356561, -0.15018560609992457, 0.08889308785149894, -0.2453777311232728, -0.09451639552635036, 0.13492958287553994, 0.027849146125202742, -0.03288945368658456, -0.15264076555680636, 0.19737683515615878, 0.26006436160505697, 0.12628848944841528, 0.2341874349584398, 0.34239559304460765, -0.12581244620386833, -0.02418020160004084, -0.05025609013647068, 0.15464012976844316, -0.29686240715262147, -0.1850755092265621, 0.02536107909873305, 0.14762688358396167, 0.0004340707375982872, -0.352691346931988, -0.2922919877615155, -0.2294712853777763, -0.03155015877260807, -0.20205243805726775, 0.06043242236621222, 0.45368805499419523, 0.37330700527722943, -0.23201519741333482, -0.06691638450050948, -0.34529307534359416, 0.03055755378067021, 0.2327570137844636, 0.17057176186759163, 0.1551766715447231, -0.006797919743839374, -0.25411951263286353, -0.1677479708741123, -0.42791549549764685, 0.2463039239694088, -0.03296846633918829, -0.15954807780169827, -0.11155354929622745, 0.01040252142807989, 0.14107757575123894, 0.17880041567443763, -0.16280660556738785, -0.19766974356371578, 0.25194905913434995, 0.052801936475620745, 0.10193736538890323, -0.01622204532112958, 0.275776987423731, 0.02825729288340627, 0.6166740888617146, -0.0635725688324206, -0.15181708174859337, 0.018548970269411335, -0.11202799832553968, -0.02749508546154479, 0.058281042794311, 0.13535062719418736, -0.23005411800780598, -0.49319361703094083, -0.31853902044005533, -0.2834272508278551, -0.36046100951064497, 0.0561361986970051, -0.13322633570802508, 0.17677205577058205, 0.24772674857287325, -0.0034152800620588504, 0.29806541984707063, 0.004302466631694205, -0.07686204422906577, -0.0029201049769675387, 0.0007421197389472971, -0.3933951381610187, -0.06014573181716576, 0.26436643135008064, 0.3499344891813586, 0.2690930044619936, 0.2764034781448242, -0.23161588152857696, -0.40399892233842793, 0.08008746009937504, -0.13827151254449468, -0.03510807561835423, -0.1422634730952476, 0.17254508332699847, 0.07588000865423465, 0.2255693730649367, -0.2026191469639047, -0.2800172367930691, -0.15196388995508028, 0.0512000623983367, -0.33850878627163794, -0.05077202143454335, -0.08320342937764129, -0.06694703890211802, -0.11129013986408792, -0.2374463341759487, 0.13444546162920498, -0.1241486622308879, -0.33295518873726215, -0.15577531393840424, 0.05474458243215213, 0.18767657558449752, 0.27749214751606244, 0.15300608254308484, -0.055649430390639895, -0.4579092976443653, -0.9853102073187129, -0.09799199237706352, 0.18626137621132044, 0.18414791181397072, -0.056401830758999044, 0.07832462459802157, -0.3516590344916743, -0.3041889295222471, -0.060743913292898175, -0.19927881506757342, -0.038961605029822786, 0.4968090045375228, 0.3896102076413977, 0.002522191195485538, 0.14069362773078475, 0.1574274674935312, -0.11451819692595291, 0.11382723420148153, -0.2537952539808245, -0.17028330274844844, -0.0900008114089688, -0.09988567043308799, 0.41835025151045085, 0.1974132655501805, 0.11595207076465792, 0.22612664281470443, 0.2310520964334618, -0.19993004430605787, 0.07371992256698137, -0.2908318171415765, -0.01700423914283541, -0.13539442835369878, 0.05683024199182057, -0.2077630164592105, -0.09204420700824174, 0.14840930623278856, -0.11355636784822061, -0.03224665904300809, 0.21713663985587175, 0.12283139000168172, 0.13427371347820738, -0.17158774351386047, -0.21596968684266457, 0.00881394995468645, -0.08197577635847682, -0.003381394262089177, 0.03622262486809445, -0.1398823766378049, 0.02937479710266062, 0.25278811463160533, -0.11553560628788953, 0.05199797961670446, 0.15055142301574806, 0.2714880092148371, -0.11748223047724689, -0.10841891114747051, -0.38265153798656, -0.26780750960674915, -0.14500574700895563, -0.10925889104165261, -0.10462903147636878, -0.3160448480629174, -0.060578749441904, -0.1253286590749652, -0.36088005368313375, -0.26479027732798566, 0.23936525377746778, 0.01293108791784546, -0.2502590609740594, 0.12364032246107634, 0.18088908015027585, -0.07612191318784897, 0.11626286755502016, -0.6611745912474503, 0.17209304727434516, 0.20701247209505405, -0.1910867214728827, 0.017957850648121287, -0.03990520632741579, 0.16808336485794667, 0.19064492466522656, -0.07670588945578186, 0.5478468925110527, 0.037866922402419304, 0.04547335421216199, -0.30436808596359544, -0.4107507446193678, -0.18882274750488237, -0.15093256450675557, -0.09541738120949783, 0.0693137695138182, -0.046917420600214, -0.10509810538534023, 0.041752590141069405, -0.22240658963983256, 0.04594416757495285, 0.03185000361582721, 0.18334318251987206, 0.10851430378890513, -0.18657877885523785, -0.15302385449717115, 0.1294863301583416, 0.3371230295687579, -0.23381116267248173, 0.013707128093792726, 0.023200214052917282, -0.2784648126536797, 0.07351432349530428, 0.1687660214187023, -0.09134017783470844, 0.5552034992903292, 0.1448972674886584, 0.009136808375241324, 0.15644549961944912, 0.057188838843578796, -0.147324113940048, -0.16816736387481096, -0.05150445419512875, -0.10001303228838611, -0.2234060249458441, 0.15400587310378586, -0.12347215730871341, -0.09983944424611248, -0.4117196357072084, -0.054324029557023354, -0.1664327178910787, -0.038580854637685846, -0.040775384196775434, -0.07892457037814374, 0.16596479271061051, 0.0790287556665037, 0.19843501500546323, -0.2382824431050019, -0.12034828116501323, -0.023761942810586564, -0.16422082758610893, 0.003393344390350659, 0.013283742926697798, 0.07968930912917412, -0.14830910277378653, -0.03685736565176981, 0.16682611967701594, -0.07555911558942184, 0.021801711858770025, -0.23858329220898622, -0.07274877999241332, -0.2226750733255291, 0.4229680108220829, -0.10345176728199487, 0.1367340320139032, 0.06889944697986576, -0.1324378182530527, -0.2524031307167773, 0.02365083780243395, -0.10254297901139112, -0.027467108545507872, 0.1151350255940971, 0.013831212965651435, 0.06666537279132412, 0.02720449083742075, -0.2616367683332833, 0.21806686389121732, 0.1626025797105904, -0.17435115279445645, 0.1700666624660677, 0.10873560932545488, 0.06688704571995181, 0.03871746979445693, 0.402451417911243, 0.18598878493570078, 0.06523472686526921, -0.21873485898697953, 0.3581814698373499, 0.10223011745407208, -0.47401266448067975, 0.058242292196455984, -0.07536695737012891, 0.05636809250423201, 0.058734474604540725, -0.18070837325252273, 0.30541910675301226, 0.030123493767904273, 0.16643588277328944, 0.23893307811921174, -0.13048906077405567, -0.1611794196197191, 0.19832707355831924, 0.24622119844820883, -0.24317630076863672, 0.34632077446205417, -0.03534014332852234, 0.11617990480603237, 0.09254022837605937, -0.10464999717452296, -0.06969986919159571, -0.29456223663818715, -0.04286581793259778, -0.1368351216954571, 0.1670215769473459, 0.401558218849843, 0.012220136056828777, 0.04067793689826655, 0.14454219460565002, 0.11804495863859467, -0.06663256431710696, -0.2549646902966209, -0.072799930321743, 0.013135392711776606, -0.15429317096590847, 0.06398562264740634, -0.05174823851105381, 0.10992355469768234, -0.14199402013175502, -0.16298239598308845, 0.3136118166493564, 0.0050834326721899735, 0.0977511219146501, -0.1941834553377037, -0.06693650372604226, 0.12176980320524579, 0.28591651179618005, -0.11965643443545809, -0.14052986208128057, 0.020298248320511005, -0.24126906716987895, 0.03072646695993269, 0.009432880541691674, 0.17035905467572965, 0.28343902765369183, 0.10008243244891477, 0.13122689859821499, 0.009435367723602588, -0.06355120736231924, -0.35230709063004806, -0.1567297926328546, 0.04158819169543222, -0.2908850165605225, 0.042937260192812285, -0.0708582354413533, -0.18058797478711072, -0.08308934540733143], [0.12883158892188126, 0.1565359598400362, -0.34242024312771685, -0.026425289667324277, 0.16155350977365462, -0.045589801015732304, 0.01923600399002289, -0.2643537926391617, -0.08485876348349816, 0.3232848768469386, -0.13931206281053937, -0.25467022476764234, 0.0264231235181318, 0.1394112873133521, 0.21103787334318944, -0.09152129775514874, 0.039328497220638726, 0.09622925645189478, 0.11476529166231722, -0.0967326927432588, 0.30276985323590155, -0.12149809633373636, 0.1251353009062689, -0.003873395915670229, -0.10380655716509139, -0.11364112819775306, -0.10365246920987049, -0.07899639010381025, -0.18011522913947078, 0.12328578260158503, -0.12436511258591332, -0.1087213531718063, 0.0863891077363512, -0.019085155524969793, -0.2516428950626625, -0.16971553192363378, -0.05178878703621086, -0.10466480251082023, 0.13116179466290823, -0.13524697852455145, -0.17106780747211786, -0.1756184360964557, 0.07637622293682704, 0.07678308976011522, -0.30110710511981403, 0.10359408270220763, 0.14783000876012523, -0.30221224075565273, -0.1240905872459043, 0.2518398092983196, 0.17713182247207163, 0.004324027820515326, 0.08860921179548006, 0.37335584946520356, 0.08888278737210535, -0.21581055611048167, 0.24128940563093165, -0.1539616988899391, 0.17569874837804533, 0.11600560174073381, 0.15723881086614916, 0.27216189266622465, -0.2739053477704601, -0.050204365594252794, 0.2988227785097168, 0.14846317303989404, 0.044512645214604386, -0.16296511410211278, -0.009947912339295853, -0.159990605909823, -0.20774888568043948, 0.1379159974141488, 0.001345033815838871, -0.1922414941469059, -0.005261032641049586, -0.11861433603221622, 0.29833227917234006, -0.01963061645013959, 0.27065948686264274, -0.14730898527644132, 0.11624717645227586, 0.3315165381033228, 0.0479225679608392, 0.2008974558878717, -0.3072965629847438, 0.12500494323048575, 0.005371550378939887, 0.1351742556569108, 0.1533639051354096, -0.3999523215684515, -0.11071704103695616, -0.14417941536223278, -0.00015303927610656597, -0.3846532288890382, -0.17290054825474555, 0.22086632339472353, 0.09541921400285941, -0.17524814915765932, -0.11864070805709437, 0.009616338622054129, -0.4601776871298547, -0.20327427372962395, -0.23087001937352514, -0.05462484712983292, 0.0451520621932355, 0.3040206179916081, 0.08858636001971583, -0.11306011174509617, 0.22610339349102346, -0.14895140342273633, 0.0753873130527595, 0.27779804499130206, 0.19044416452206492, 0.14338175262820427, -0.3944838492032937, -0.01674861714850215, -0.09718354355275567, 0.2346145465800647, 0.14605661257926922, 0.05565453807703706, 0.20717845621002753, -0.006561189862800209, 0.2580910649349957, 0.23394613643363688, -0.12204357824644711, -0.10348965220987474, -0.1684209941617171, -0.15038757439903427, -0.2926996135995781, -0.08314584532158403, -0.5283430044664833, -0.2006782888361983, -0.09200056683896134, -0.07962465551477722, -0.040252918680906684, -0.12836442753313118, 0.12248057077066297, -0.17354146978845855, 0.023078971143686584, 0.012840722175640279, 0.025444748623751935, -0.16753557293969704, 0.24735124123029187, -0.02526526365541939, -0.19113206254085974, 0.21315664403146184, 0.15154342950819563, 0.10134429849980046, -0.03200612369432729, 0.11074623122589476, 0.15382494716575432, 0.17801001276755632, 0.026165691650474072, 0.06352352781349786, -0.3065063026150852, 0.15370838519221455, -0.39354049740726, -0.27447122946990554, -0.2675217072331562, -0.3411527549489394, -0.22390336421456875, -0.10178465992293832, -0.4474623555346851, -0.46416156963964805, -0.12897418576793623, 0.1591750261203154, -0.23238423385765025, -0.013567991140201114, 0.2528891062923064, -0.23394779586952189, -0.06962918393588936, -0.0857206262100298, 0.26965414619106454, 0.14240317502214664, 0.22362041536340727, 0.5345418261355105, 0.24877246160563735, -0.033499326669316314, 0.11194787260745877, -0.044640211490221626, -0.010184560828076516, 0.15459281867138608, -0.2704661512020516, 0.12412697521334709, -0.30959190319300245, -0.18604434142512388, -0.24638698176282048, 0.15502286527251344, -0.035269138761571485, -0.18103116741775316, -0.002317797182179865, 0.25551935874880616, -0.14621688478309108, 0.36033629442456394, -0.18908411618045523, -0.032942087713235015, -0.29174843877147133, -0.44877019662104217, 0.1840873909502268, 0.09766430358149458, -0.13769254042350743, -0.21456564018387111, 0.270124017255462, 0.02590309883595521, 0.2903023738026229, 0.13859120110862683, 0.02162394177817694, 0.14436845232925746, 0.06115082298851688, 0.1946720086958284, 0.03278263259178833, 0.131394954922741, -0.24365829741318223, -0.1464977921300707, 0.004017314794900196, -0.27443564962702166, -0.4289850618955266, -0.1623967465019473, -0.384975369286686, -0.1935065383436642, 0.19633327448573262, 0.16053627898458472, -0.006034751067925641, -0.054955179065076756, -0.13070885577202776, -0.09071580990117176, 0.16857508842147845, 0.11707542539962194, -0.08520878861983874, 0.0876042625640421, 0.014811981620491146, 0.19552619604665786, -0.41724927574298537, -0.20336408261100244, 0.27126497134443794, -0.11904413023791768, 0.4038199310532022, 0.005477292740076483, 0.25855053371937187, 0.16643547871017716, 0.10080229855354005, 0.016766993851393654, -0.3149823415014805, -0.165272054769065, -0.4220362433136216, -0.2890068102390766, -0.008535785616959501, 0.2739990471696208, 0.034582196439788264, -0.07051489366689256, 0.2209730603309681, -0.22358559004920897, 0.32494764898735584, -0.17407875658207372, 0.10774780950495517, 0.18882438110602617, 0.2729096281438703, 0.15344560400033277, -0.036614037257663476, -0.3139745332729912, -0.21626572884749348, 0.11315486652334707, 0.16859598844727894, -0.2243758355712174, 0.03367134824160135, 0.3296260584379917, 0.6649871970582819, 0.3907949776398442, 0.17412711418079652, -0.14261457866521238, -0.4688860192871106, -0.18239252684578047, -0.3876638298179445, -0.022903619650290207, -0.2011282447230533, 0.25943939034954355, 0.16987495801672295, 0.09184892819466435, -0.19053200574520782, 0.05869926657505657, 0.008047224573182412, 0.11158750264623743, -0.1035887505372324, -0.24168569418494362, 0.07025132501435283, 0.04037019942319796, -0.0445727627396083, 0.06847675072127066, -0.25804148962841295, -0.47067609607418315, 0.12083368537018166, 0.13367689329636648, 0.06601346122926201, 0.20584999323737055, 0.28252113582614846, -0.019270203622447427, -0.14462228350627124, -0.04997540605206961, -0.09220786273537082, -0.40527285079208863, -0.08189785702735873, -0.23154144720968556, -0.09881609683884411, 0.1581866377420279, 0.0799525002929858, -0.06433970166061127, -0.13535071724274525, -0.012192215299600578, 0.20896810146247286, -0.27765512852366925, 0.1519314827009196, 0.07047967633939631, -0.17563372324222917, -0.01961824994563254, -0.18897287392812717, -0.25236514964100226, -0.04145079829137052, -0.12203389813338471, -0.2579027625649475, 0.22356300350157585, 0.35649687976465366, 0.4182432288741473, 0.0642804227141161, 0.30784962110565456, 0.09723153041520123, 0.0359635140388698, -0.35853747800713504, -0.33552821711747555, -0.51886915789909, -0.13865628736094837, -0.18090771173675022, -0.00046873475488152204, -0.09354596766053237, 0.17311495638707217, 0.08595163400200707, -0.19855505807735765, -0.008111919361437785, 0.05032558528645205, 0.3543837503880396, 0.009438571987887513, -0.20559277803026915, -0.0374341206491213, -0.11332015431538381, -0.1331503215075192, -0.2362592073458632, 0.11974429986886065, -0.026248123970329683, 0.042226794327048456, 0.48841084041115035, -0.02618827410441902, 0.27335342303578847, 0.004489657841957871, 0.003824538132484091, -0.12646544955717667, -0.10001043743335906, -0.19035654245886224, -0.25486788709076397, -0.2528567633389394, -0.05345473269485391, -0.04093675286592886, 0.04990017743975325, 0.33732320595728, -0.07792158081886753, 0.13451150811471269, -0.09222989245623785, -0.2814629749222139, -0.25229980460805335, -0.10571731259566007, 0.06693511970604284, 0.044288687485267854, -0.1505208664902343, 0.03651142762834154, 0.01774973152729525, -0.07039893003648663, 0.11343191226375393, 0.21277934427064932, 0.2611315166784796, 0.11610689617469924, 0.02565533372267907, -0.4033331169157355, 0.21850450442551478, 0.08198540560637599, -0.1785182606747737, -0.22010362852829538, 0.14205517215495084, -0.15676178015663905, -0.1382405367336211, 0.044799929499144325, 0.4784444506507853, 0.11944718906819717, -0.07113587910694096, -0.006387535015623503, 0.3018839946298169, -0.0531542977082187, 0.10886421361799108, -0.05469018196246649, -0.09984043068231267, -0.1653004224499192, -0.3514434490893689, -0.07844077282348892, 0.06222040918041274, 0.3197420850058032, 0.07666501177197504, -0.200596448489867, 0.15465549780669935, 0.03100141065718876, 0.15424478166804964, 0.42424193391350296, 0.22069447626518351, -0.17444488374978168, -0.2677450642026585, 0.07113242565936528, -0.06611188088891776, 0.002181603901136744, 0.12533231483454751, 0.2848271829298613, 0.26671488164948337, -0.3517634833884773, 0.11779626404495573, -0.05408583388304702, -0.17252008874292274, 0.004265651023803162, 0.19788243381585538, -0.21160514708191505, 0.2551056569655214, 0.16995049036366616, 0.17994856618654823, -0.17907305437382345, -0.10464576560537789, 0.05955949983700543, -0.0013047727908647529, -0.0886019266773779, -0.015934974843930624, 0.11439572250041737, -0.014925539294583526, 0.02901742696020499, -0.29422046609859154, -0.04961506258419675, 0.035698165191357184, 0.14399806623194242, -0.020973165304176682, 0.29462277725203884, 0.48866299419926007, 0.033993238330599064, 0.24697025748072532, 0.5098546303526211, 0.25174330656607885, 0.300783846315065, -0.19361035430725718, 0.04165676115613339, 0.06805962886877992, 0.08787222969838795, 0.06703195980615308, -0.0010324184100201075, -0.08692200151986913, 0.25674162731522887, 0.05038523045734405, -0.01766350481861299, 0.1745662449361183, 0.06368464158140788, -0.016605609693211003, -0.09895992754843976, 0.24688967893074254, 0.04258455631365951, -0.072646375785818, -0.29218267522354596, 0.004935996547444637, -0.26580935312488835, 0.14826058936448333, 0.19063056342471166, -0.09649000507800161, 0.029267079373793567, 0.3077167110452077, 0.134282420737723, 0.37854851897787367, -0.012825260076642118, -0.03125106384743051, -0.38877391927032406, 0.12629181191767055, 0.18571903390353017, -0.12888819381333852, -0.11439356441847967, 0.20511775358741746, -0.047889148735729074, -0.05282487175112766, 0.160052674876679, -0.2566556065115479, -0.08783480250511633, -0.32416966889487575, 0.02823611404986022, -0.07261437827089476, -0.12927264572553132, -0.19833414250823647, -0.13841189143959534, -0.13212324802433253, -0.17802067631220828, 0.22109468205172778, 0.06742729388991951, 0.2500096877459548, 0.3912223433950247, 0.216541581374711, 0.1241976182025601, -0.03045472899795447, 0.13668697878337907, 0.037311990014363645, -0.04607704727765266, -0.09260347314011436, 0.17529248700482206, 0.23978166830559888, -0.04178216118008359, -0.023801840845175073, 0.1435877756441322, -0.0397390172045714, 0.16569951493195834, 0.10330662471160454, -0.14734948905040526, -0.1531290334761197, 0.031645590200347455, -0.29789546950264495, -0.2811333173768444, -0.2864760780996664, -0.07341075867875257, -0.17995758063182088, 0.5038868451200994, -0.011046707711566912, 0.00475209715745692, -0.008157449950605732, -0.21774905999981667, 0.03061978911718435, -0.06049461546359399, 0.09360070379037677, 0.12671646518817015, 0.1789466367898574, -0.007550954643792228, 0.10980939849705514, -0.06844880316552092, -0.13931803645538476, -0.011773501183289998, 0.1228202347048663, 0.08539524693952803, 0.02174546825091827, 0.016079420524573902, 0.18700290275381493, -0.3923720194410051, -0.2138479624745441, -0.0041492311024662765, 0.00445812583426184, -0.18977216864579483, 0.20186931067431665, -0.41922808655714017, -0.30492617687063617, -0.20855384189177312, 0.3411516967989998, 0.18199306204361412, -0.09653293221011636, 0.01836367094125117, 0.07261530849468067, 0.15695231149624947, 0.09817256879177903, -0.038935560880394876, 0.11999412823349669, 0.20393278325776412, -0.09805888381626743, -0.003712749836494586, -0.016313578673581793, -0.29669800732663487, -0.21788095110682462, -0.3725629401079116, 0.09983300802860504, 0.005422734950929266, 0.03593766978699069, 0.04945438186412458, 0.22796443767223165, -0.010848587721673837, 0.14629722636863698, -0.3531718037688203, 0.01877753991282778, -0.07310253655349074, 0.07743561001270635, -0.18142734389517642, 0.19652651153738895, 0.16720225768051108, 0.1670425250063069, 0.028840869511655313, 0.11236207036974316, 0.14007885505739376, -0.10479820349342557, -0.2490590882900797, -0.17343590146172336, 0.029200528564341743, -0.002700190728424051, 0.034844053335400055, -0.12821977508547958, 0.12281739911385116, 0.02362953711439131, -0.20366406762647785, 0.006474511615048803, 0.07790046942361886, 0.10290709433007846, 0.0035923668829671274, -0.05812766476305163, -0.2088775415738244, 0.08851288358199991, -0.1746503751673299, 0.17854274768689862, -0.2001187044401791, 0.08406461101459232, -0.027089226517434364, -0.03482492328962879, -0.11272452015013183, 0.24964719658704543, 0.10696207202699044, -0.011942727987887793, 0.21538147142594036, 0.0193992906423596, 0.3906421293228336, 0.1797248214487083, -0.058461657525778664, 0.2403098371884155, 0.015084453883023409, 0.35990512835453753, -0.015551253466048185, 0.05935979294923421, 0.1331937714871441, 0.055217218047033466, 0.16545532965571952, 0.04426337590816976, -0.0545538350635042, -0.24463949355846876, 0.08890536454332916, -0.18230182514485946, -0.27134404825942415, -0.3119109565218829, -0.07175015202920668, 0.10753296486211875, 0.11011083878393078, -0.02880685653606072, 0.18627406509495958, -0.29757675383710663, 0.4702417921480028, -0.2800949693355433, 0.032785626093662014, -0.038525443188957814, -0.13882534129519125, 0.11957329192380865, 0.18689082616708982, -0.030259906860154364, 0.21418870785319336, 0.00920735884684307, -0.20496876227064453, 0.0010316156192079322, -0.003898256772271281, 0.1675882918538695, -0.04368315131490317, -0.04737610933558789, -0.21202291922360533, 0.18352433630793752, 0.04839156385294147, -0.16099014172752224, 0.4389709733729937, -0.3928153925087199, 0.027179048353720047, -0.4008181554022207, 0.03316877876865626, -0.007073642332638751, -0.1300437294347584, -0.2871457805580597, -0.1718588039377777, -0.14013320623542036, -0.2103917324132797, -0.16745660925004363, 0.2536968123994015, 0.06915663634225155, 0.23525931403628225, -0.17480390412166905, -0.08086092942611155, -0.30658060748644245, -0.21200574044120998, -0.03171911328900323, -0.08540846161458883, 0.34485510096942307, -0.014787969042306935, -0.07446251683768486, 0.02167448566574947, -0.1116716671177486, -0.14831471613855088, -0.10392900636693411, 0.1287375262311058, 0.05465755323419203, -0.03985703313985108, 0.09087927946067677, 0.21231288884757954, -0.17770910497742728, -0.03959298372567163, -0.01158993614044659, -0.1592728751352024, 0.07413123369581903, -0.20225006189513348, 0.018094395061461672, -0.04753770911876265, 0.07593391980202983, -0.23950788790512076, -0.0921182431809367, 0.32811764683709005, -0.026238820454343528, 0.01131723538346136, -0.1094172213513332, 0.011522724496654941, 0.0586402481277224, -0.12723282680273396, -0.12368782243278602, -0.10202361769670655, -0.01461784363703044, 0.12850106716272575, -0.21515749009337098, 0.013258005826046554, 0.02469874154849026, -0.03872080131692623, 0.1316039975285554, -0.02467099165184106, -0.04035242606196159, -0.09444827236884096, -0.09786826300083647, -0.059504999568779936, -0.33244513477392923, 0.10611439296683836, -0.05696742196038178, -0.2596612555146641, 0.17153031427534726, -0.1724531329449216, 0.15193817940877807, -0.1310583751762904, 0.16934514440423334, 0.33428421589880153, -0.28143684635997, -0.04523352716910965, 0.1765830516643195, 0.04694815132941007, 0.055158308777322605, 0.15095413405316913, -0.16489560980117848, -0.23085891007540799, -0.12829970407414323, 0.25437748499826196, -0.12583900172432136, 