{"layer0": {"kernels": [[[[0.3882447396812439, 0.07973783830435319, 0.5560206872931496, 1.3009272224380704]], [[0.4412671034078972, -0.09954457359101698, 0.596017686162259, 1.0258046817167246]], [[0.18515201351012073, 0.06856644153094126, 0.4416638527370126, 1.0833274563387827]], [[0.18123115010907018, 0.02795397623138755, 0.3136380868869925, 0.4918212767583893]]], [[[0.3539201550827752, -0.016037089323572576, 0.4795193962693661, 1.0467518536641143]], [[-0.12135083990137074, 0.08546439491624182, 0.582562947022522, 1.0956367343684774]], [[0.4901641332143486, -0.18413527058080145, 0.4315589000929392, 1.0357597883079985]], [[0.27188517832452636, 0.1885576586590713, 0.2373109226083273, 0.5402003890719965]]], [[[0.02117603647196856, -0.24959092093871912, 0.3290973536492669, 1.0965120900303484]], [[0.3248906393872695, 0.14901080470316286, 0.3471904635097944, 1.1151737260004202]], [[0.01597454154752617, -0.17978764885295093, 0.11500622714476214, 1.2073959821508078]], [[-0.01967391258317258, -0.06133288032204308, -0.03277985507118083, 0.5120063203468667]]], [[[-0.10864621651928426, -0.030029387433482876, 0.12976676380697322, 0.8751547032623177]], [[0.039997852268317716, -0.15051818509799358, 0.21259395677254694, 0.8777614762719845]], [[0.060640741001723654, 0.04073891629129711, 0.05448130677852299, 0.4947188147075227]], [[-0.10582807010020218, -0.04626432271602964, -0.1308861967080155, -0.1547854280144184]]]], "biases": [[0.07043120565936423], [0.04956900938541139], [0.3331555945455504], [0.9169456920190812]]}, "layer1": {"kernels": [[[[-0.00995364570200182, -0.055447866885065186, 0.0874908936712605], [0.04292842064994259, -0.08429239277024289, 0.010175361097488459], [-0.019796917446284652, -0.1079890657894412, 0.468627013301779], [-0.1356257620534105, -0.2396957889878253, 1.367520517729567]], [[-0.17502700676881355, -0.08011879813947168, 0.24093064655622562], [0.004881005668819374, -0.1083504667206391, 0.09564000718868619], [-0.11549389043363376, -0.2560773019308237, 0.5307491099174105], [-0.1537885626722669, -0.12512718496325012, 1.4732029208433426]], [[-0.2560751895629485, 0.08589746091984797, 0.16716694732776385], [0.11659223042601985, 0.025040381095407304, 0.0943834593679937], [-0.25796603791385836, -0.006538412487642239, 0.340662079286179], [-0.5474291586325479, -0.11160607737784223, 1.2107576139803977]]], [[[0.21546411250544678, -0.15989650332649924, 0.17516620016404078], [0.08955086914945054, -0.11269396154658293, 0.19544673888584652], [-0.03242571971076025, -0.18132544260128955, 0.5859423666917258], [0.3744498810502018, -0.011583059736105464, 1.480204501106167]], [[-0.10063628839829221, 0.1569039647511302, 0.2795072144720024], [0.08039513242461478, 0.09635528050667136, -0.007593691675584607], [0.009248928492849388, -0.007271789504953352, 0.4488735204485528], [-0.16679723000693275, -0.11743187252345985, 1.465057213997903]], [[-0.1599009279154495, -0.033125251762293015, 0.16438753779137424], [0.1786684179110531, 0.06618749412214596, 0.03660056735485639], [-0.2628099825461584, -0.03171378940139284, 0.2734758798166358], [-0.43915928971873014, -0.10478767712805685, 1.026019715678643]]], [[[0.13598820733221595, -0.024252946651234834, 0.3131834992891543], [-0.10812123927853373, -0.1458205228932341, 0.05033928596012724], [0.09168449881173975, -0.013884282673477789, 0.5750918598915007], [0.4803140793276049, -0.08142893752911222, 1.1491213721785045]], [[-0.1275799974115425, -0.05030393678168361, 0.24136662938291512], [0.16977933270117557, -0.06507287666777271, -0.07114821586750746], [0.00836895294234808, -0.10605308148341079, 0.4476869497583201], [0.05195780614913785, -0.020759625248870008, 0.8762591879197766]], [[-0.06692177156936184, 0.2031462877811029, 0.2760517005191285], [0.015804855552713284, -0.12009713507661209, 0.08726506596408697], [-0.2033800152385118, -0.1794477145417285, 0.37909702216598795], [-0.1908273305076277, 0.2558798266506784, 0.6159121482934103]]]], "biases": [[0.2901306394354606], [0.32806521920177323], [0.3614123309657699]]}, "layer2": {"weights": [[0.007285684688539015, -0.0055392651398234695, -0.008802895020092566, 0.005730394054976183, -0.006897311879812637, -0.006055306181558508, -0.0043432526115732084, -0.00022950259103342256, -0.004124093458085315, -0.013271362857786864, -0.006682365578703919, -0.022101035153627893, 0.002204524095693349, -0.015907512530780207, -0.015375168293967567, -0.003464972411827645, -0.008902681092354547, 0.005594764086226679, -0.014335476071845418, 0.0001347867357961083, -0.00660820161342056, -0.01263027266653249, 0.0024008573760223805, -0.006227408454142693, 0.003777931696152542, 0.0049243158116158035, 0.013190623245754759, 0.009077372024228297, -0.004506166017703012, -0.006573957720075717, 0.008302055327714334, 0.005094663280004399, 0.0031306393184241934, -0.01407989101785964, -0.0002999709405420011, -0.007089315267353826, 0.002422337441593992, -0.0007939897228745889, 0.007820562054965324, 0.0028074551343653382, 0.006772532538224195, -0.0038820926151785567, -0.0083300487265717, -0.0037634130816841657, -0.0010623984013616913, 0.001215210123901976, 0.017528535546274124, -0.004207991561951892, -0.012452247409491777, -0.00631375734839653, -0.01205200872060768, -0.0014753096877258053, -0.01696231130377887, -0.010564254182547979, -0.004493650245679034, -0.001966697981875382, -0.01636584656251788, -0.007790967508338976, -0.015920937950658902, -0.014885369260732268, -0.009404543862054065, 0.0008113708837565602, -0.020328150284570513, 0.0037703370027545664, 0.011911961947929407, -0.025114528248659007, 0.0032905285615283573, 0.0061968572239873366, -0.007420000743574557, -0.003152650369272159, -0.0007968905559595746, -0.002930139351027063, -0.0023815306551322455, -0.014046868575089608, 0.01039634419155701, 0.010014069298442247, -0.006327614972592624, -0.010655029538640943, 0.005237214608240756, -0.004618161987395646, 0.00327282546797061, -0.004118054704941666, 0.004240255872207691, 0.004306388129185454, -0.010091561076198033, -0.01457956776901986, -0.02102736019388342, 0.00048238084548800987, -0.01270591828546309, -0.016487030141628545, -0.010971014539039222, -0.0029828292190515714, -0.032687077589768264, -0.0029247266428593945, 0.0034872615170692474, -0.011927340945669376, -0.0036538567701597225, 0.0018903150888354536, -0.004024611595991435, -0.023465586945065623, 0.018684680889193197, -0.001024929434913651, -0.0035461347304195133, -0.0011089211876287375, 0.00629058925191733, 0.0006453441981451193, -0.016207713513468867, 0.019752382192352785, -0.00045849111283997526, 0.009040820296217862, -0.004638205914754822, 0.014198462844196166, 0.0031033987574078563, 0.008048197634129999, -0.00884011705531129, 0.00981462381674815, 0.006991909315852857, 0.007844381720558803, -0.007557702270344359, -0.010483406500903182, 0.016959322750199287, -0.008968769939045235, -0.008901808526371104, 0.011815223814534651, 0.004268061142363797, 0.0030759969234401834, 0.0011459266378737356, 0.008650766291431444, -0.009068946181868775, 0.023002173198881294, 0.006986349954122407, 0.007790914535460014, 0.014883996021634451, 0.002950573481526802, 0.0016069035815272732, -0.008032012634266245, 0.009279568724727372, 0.0016650482605238956, 0.0011876259287515378, 0.01116276947042916, -0.005388094919717636, -0.004287395232903543, -0.002281651495444867, 0.004828724782438429, 7.918798880038018e-05, -0.0021548825723961655, 0.00073430213386459, -0.000634824163041953, -0.006107924064873458, -0.005882590862505733, -1.627873913670401e-05, -0.00938191913454914, -0.014734698355973113, -0.006839916964997538, -0.002617233272546908, 0.007928418373910489, -0.004064234412374955, 0.01208493752824901, 0.008184838634222718, -0.001216192917091198, 0.013003446324590875, 0.007084908511589586, -0.012458004561211182, 0.01266172802900139, 0.007070951855811958, 0.018119965739418323, 0.004061697402189886, 0.04579231116323459, 0.019498288403680463, 0.0026342932897058255, 0.013430365209163152, -0.009470426635989487, -0.0027043125261021557, -0.002491537294257705, -0.004169588094174393, 0.0011081514059195824, 0.0031302664632779625, 0.0032035063999413904, -0.006368095509536105, -0.01096362553718528, 0.011881216147331628, -0.005683814831420674, -0.004648565909837146, -0.004214487445008411, -0.01548431192969742, -0.0032453095446142825, -0.0047044751777098855, 0.005138945361635095, 0.00367166627859114, 0.0012545223390911593, 0.010826267929986755, 0.002188687183440207, 0.006905357260078303, 0.0073219319959775455, 0.01490100198470127, 0.0022397786640214303, -0.0004744896552014729, 0.006788560527251207, 0.0019081144098028308, -0.008813776162285732, 0.010597769843815342, 0.002011436003365777, 0.0042203414482251365, 0.014703797060574711, 0.009810138908047522, -0.010041868533393727, 0.0029725797863447783, 0.005213892063448144, -0.015145163093011288, -0.005249696873516038, -0.02243835272815472, -0.010201792434600293, -0.007171414117871803, -0.014792594638370113, -0.008681146489345922, -0.01390682936712891, 0.01427498540973966, 0.0016176312804114992, 0.005559029164846361, -0.0003580815308612969, -0.0017088966677130124, -0.010139966799123053, 0.0013452916298281462, -0.0034307832911898485, 0.014160368484710511, 0.015897552682187795, 0.017868524919795507, 0.017756108020858953, 0.001042727252521105, -0.005281538436617184, 0.02207186930808461, 0.0028318115826657963, -0.0165425112720838, 0.005979125744658535, 0.0031218741068583947, -0.000835807327594603, -0.009088834522878292, -0.002753382944400743, -0.007595261314155643, 0.01303744872326609, 0.004072637357021377, 0.0032551056845040397, 0.02241740110516352, 0.006163114731452579, 0.0036848290464879846, -0.0018349625542222088, 0.011346230126699237, 0.013509370658438779, 0.005020795349055586, 0.005197570875760722, -0.01789749861955138, 0.0018544667174806115, -0.000917737804808301, 0.0009908036601818891, 0.008461442535529847, -0.021416642115182113, -0.0033599219275293785, 0.00651695519060726, 0.00031655728549408104, -0.009053367237502465, 0.015680578788443693, 0.005920499894593053, -0.005858166381410016, 0.0095390851236845, 0.007165446873946657, -0.00032224791019831695, 0.009824296163780165, 0.0002525784012775609, -0.0038925714354158696, -0.008100262087088134, 0.0035793027447944404, 0.005418698977792305, 0.015852289250623944, 0.007228852084882259, 0.010473281471929767, 0.006582281856295888, -0.0010913282820737213, 0.003119818359575054, -0.0003499680133644761, 0.0065889432174761585, 0.0034744514641451164, 0.001892969592579175, 0.0016893417311006544, 0.015869372738092205, -0.00376960044699165, -0.018291781822388536, 0.001607281657654272, 0.001371648459037186, -0.004356136098716682, -0.008268060368016862, -0.0035804173386939906, 0.002297823334283561, -0.0038094708520741796, 0.022283557432675707, -0.007441768555668688, -0.006415717874880062, -0.017941018768631464, 0.00015650839620470506, -0.018795424932820548, -0.006345441920451418, -0.005750685277629291, -0.009272304770433141, 0.013869014007082198, 0.00929477488109642, 0.010698672375888004, -0.0005829835479343803, 0.013486441811517733, 0.006655237051662463, 0.014540408306957207, 0.008493325071879476, -0.007180164244223042, -0.005622577154836638, 0.00283114112408704, -0.025197325771957498, 0.004137417703932888, -0.0005487826924573338, -0.003995049129870874, -0.006357936162842006, -0.011353150216052843, -0.0049385367394244855, 0.006648194548491483, 0.010806023260497243, 0.02265034836380923, -0.00036095253689726763, -0.005610950656757437, -0.004376844705889941, -0.008627144155831644, -0.0007390695517612796, 0.00316591974644573, -0.0009388124832162013, 0.00805270118187189, -0.0026238655200568678, -0.007595785296846965, -0.008237205890336633, -0.015276010830412993, -0.02045551226369317, -0.013224999424840957, 0.009098339660466121, 0.004150541330526925, 0.009143828358347093, -0.013357495973235888, -0.021297110929881985, -0.010859507006795414, -0.0009174283672901532, -0.010176383793071498, 0.0006510278951141882, -0.0015220211894071596, -0.0039050495598580907, -0.009527157487817317, -0.012329328779361243, -0.02853823576548016, -0.01268459609603494, -0.0013028227731104807, -0.016195795687487757, 0.0057471978926498316, 0.010580250540249374, -0.023522072465007357, 0.006917994446678875, -0.01930045817790002, 0.0028696662081704382, 0.01044476312870317, 0.000595003971493359, -0.010831574624623782, -0.004713551659984072, -0.0019804331513799747, -0.0015939433041289627, -0.0014825441929019738, -0.000401031067958881, -0.0013809058002934218, -0.010770136194481052, -0.0011099642017709612, 0.005619796715381798, -0.005147363851531494, -0.0035446984152324255, -0.0002598868838932953, -0.026603847173328747, 0.00833861410604146, -0.021102643759365734, -0.005267146763070766, -0.0014448515434290392, -0.01053807255799501, -0.0072702447635782635, -0.00753521175758015, -5.848679280303799e-05, -0.022993953692683006, -0.0013930366078987817, -0.01609897399054698, -0.00819987356847062, 0.01595707661992948, -0.003019778897002518, 0.0008085292143843359, -0.01568464447787351, -0.007571933485116577, 0.0014495456990795742, 0.0028995306403073427, 0.004928189753378593, 0.00013596023596142663, 0.004540576718791122, 0.004020219720076567, -0.015075799103214622, 0.0006659474228030204, 0.00743398943811326, 0.006121225960652499, -0.002202035300957861, -0.006683797761501696, -0.008519838443650923, 0.0001517453385819258, 0.0066821020938333895, -0.01714344859106122, -0.005041671651607168, -0.016547000737847886, 0.004070472677847743, -0.005229399499591397, -0.01400463591395087, -0.004383610462741099, 0.0034238953090820067, -0.01095097092250468, -0.027017473687404793, 0.004642598213329299, 0.0010856246382263983, -0.002550168029612974, -0.00943347797345073, 0.0020924162436631003, 0.002667100934138428, -0.004322976422315237, -0.0025710784806265686, -0.008248317494836073, -0.0017185168553099633, -0.013704293413379942, 0.003447097225024843, -0.008085768188754965, 0.0018844635652126836], [-0.011931934434586648, -0.004989837143422064, -0.0008792947494903543, -0.013959920776597577, 0.001120374439234348, -0.0028180616548568564, -0.014283328690023583, -0.010704939926534335, 0.006452608189717677, 0.008791636999576349, -0.0003777931137362747, 0.006153992659650277, 0.004035010299074308, 0.004167857680526448, 0.015585913031664829, -0.00965407542756597, 0.007646276060950283, 0.0033968697883052673, 0.000417291794551743, -0.0017063708289328722, 0.0010862550482058184, -0.01160784574741848, 0.0003175535604430655, 0.010927015952942695, -0.0036183435920416605, -0.0018146062308072959, -0.012670146066151326, -0.003024588662249583, 0.0029479645074463818, -0.007295378219384669, -0.004721247832092865, 0.0029550806845940413, -0.009326543184057278, 0.0018207727227687583, 0.006753125486280092, 0.01112276234149404, -0.000640542483640025, 0.011755287766946464, 0.0091523369254652, -0.007823014923655006, -0.00989334393486721, -0.0006725106175091256, 0.010380692061332722, 0.000332811699726632, -5.5482615715181634e-05, 0.01609481613619155, 0.0038518995095420156, -0.01101943873176953, 0.007176614046932054, 0.006865550709259259, 0.013718851149501957, 0.010503972515048272, 0.0038454813903366016, 0.003454569455675449, 0.002602260741118666, -0.004468713170087178, 0.0008523892448416744, -0.012106893662629573, 0.0031264414557918316, -0.007963194903459859, -0.010094367010524248, -0.008529018343934436, -0.01765054773941496, 0.0034796110083984482, -0.020032532551942216, -0.010042933863733245, -0.009012342979853566, -0.018786667824990815, -0.02450357407576457, -0.010226947554548251, 0.00021744425867006826, -0.0003198413430736798, -0.007845684271824966, 0.008809709118782585, 0.012408111752394323, 0.0040224435535565605, -0.004551630569890963, 0.011637753594683628, 0.007361807447887841, 0.0077404130886821795, -0.0010125091858182427, -0.023525190893947293, 0.017525972188492257, -0.008653118103728886, -0.0006596178546496359, 0.019485393882446373, 0.0029961551070939066, 0.009936187575061851, -0.010336334911436295, -0.012966450044272772, 0.0025159596768324246, 0.0145262894520729, 0.006954802235068619, -0.0027326867393219463, 0.004432928748108275, 0.008496828535650543, -0.015939330900499916, -0.01187656358335974, -0.021953247460967686, 0.00038259140570441125, -0.003840287462710597, -0.0030922943181117286, -0.0036779893128484763, -0.008147509075462495, -0.011232201799264978, -0.006292812074654019, -0.011035937506890582, -0.00784155965524232, -0.006172390919161377, -0.0025516604753519517, 0.010113963986739216, -0.0015151510764395903, -0.007111641363765879, -0.005723317171372372, 0.007211017299228466, -0.005722877062773395, -0.004953816714981527, -0.005929068546493784, -0.00012283965790837372, -0.004955091092768484, -0.01717546570799883, -0.010919179041286494, -0.018384962957210146, 0.007448079938594365, 0.005237486947193405, -0.0026453075427463318, 0.003383351778860248, -0.0021290281596569893, 0.013379854775389567, 0.0021362166778306885, 0.02765479470200383, 5.32802466018844e-05, 0.007550460125136579, -0.009367922058519896, -0.00011501018243267861, -0.016549752726103935, -0.01635284648005942, -0.029945065449363095, -0.001395253607171833, -0.011705123003753573, -0.040017829476089666, -0.007461833302421933, -0.006876457542064488, -0.017057999923188273, -0.016470502049112757, 0.002051519966228063, 0.0028669791438288663, -0.016797756989316962, 0.0023598791065762626, 0.00671914970482666, -0.0034610315902132674, 0.005358312375136147, -0.0011139631378455186, -0.0050185711804747275, 0.0007522235172777191, -0.008948050259538095, -0.0018923011384310625, 0.001257725494400735, 0.0101381775953158, 0.0017811206809286125, 0.006678813760206007, -0.004042986467049205, 0.01229030973951604, 0.008959925142039436, 0.04340649656915122, 0.012638382367884527, 0.005577389922525585, 0.024614834442142675, -0.0018046845868500204, 0.0059801594598217055, 0.004855287087906678, -0.01880667258846878, -0.003210616179815251, -0.015742281083348058, -0.025661032112048687, -0.0071927562843211714, -0.014801464413362332, -0.00399545807336948, 0.000857806728730212, -0.02952659849848643, 0.0028923603965332017, 0.000583375176159141, 3.714649460923009e-05, 3.4606854225613124e-05, -0.013654230953654959, -0.010885015775312206, -0.010950324680519955, -0.0027325453935826208, -0.017486602074976352, 0.011750548008093664, -0.007326528815566717, -0.002191751348060205, 0.004196439860402747, -0.008805236365426993, 0.006872469495215636, 0.002147209419707723, 0.01864126026282801, 0.02493518512594932, 0.018405239126293767, 0.010281099500237149, 0.04008167401078236, 0.01500264309864815, 0.011978745348669944, 0.015961429884267943, -0.013201444983635699, 2.7495263945681928e-05, -0.007498309632579416, 0.000899382125429481, 0.006580373175027574, -0.02146682913656999, -0.002592522023897238, 0.012023546668752681, -0.02242506495959977, 0.011225084433585157, -0.008545329792306737, -0.007018395802832714, -0.0008267308208498026, -0.00039320578728590583, -0.009689004917463655, -0.008227521434321624, -0.007866267537043057, -0.0059511349836228146, -0.0029261383044292158, 0.01543529333122937, -0.0013667895351185068, -0.00873903088242669, -4.9951335159723735e-05, 0.00025423450371780666, -0.000498448277329804, -0.0008811713783349139, -0.0038437091733046456, 0.015263865950210684, 0.0007294439641468576, 0.00470537338610809, 0.01513377077244991, 0.012109711180651024, 0.019471893119217522, -0.0028863269721036582, 0.007266199790934928, 0.018385189576693568, -0.006149477609110638, -0.00836392950192354, -0.015838128708420676, -0.015002535830551523, -0.011701679927461215, -0.025415485865605374, -0.0275546726306193, -0.012258803833526788, -0.016680024197551744, -0.013215155204105234, -0.009407083195965267, -0.007595123254525647, -0.014520168692781357, -0.003933920246098806, -0.005742200546570598, -0.003593317269555542, 0.006772380493862619, -0.006312711828342838, -0.007792000202367518, -0.004615636918475908, -0.013634049827436379, -0.015285678784285795, -0.0051976660034016905, -0.010602570332024885, -0.01359534752097389, 0.0064028852324210205, -0.000988761319279383, -0.004401360472023376, 0.0008798542273712662, -0.016711224916561837, 0.005407937966837238, -0.007473604301566793, -0.0064769504128157915, -0.0141145697297308, -0.004745633293719119, -0.028722890058627458, -5.097376599886846e-05, -0.01523060874231312, -0.023350967872523356, -0.008838975775985225, -0.010451280679795068, -0.0215043971634018, 0.006168469577224189, -0.0059337843541250246, -0.0020769154542390547, -0.00768727860535106, -0.005975687430709936, 0.0018209325219586932, 0.007277416536355505, -0.002069423311006959, -0.013352834249783096, 0.011753671450893297, -0.011518027338858905, -0.022496698616990284, 0.011096476349589832, -0.011481304719110994, -0.030103589819125632, -0.014035509914003246, -0.0030571413774650087, -0.00910756681878839, -0.010282214443587371, 0.012246112057344738, -0.009255568180834976, -0.01344478172221379, 0.005792108625018464, 0.003034361208827256, -0.009795369020057319, -0.013908911085103785, 0.0028758339881378844, -0.020399015458359, -0.012615064282135642, -0.0018209994459986829, -0.003038103887176105, -0.002916082655517, -0.003224867466134637, 0.0009719382046148754, -0.010382516274710278, 0.01907889911642023, 0.013263900572114863, 0.001667858590303286, 0.005435869461336352, 0.01963859869401729, -0.002671137978470355, -0.002886499655675017, 0.0027423567442267796, 0.01221835562166702, 0.012376179298711308, -0.006507889729994697, -0.0005825563748035879, -0.020885011194071473, -0.012932947799358647, -0.014170947560915316, -0.02714724875179633, 0.0049862638791792905, -0.013125763984986563, -0.017494572653986074, -0.0015010243408032388, 0.006457005007537048, 0.0009095447327382138, 0.02096617673745067, -0.003996069222847509, 0.0015791463775733366, 0.003991439343815465, 0.0122402155379406, 0.007421492522074414, 0.002888086518550554, -0.005260877670543787, 0.004447891486905301, 0.01665913039287257, 2.6892311548274015e-05, 0.014179528985832274, 0.00763499399251749, 0.009384716190356652, 0.00819555702653948, 0.021825827780662336, -0.0108814598905886, 0.0015712927220191942, 0.007689058949185738, 0.0022770397552990596, 0.006495739669765133, -0.004135582418563862, -0.0005422078497299312, -0.00030866968896875143, 0.012057685385858184, 0.005164121422019151, 0.001866248050563331, -0.009931838224919772, 0.00607761307751171, -0.01024366331075588, 0.00707552756470559, 0.015161377972306352, -0.012729663262110495, -0.00542222984627345, -0.008321356503666404, -0.002804846469528935, -0.0025417659595024654, 0.0031191920355842714, 0.0012950693312098278, 0.00037725790118443625, 0.011416914429134355, -0.00371156041588277, 0.008169638200474234, 0.00021450241198027817, 0.011335352242009615, 0.015895373860226495, 0.00015081945686762965, 0.012493583160052894, 0.0043109867489090304, -0.00592544640097789, 0.009617946394765663, 0.002981070850557485, 0.003363314667585333, -0.0003429266482132631, 0.0006250194058822238, -0.009854156686262735, -0.003345665542559567, 0.004874848543798295, 0.007712102873888262, -0.0034368698236406413, 0.0011034587156756289, 0.0021738267197977646, 0.001205904221114564, 0.004494072245647526, -0.015223277233205363, -0.0029649948238239746, 0.001896273050535982, -0.00794906379760602, 0.010943646025860593, 0.0016873365149136193, 0.014345584764117547, -0.009096596994374134, -0.007449210419202116, 0.0028247991396253137, -0.01710061953644289, 0.0016592425005273052, 0.00150980609457132, 0.004704535401072954, 0.005864216960662351, -0.0027409135004922078, -0.012478215406991372, 0.014889187370125451, -0.006085946906244422, -0.00956273495427233, -0.008918267288239506, 0.009716943737863797, -0.004059024058050718, -0.006368934191063559, 0.0011855538701155983, -0.0019285642621313897, -0.005847667090496656, 0.0064051473530999095, 0.008849695894870262], [0.00837512537432403, 0.006516282432526225, 0.003417670976871144, -0.015121661326048388, 0.014183142803457015, 0.0025515581578018274, 0.005270105657062667, 0.009575119380653401, 0.012517663695150796, 0.004060842763667306, 0.004044286847141134, -0.0038082771842905937, 0.001205849974631063, -0.006706739864573527, -0.004034716121602318, -0.006562623848544153, -0.0007094539427187907, 0.011058846303286395, 0.02782092235614893, 0.0021451799690631705, -0.009878708514062987, 0.011200078766122237, -0.0022297450123569536, -0.005044094955282333, 0.0017670194703415711, -0.010462980849475514, 0.0015250304785966546, -0.0009487010364395115, 0.0007877274624157959, 0.002746304119555759, 0.0004239696695310013, 4.505172987059261e-05, 0.0021523251947763965, 0.00344344903309236, -0.008834667990997852, -0.01229757838090597, -0.0005935110570511887, -0.012256972091946408, 0.000627168530510109, 0.007650038319466781, 0.0048759783751270444, -0.009427276356377799, -0.007795022744307999, 0.0023990623189928833, -0.003653918160105374, -0.0025477311460213336, 0.0049799357494956, -0.006758316637160975, -0.002296047308153209, -0.006456179850306271, -0.00535448815669717, -0.005603160282448988, 0.00651481483256339, 0.004563936566859954, -0.005565476632252055, -0.0007887785064336235, -0.010328030647791359, -0.0046482772730773525, 0.01955533764906879, 0.0009697234257536636, 0.0067598337085779114, 8.468445082952073e-05, 0.0026291963050136136, 0.005064340963289088, -0.009725380849505645, -0.0015640011985620897, 0.012451729516258633, -0.007570893490496198, -0.0062010110608661075, -0.003309376518446919, 0.0017308282940049682, 0.0034846803358826823, 0.010524590289422197, 0.004004905485113721, -0.0009950618473253702, 0.009664774809468613, 0.0051281047624159035, -0.014370352111285635, 0.01997640259147622, 0.013778792108435866, -0.0026371867259839124, 0.0026566877441276146, 0.01014582101399699, 0.0004126501705654669, 0.00650643379400028, 0.008506907057616543, -0.005526508575599112, -0.004838335028518378, 0.007323156935200812, 0.006112406483202557, 0.008624902523046641, -0.000761881900644328, -0.0005941005609124907, -0.01549648448968426, -0.008473902689674328, 0.00198507188296525, 0.008007278985247723, 0.005445385414006881, -0.0006652476335932962, -0.0033284628984195223, 0.0009734626799656469, -0.0012788830255627554, 0.009608841852947712, -0.0007642942157832512, -0.015851945034641764, -0.012543031527998825, 0.011472043663318086, -0.012370413244441311, 0.006095404721586625, -0.002643456333646835, -0.0022382099774115264, -0.0023536953996087834, 0.009458109138388512, -0.003429530913144798, -0.0011899671921713855, -0.013988757688189917, 0.0025437457345121443, 0.004850843328499734, 0.001178606448675059, 0.01583701534534454, -7.318599937155088e-05, 0.0011718570390445299, 0.014756641422584182, -0.015602787607054629, -0.005787207901202168, 0.008132116562798802, 0.005290331223398675, 0.0040700160715716185, 0.002202728487293509, 0.0015788087581040462, 0.013270537884673224, 0.0009460276746948649, 0.0023625687581051475, 0.001629107032169745, 0.0021391961362714072, -0.009963922901454238, 0.006215355584891582, -0.0016287856798906522, 0.014167376475055622, -0.0019073700704757078, 0.0018400781539139157, 0.0008408277716617771, -0.006529669710607884, 0.0067848739661013945, 0.01593973421318541, -0.00032610567114848757, -0.003078452568793517, -0.0029911508560113895, -0.016009484426799257, -0.0006234928866548974, 0.004098514018192483, 0.009921851795630186, 0.01415304479253207, -0.0013526237554362245, -0.0016270694880396927, 0.014722473030882805, -0.002931941573483191, -0.005420900079164755, 0.00798991577981528, 0.004163892719875069, -0.0024822213696404347, -0.015142619417218645, -0.022089019080251432, 0.0019603453282346704, -0.017382792094157183, -0.02031173354935751, 0.01101653293501551, -0.00037057968514605914, -0.010843434190315835, -0.011117251180546564, 0.005905505902554495, -0.005546313037615524, 0.012780427858790942, 0.008436319256035938, 0.008032150779280357, 0.005882672133481493, 0.008436848569936404, 0.00939040300315416, -0.0030406303305028025, 0.004386907233499334, 0.006444152001050434, 0.004864902664772092, -0.009960201512430655, -0.0025005596739708946, 0.0035282894025117574, 0.0013302021616284508, 0.02007401691847755, -0.000196232930342232, 0.009492935154217815, 0.010074169947138984, 0.005032402178007988, 0.003148044425768279, -0.009395669981509086, 0.0010464861206473085, -0.00038253299678102446, -0.002821764772326347, -0.010822071861491553, -1.927072694032448e-06, -0.01849074047168123, -0.01778055827273067, -0.0031087105287423617, -0.0032457564346353375, -0.008839162754133427, -0.017892084017627895, 0.016166453751502118, -0.0014384879593566143, -0.0030505472913269827, 0.004766250203064602, 0.006523246173044777, 0.007749815823872702, 0.013478525988129333, 0.0021915381699154383, 0.012214609856117737, -0.009897030448493334, -0.004000943955598825, 0.011736505128007862, 0.009045948087323669, 0.0052620567619952536, -0.0024465441146959486, -0.008049726071594675, -0.02146906223046964, 0.01646682047576483, 0.0022264668643930787, 0.0012807562517315539, 0.015274928567656929, -0.006219200129975813, 0.0011235927417825873, 0.023694291421294828, 0.0018486318444905442, 0.0017207765629204401, -0.02251133627160153, 0.011972529118648573, -0.017117271861970935, 0.0019868110958124554, -0.02450205141891742, 0.006679783252006633, 0.0037074990796497225, -0.013048019081547655, -0.0017413462984782078, -0.00543100801923748, -0.011489007021383474, -0.015220397538916935, -0.021872586741103484, 0.006474181713465579, 0.0020392693498004926, -0.0021627304133347734, 0.015486836638729778, 0.009617649181058244, 0.008776910376117638, -0.005284269364503622, 0.007143067384840296, 0.005314898906361013, 0.0007541218830601914, 0.01335647303878739, 0.0041069531205699, -0.005124084544793979, 0.0031980266734338626, -0.002717348782315123, 0.021360991452938374, 0.0008706456660397571, 0.016819933963475604, 0.010698293653617635, 0.007109047022293181, -0.004946467758482532, -0.01166104475530762, -0.00336477639156865, 0.00039436097903778266, -0.0061179853872766025, -0.011935231879131345, -0.020505070563265372, -0.009231470231800959, -0.009004447365785541, -0.003243747752192462, -0.007986403988810165, 0.0005651771546820701, -0.014071396460850117, -0.004812531247745707, -0.004200893374874073, -0.012487410998759566, 0.008003636255536965, -0.0043759682029926575, 0.0014248157231771972, 0.004451852773065145, -0.007736350601980806, 0.008339035275952979, -0.0032642320040625946, -0.0018415703956417766, 0.00521517442694218, -0.007256102715290352, -0.0022496201820989617, 0.01018762887327262, 0.00025950827512764504, 0.010127867421264562, 0.0046027824859413225, 0.011161452404407931, -0.003262678593050291, 0.010581689611089051, 0.007776622434320265, -0.0005636090855949526, 0.004319001390282869, -0.010337456972327998, 0.014228546757724201, -0.0056700545147399, 0.008595395094022884, -0.006221037633753747, -0.012417630673452478, 0.0009809765029653076, -0.008754426682081845, -0.0017198973781330752, -0.005725113381929362, 0.0020033249926418306, -0.014023606542325385, 0.006585652181439533, 0.004273857722408483, -0.008311592178054683, 0.024224400926010446, 0.005687608793269042, 0.024889616838922317, 0.015497550513615592, -0.000814538879935736, 0.0013937162175733447, -0.002781473444597325, -0.015390460024154949, -0.004482033659475463, 0.0015863503618079495, 0.012529155497106753, -0.007409529890855186, 0.006801770857257231, -0.011378150065874488, -0.0053958935168761015, -0.0029198891338522285, 0.0034689867710284393, 0.007198896885372428, 0.011066045244179073, 0.008294246795123947, 0.007924727915366725, 0.005121923957855394, 0.014708890330849022, -0.0013863268943064874, 0.005774905015788686, -0.015896452590223438, 0.0015107497034558492, -0.005558914301557853, -0.0008022657527342741, 0.005519806143477008, 0.0008718045985375552, 0.0074507819268993325, 0.011010920112646618, 0.00320009030797282, 0.009859305085718615, -0.0020633317075018057, -0.00023645372443337952, -0.005024990285108711, 0.010297585128066264, 0.0033104545569344456, -0.0048803808510650155, 0.0018229976295890433, 0.008654131186993801, -0.0006068924312716974, -0.008303684388836965, 0.0008221265625608211, -0.01711502317474421, 0.006214034547630354, -0.00426958703642502, -0.004720615270118734, 0.007419958559789995, -0.011978652486895619, 0.015751672401490467, -0.002386032683724137, -0.0038079937731479896, 0.008559104667956882, 0.009189822205193692, 0.021834026093938023, -0.001340194447652805, 0.001635146663034989, -0.012077848022659305, -0.0024833169658755503, -0.005310942495088794, -0.0036822569688893577, -0.014703597724572906, 0.013829317943964275, -0.012259686214914977, -0.02398382803605273, -0.010644144042177393, -0.005833830959978865, -0.01044980721813986, 0.008712557206547249, -0.0019181833861168051, -0.0005950028792987325, 0.00472403641648476, 0.002057870342788675, 0.007866840827821873, -0.009692622660272024, -0.00478184651147375, 0.0055311585090971754, -0.021729127291192557, -0.011799410812101898, 0.0041717762813046205, -0.004202027794701835, 0.0075926952787039115, 0.0065238607380067445, -0.010350136894842273, 0.002843391266827198, 0.0095072691964951, 0.0014909547435106095, -0.008876307157747995, 0.006662418258611214, 0.006046731926423331, 0.004215677725432529, 0.005429272676594596, -0.025193562007604118, 0.007029939087542663, 0.014809257419251818, 0.002992027251188867, 0.0008906546999391284, 0.0052931966746788675, 0.0011505310457457078, 0.0045411824352882945, -0.0006681834644202555, -0.008634462691211466, -0.009334008699890697, -0.009042331316800963, -0.01291587905504802, -0.009371118121360367, 0.014686727013415344, 0.006300830755275596, -0.005329152661570328, -0.0034059721545774187, 0.0011448554841024933, -0.005554730401052703, 0.0005664204291864714, 0.006663054462702559], [-0.0003089598115610069, 0.002851953137566972, 0.007542118062036826, -0.002331085441841153, 0.0023923997632033793, -0.002575328434549098, -0.00010446582795389662, -0.0026937066798416245, -0.003992035478128385, 0.0022336403470987975, 0.0052977759280815415, 0.00283017314749472, 0.0055535818126826965, -0.0054638767817663195, -0.007959197893315334, 0.004743520795769348, 0.006549514940707962, 0.0019369004396519063, 0.01291261333643668, 0.009250509859844486, 0.023069142067635634, 0.0020978155449562956, -0.00387012526331248, -0.003575315806164695, 0.001852815594279459, 0.01062162880212105, -0.009792199354629567, 0.017243095323404057, 0.002713707807220864, 0.007320271757464869, -0.006158379425686075, 0.0008826896420792741, 0.0053729593380121045, -0.00018249408989013744, 0.0032585244357243946, -0.003521363657878289, -0.007747102665847231, 0.0045319931968950755, 0.0006319460928558386, 0.0009667180276753369, 0.008357942965916895, -0.009820205336531324, -0.008839727693795752, 0.009315047458196953, -0.01479254769153163, -0.013075950605378733, 0.0050358394953927965, -0.0004752427865824326, -0.0018891113508196673, -0.0039293595230421915, -0.003069451552216028, -0.004715726305293018, 0.007089252085874355, -0.009493262003342518, -0.003243218270483092, 0.01415297479692378, -0.00755552382058235, 0.02328319718102157, 0.004552899776363703, 0.010361256394642459, -0.006104988964741669, 0.008905234232548109, -0.0056973965319787375, 0.01292960039932867, -0.006144851674149813, 0.011057948782994225, -0.0006139805318407195, -0.009227327689669138, -0.009964901839884108, -0.004411881112658965, 0.014411232059356023, -0.002108245143262939, 0.007288528829394048, -0.0009636209037676069, 0.006442088240036202, -0.017900303621482917, -0.005391268554569076, 0.0037840583296838066, -0.006059583064197738, -0.004460267666315105, -0.011298484694125076, 0.00419619623296841, -0.0022042138040923244, -0.007697942801715166, -0.0007555965422301997, -0.0007928248243449038, -0.005569543647267646, 0.00756962888325419, -0.005767943573927263, -0.0042251208553121325, -0.006332423491913787, 4.83567607844148e-05, 0.011270398906424374, -0.002043353416837266, -0.007809372872112631, 0.010635679781786046, 0.00042157804262520727, 0.0011303493146892277, -0.0005767756750548513, -0.0019865229414100394, 0.004311829240745386, -0.01262978585162851, -0.013777977170952919, -0.003537870383857846, -0.022316284018063817, -0.015818165713542894, 0.013058194051798361, -0.00032159987791506, -0.0009199904879104516, 0.009851274738578249, -0.010816127136347452, -0.005568106862352044, 0.0032661392964573543, 0.0012041662113457482, 0.0005686306913992202, -0.023899969302238293, -0.017127429708496286, 0.0019278685735642633, -0.0038248581560820314, 0.014534815892440713, 0.0073412025829256, 0.0053769399084761076, -0.013193445971743803, -0.0011080951200085072, 0.0017999738855191897, 0.007939331944014343, 0.003128387937251065, 0.004281318806056188, -0.013561401618296684, 0.004504181723172536, -0.018968795137311575, -0.015694427605935993, -0.003190780600775922, -0.007495123593128411, -0.021143989339561554, -0.013867928685974066, -0.018569691914115307, -0.00971466027066769, 0.0027641494500546286, -0.006436694059522662, -0.019770570218573327, -0.019268057260614948, 0.0038185555239206954, 0.005187503052901735, -0.015650862833893258, -0.009199635085241608, -0.0071039460432460845, -0.004599257067216333, 0.0025452040643742743, 0.012447340505345333, 0.012402391145963674, 0.007965642643427626, -0.00325284609129129, -0.0014804685569973592, -8.521026480273895e-05, 0.02158747587038756, 0.009443212624969523, 0.00434254625342286, 0.01204964760968586, 0.01180408006678807, -0.008676551005945167, 0.02040784943746556, -0.006920383731736942, -0.010260886400785622, -0.009801942861396611, -0.008931827641701239, -0.011585198561852394, -0.02294996264051835, -0.009506723014437815, 0.004828663292146386, -0.013742443173020487, -0.006362034238928772, 0.003539448507470115, 0.010453222936056071, 3.675781389776851e-05, -0.005088158471421893, 0.0012177066836517915, 0.013807103761755661, -0.013927521718338649, -0.004681333963115763, 0.0021638451737539858, 0.010320951325871327, 0.008989925003497578, 0.0015740537239954154, -0.011855048067739661, 0.012338828048290455, 0.00036065069696031657, -0.0027228555260170478, 0.020715833752130944, 0.001014963488071161, 0.018453575972871422, 0.014805810955493378, 0.011463403852561704, 0.009469113544902702, 0.0008675250230332236, -0.0110671461554799, 0.0038160160270337066, 0.013733316322822943, -0.00035203595807969127, -0.008945475961013201, -0.0007283615306762036, 0.004930994389579896, -0.003976814425409155, 0.012735872879667902, -0.00401526507637468, 0.014450877910768881, 0.012979112118629363, 0.019056355923800415, 0.00017711092652311972, 0.01730422742014823, 0.027006969786591322, 0.010788813714106973, 0.01676130515142626, 0.006817021739953443, 0.001653745427667636, 0.021205189735276114, 0.008374887595020726, -0.0007630443979957058, 0.0019603789136545934, -0.0025731091155793005, 0.010765501587087677, -0.010897319296245139, -0.011350762834289669, 0.014179447071019593, 0.019322925537438272, 0.008221794766667092, 0.005154952527327882, 0.006295492858481183, 0.00047367241437064805, 0.007117285507683475, 0.005185058470318901, 0.006922020573044011, -0.011872970999229654, -0.005059077794183445, 0.00914026012842055, -0.003892794580912594, -0.007108473210018499, 0.028512078803538957, 0.008708978625077128, 0.008690263365431316, -0.004364804091700906, 0.014396577658630026, 0.015452573993810888, 0.004226992404482594, -0.0035232849228263217, 0.009268649870250162, -0.0024441927610451488, -0.004741468806269785, 0.0075334374576293975, -0.008842532622529532, 0.0021115909510196497, 0.004607485506159719, -0.008675047401025869, -0.012938890022567472, 0.009313221799938372, -0.012944046867391352, -0.009198735161485443, -0.008696522807834164, 0.0018210492485723068, -0.0038513922784035883, -0.0038677543580635993, 0.005499500862232967, -4.685479922549915e-05, 0.021383626689301202, 0.03745265507212876, 0.027563562989258474, 0.022749078164636862, 0.02105717640606925, 0.006802754320585676, 0.00015180253978306436, 0.0017595297329054327, -0.0016951397094050083, -0.015540701798192865, -0.0025420589418854796, 0.010938841988071496, -0.00946855162737321, 0.011287211998890944, -0.009464827858060692, -0.010074620062355037, -0.013705703468340125, 0.0180351573216007, -0.0013698536485663537, -0.0022620878012684837, 0.010388921264248275, -0.0007714593841777414, -0.016586977270364928, 0.004815575604429253, -0.008771808813950652, -0.00541493397689744, -0.001826187177752391, 0.004621968993474704, -0.0159637769445862, -0.002797154084068643, -0.017684134943791407, -0.022962691433949838, -0.012133134254433695, -0.013535585510800046, 0.018477953087226242, 0.01517473786269766, 0.012431728882473393, 0.010527116670879006, 0.02983752739637153, 0.02407172045747983, -0.0005721471562442673, 0.0053130373191681984, 0.012365427487691647, 0.0001247257154321181, 0.009469861435092177, -6.22242233372462e-05, 0.008734754217514152, -0.0017737088910081877, 0.00468423290667099, 0.0063180647695683986, 0.020143030698839347, -0.004238335079712131, -0.0013546410358903293, -0.006266893915924028, 0.0012980366069252124, -0.027106385007841315, 0.004744865372744843, -0.014608259981076416, -0.02159930252217999, -0.0066242591195102805, -0.007184560340010073, -0.015575854360677412, -0.0015849360175630134, -0.013816170836613713, -0.01181729959396016, -0.005189659050875305, -0.012749539890310264, -0.013398755570119656, -0.005321130509875566, -0.010952238255447251, -0.0052677169172693685, 0.009335036693232384, 0.0022589262752466988, 0.001975145656706113, -0.0005945564336913912, -0.012638746084581645, 0.0075786521289846216, 0.0041698000385142, 0.01253352830867703, -0.0047094605160884415, 0.00419479740438886, 0.0126427825283832, -0.0003845499193420277, -0.0018153042646954281, -0.008283369362934214, 0.02270007661775869, -0.0065324099351374496, -0.011241600151891936, -0.011092433033188315, -0.010806083291125895, -0.00971217209934836, 0.0012724772026605187, -0.007084485233065823, -0.019525820441920954, -0.016035829414197407, -0.0021936145169382127, -0.007120029790688942, 0.0120382766451062, 4.537927821583332e-05, -0.0032075468008345037, -0.012341993583352742, -0.005109078185180083, -0.010381357907078802, -0.008760989830624883, -0.012797809855258389, -0.004342161697186327, -0.00662132770301728, -0.007048635937072056, -0.02353243156527677, 0.002294005370557826, 0.0017579407434003544, -0.011681355873916898, 0.011769644621293549, -0.01014150002665921, 0.005357198413775967, 0.001638924878407294, -0.01015902337999567, 0.008863770126390376, 0.013766940335857469, -0.00150857240294302, -0.005271636284408707, -0.0007342061731618558, -0.00310579395861509, -0.008100598650909063, -0.008192271352285034, 0.008485045904714128, -0.004347992366994951, -0.007218621538958328, -0.0030278502940232262, -0.011706065933537744, -0.006497762146188036, -0.006294586493111921, -0.012477096599723065, 0.006368913183921614, -0.0026271056995404484, 0.003929576928154426, -0.006356018544532992, -0.0008520691339014633, -0.007848623731854715, 0.005464292505612065, -0.0024600245742616416, -0.0073892818651453375, -0.01451305936263593, 0.001880786088875431, -0.007161480329152094, -0.0009338889457843133, -0.004667209535954744, 0.005296175228837023, 0.0038752330773271088, 0.0032935403616620876, -0.006413695755669678, 0.0031074375081673773, 0.013437758920474305, -0.005855074718587255, 0.0005129575585498475, -0.01530392809898473, 0.012569605465740808, -0.003830612987302959, 0.006088285309284504, -0.015054464292017842, 0.015296065078226877, -0.0031050397729110103, 0.004668983351831031, 0.0014517276461858237, -0.0021735554731932023, 0.014509210502510746, -0.014118485042506469, 0.0024733117194126555, 0.007333808500634608], [-0.0002700948133245613, -0.0010215531336948466, -0.001242701384118528, -0.010578192991498305, 0.00019413329235836512, 0.004079436628607395, -6.659675931124326e-05, -0.0028580263330910513, -0.005477172676988239, -0.004162660292075534, 0.00932594468610417, -0.021083607841050112, -0.0026390311180310958, -0.004946807804033865, 0.00693793664817885, -0.0033248124142549193, 0.00974456268427459, -0.025158261920510624, -0.0016018863343162254, -0.0020602537686519365, 0.001863674103899594, -0.021923353112230433, -0.007614606366874742, -0.012546057683433694, -0.012201146152934085, 0.004374000593168024, -0.015297576795411048, 0.012438918653103096, 0.0055551705367091475, 0.0005783411351746107, 0.002893167314363286, -0.010232842481064744, -0.006681176354071302, 0.004356831581584504, 0.005494190266743296, 0.010307526343685623, -0.004152365673169315, -0.007497704797107269, 0.0069843696217758685, -0.007894677504966053, 0.006531718721908055, 0.008312503478970747, 0.0009795831928917998, -0.00533257874897153, -0.00485769122421978, 0.0003944787198355516, -0.0033687981608992276, 0.011256952887218473, -0.01173139815195681, -0.011089061985266546, -0.012395327426651448, -0.0045419726185200356, -0.018486595381268824, -0.004834911635356393, -0.00468785389190639, 0.0009839941304706364, 0.0018878414784686544, -0.013479907259797443, 0.0050098773530843806, 0.007433575555535701, -0.006903465377858255, 0.009441995078116513, -0.007871130286749548, 0.013395821688457585, 0.006817250183752353, -0.01908393207450984, -0.001856861210066105, 0.007515136362297641, -0.0031647996925209436, -0.0013482734002745087, 0.01017425064874555, -0.007623754215971898, -0.0007310286359239202, 0.0019410888179410366, -0.004621562956501921, -0.0036586690682191606, 0.00382657491662695, -0.0030345108303181196, -0.013609762560878534, -0.014350777407619069, -0.01837729940278181, -0.006202469486319452, -0.0056804815105557845, -0.01662001650307159, -0.003985652150123186, -0.011120906773928907, 0.004740376974965346, 0.010953057005466211, -0.0005633310622887612, 0.01525154261763901, 0.028653572478971354, 0.006935192723989409, 0.036991510549575876, 0.012760251819198954, 0.012284356918719944, 0.02589211466907305, 0.021853842729848895, 0.008229613014757376, 0.008083728401488405, -0.006375347173038198, -0.01034830093907451, -0.004551224946057711, 0.00012385072139899195, -0.009041996485820051, -5.781078823694431e-05, -0.00765203408001648, -0.007902557108786836, -0.006200241026815804, 0.004265899561137072, 0.00652250625540945, -0.0006677390263006418, -0.012836284726089107, 0.002448735769859254, -0.0030023849345562274, -0.0017760423638085857, -0.0075090312637603575, -0.0018304223589158649, 0.006289120901967104, -0.02299813819130299, 0.006241554660768989, -0.006134982127325, 0.0154261777503448, 0.006439892351746326, 0.02006447377960078, 0.008165088267934563, 0.001396290271309763, 0.00663237062144157, 0.014350095141357688, 0.012207615416285462, 0.007007746184766805, 0.011536514651135907, 0.013785269464046172, 0.009267061690537554, 0.01960814039705048, 0.027752536708863944, 0.013720623796424037, 0.0037731676623194285, 0.028718300916229008, 0.011989001301352485, 0.006484697974674504, -0.0046725519608126955, -0.00039759984275921604, -0.007917134197194321, -0.002680631758767522, 0.0009130296928722025, 0.00019452725231330578, -0.0069323760262399725, 0.011010716549844441, -0.013752212843508032, 0.006210320266292554, -0.00841612913588339, 0.009533454543879615, 0.003799468005051967, 0.023683030532787242, 0.013919607283751627, 0.023805011371055635, 0.0039728343084219535, 0.003718835716413369, 0.01597376816916548, 0.004325546831750828, 0.023528877269990308, -0.00039020061326934665, 0.004982772296749776, -0.018284532446593494, -0.017017749094677046, -0.003319309748908041, -0.010555277426070854, 0.0035561590150743902, 0.004411674861627084, 0.021036573487000745, 0.01854985520592134, 0.013864109965541884, 0.014656611462418633, 0.02321357236135248, 0.010087971708543923, 0.006731376266364919, 0.01128102483274214, 0.003526454351720223, 0.013783047133816775, 0.00605258418758327, 0.003289053525225934, 0.0017116637344506585, -0.007778972677658289, -0.0036025561733213133, 0.006730016550240443, -0.0023191227149896914, 0.005863436203574049, 0.020629408100800828, 0.034802294335031334, -0.0009836103253027238, 0.02375830035160972, 0.016463325698733343, 0.0023385505498610903, -0.0002695741347024427, 0.01161282878508962, -0.013440233879772882, 0.0037230132832319456, -0.0050737543404944085, 0.01696963404327945, 0.021149477474471202, 0.02044057095402722, 0.01794325805053743, 0.015516357725072035, 0.009310242804212988, 0.028985266864163917, 0.028939457246048066, 0.029806911829889676, 0.014748104347682273, 0.005398703276586194, 0.023416083753918494, 0.017503776181247602, 0.012810168065364648, 0.006373851875950691, -0.01583361861663305, -0.025319615191326826, -0.013586917533920002, -8.740365574956297e-05, 0.012776170100145423, -0.003387463938453496, 0.008780711370734974, 0.01447980472387378, 0.008322731131041216, 0.005905460475512455, -0.005170707786613856, -0.002443035020421128, 0.007035181759507346, 0.0012420510240091452, 0.003602463470365802, -0.0011188480760716782, 0.005086495518382469, -0.009663497097952507, 0.0034231702670221805, 0.02219718600702787, -0.0010017821174950414, 0.011195157589217658, 0.007478746741255807, 0.018780071000853465, 0.021093135837552908, 0.006886076029774233, 0.01053223272861787, 0.004526365735509495, 0.00957689132598478, 0.006350783450595704, -0.003996218862244015, -0.022133280082827177, -0.008777668138652989, -0.006194393092396068, 0.0035793762802000303, -0.007714711690422107, -0.013820504341630638, -0.013994311889543217, -0.008328359019063414, -0.013998924246325723, 0.009086143484852096, 0.0006116310977691131, -0.012937600747019376, -0.007487565759906737, -0.005215338955689851, -0.0045835222847198836, -0.010730055877425183, -0.0038628120360024274, -0.002968166802895406, -0.004166115509003075, 0.017692159576090716, 0.005634473067623891, -0.005663793454370597, 0.008250454341339626, -0.0016917867219457684, 0.0020448536960578343, 0.0138777924276028, 0.006321434092481041, 0.024478879238816503, 0.004223906039477156, -0.006107977200079817, 0.008511052252881924, 0.011324385340822597, 0.0036002398595865815, -0.01527936194752537, -0.006301816696327721, 0.000645338122241233, -0.022664381906469896, -0.015666176755344104, -0.01830852303771113, -0.012590860330512045, -0.021025769834215367, 0.0071766285071056595, -0.003595676128422323, -0.01553392329439409, -0.009879822961082203, 0.00032408912723627355, -0.0023099034787555837, 0.00915258783412023, 0.002596460697557794, -0.015245130341250456, -0.007032458721447153, 0.007423125709693003, -0.003955881749362263, 0.012696527796027701, -0.012378977700747194, 0.008031668822186408, -0.013770417237709193, -0.01089870777717072, 0.0056221485212981865, -0.010627693315741975, -0.0009206309802236882, -0.005635201561656375, -0.0002865861742309602, -0.013281399307649254, -0.009282726770534901, -0.0035519076263610715, -0.013909401853137349, 0.005010222573272389, -0.015928639708947676, -0.01109329734332497, -0.018419762848245626, -0.02326032008163483, 0.009851373022853929, -0.005971977937169848, -0.006267337527183949, -0.0038511428766993348, 0.006554837951842919, -0.009896690978935422, 0.005051062893751545, -0.008096217667602044, -0.006462515427434433, 0.0036798728341840238, 0.0059315381283782855, -0.00727810610216134, -0.008939601354790267, -0.013381479574940106, 0.006339711733126233, -0.008012277541846783, -0.01768346769928082, 0.004987081628669139, -0.01844356498490901, -0.00315237254760381, -0.01518729589804066, -0.011286829971619585, -0.03160855179777332, -0.015973173839765313, -0.029049911356791084, -0.023343671771979456, 0.0016812869886011436, -0.0025283861028927972, -0.0333713440584304, -0.016062383607689662, -0.008403114905676799, -0.009144301181466804, -0.005810612683050088, -0.007636882897240308, -0.003083671965956263, 0.009645530642925493, -0.002174054912099316, 0.006494771683083859, -0.021583861870186273, -0.007814968409477905, -0.0034863606419397357, -0.004528346469954841, 0.002736804179114468, 0.007102866387702563, 0.003288597440533386, -0.006127594209506904, -0.014894069290034341, 0.0024877492378120036, -0.017366297775655657, 0.002048102422632096, -0.0033821594053836364, -0.01148416128846241, 0.0010682699293875421, -0.0017525666903754895, -0.0022853099725493172, -0.002053369409656125, -0.001020625414406242, 0.004140030230563084, -0.0035519785734572564, 0.004476659947650066, -0.0033645853569203928, 0.006908129350657066, 0.005281012080235391, -0.004543660619508763, -0.009443756219369635, 0.004822258555164655, -0.008286600791906606, -0.007849451902263795, 0.005876558668676776, -0.0009913814540214937, -0.007338844573480329, 0.0033103662930552766, 0.00406369018923211, 0.0018185716402248223, -0.0008048785954426116, 0.008876787733231105, 0.00621224197407648, -0.0014168738706655541, 0.0212721383112852, 0.0020917808811613758, 0.009185809966158039, -0.005089287766875008, -0.012813256988766866, -0.007730585178660978, -0.0028670005909450682, -0.0069769079651801, 0.011261308062830008, -0.0008870174807241866, 0.0033891736692529214, 0.0018977879484700377, -0.0018475816669015872, 0.003685467938010953, 0.018802440358177196, -0.0026055187869322804, 0.010637297804776853, -0.0028964791656006465, 0.0015157504897537115, 0.00670740535685528, 0.010105708983944382, 0.01866829978942072, 0.009557049514713043, 0.0012024073874636954, 0.012291320257760105, 0.008315228989349353, 0.010067284458513516, 0.005276352225710518, -0.0057074877183087395, 0.00971747985783575, 0.008930318138084477, 0.016408418765294242, 0.018111426951713847, -0.008483889640402616, 0.009329954161823018, 0.004096266790102489, -0.003225460983154293, 0.004299584770155899], [0.004275227569665336, -0.0103363197528826, 0.0021476550640867195, -0.0076394102119312635, -0.005397039387986352, -0.0147466842870719, -0.0035903913409001294, -0.0014071350482763756, 0.0054195946188702205, 0.0006025504266853743, -0.012632164268017382, 0.008205590508341519, -0.0004655475732884016, 0.004573243219971033, 0.009467200442798451, 0.012286763636010528, 0.01654701539653587, 0.0008184049150451296, 0.002295422626981909, -0.009810234748999981, 0.009979989707007603, -0.010539801444908863, -0.016157093146584218, 0.008177659376094291, -0.004996852127419681, 0.005627060871835393, 0.004141374870282004, -0.014742098265520837, -0.02405920639529541, -0.010180228361058226, -0.0006347992537179661, -0.010885936043013768, -0.006817567545517585, -0.012693583540034211, 0.0013270553904893574, 0.0003040456908383227, -0.003872395264972823, 0.01209689758368144, 0.013196793604666563, 0.005935102512878825, -0.014368697558852641, -0.0072706191989624705, 0.006212126026337226, -0.003097079818422131, 0.00013116242455962133, 0.011816956609342264, 0.00800114544520494, 0.01689378605882593, 0.000562110083944985, 0.015413269335997116, 0.001387364605577271, 0.014970451957497244, 0.0028553696912903873, -0.003880509989439738, -0.013685197669094859, -0.0022413561628557505, -0.0015832456209646786, 0.00649022688999837, -0.0018583788375086008, -0.0033815516482620556, 0.007058004560080764, -0.004110201229471705, -0.006671840668954486, 0.0022210800789819623, -0.006400564927813717, 0.0013952510819941768, -0.007080663183743041, -0.003172498013777891, -0.002693739474539989, -0.003998798121819296, -0.0004993554132797724, 0.005429668550468371, 0.0042312675702470956, 0.00475813870436142, -0.0039804094363245545, 0.010334077153563034, 0.008248073233158884, 0.013728382686572284, 0.0003925082993778458, 0.0040225028545287905, 0.01477589581616836, 0.0038999069733195437, 0.0058984704807907165, 0.028246676369272642, 0.025121489935797138, 0.01793361514387175, 0.018303451061315895, -0.0033269709650371082, 0.009153438784740724, 0.0024274171423214123, -0.0046416407183295216, -0.0007601445743855632, 0.0062447176710286, -0.0006346810069502743, -0.001818495952248789, 0.012130094286669066, 0.0025800390543884934, 0.0031822089000628105, 0.0027319899720785867, -0.0051016245866594215, -0.011345084894328552, 0.0038005661059877563, -0.00421533445731769, -0.01735337018456175, -0.004091996463225765, -0.009884629898574042, 0.005605285393479221, 0.0030904055546436505, 0.005487363755019713, -0.004583138022975661, 0.008716588616519111, 0.006922411648748972, -0.00018762956814613707, 0.0031484346971362236, 0.01453959637224475, 0.0015606171259067928, 0.012074241100786734, 0.015536060983904169, 0.02193631043291924, 0.021493847635391007, 0.011060384177653947, -0.009633649295758448, -0.005695976434621007, -0.004121191029316509, 0.015150982676857922, -0.0081407941390242, 0.007941755756366006, 0.004083961350205004, 0.0003578835667207501, 0.012657838192485657, 0.01056088849061329, 0.0018233569147020365, 0.01823221519790518, -0.010477943790582346, 0.005145082366619431, 0.014477505206841322, -0.005778785580112492, 0.015638678350218763, -0.00782568829004565, 0.00042758187771877923, -0.013546221830201306, -0.007269801135457601, -0.013275737080249157, -0.0038532455443838925, -0.0022750152578563105, -0.004759845651687312, 0.009706035845638497, -0.0045527301406881136, 0.007498875080941301, 0.019053894397860347, 0.003645020963110409, -0.005179809452726364, -0.00853413908716572, -0.006763300368367872, 0.00570876275423924, -0.002241877235042768, 0.004244959222152627, 0.0038176917096229977, -0.00911680191706208, 0.00023264962354667176, 0.01340602938448711, 0.004502232179613027, 0.0011428369144355426, 0.010964701727861592, 0.013598838889228054, 0.02186785538760487, 0.015660936090722187, 0.006847992065493732, -0.0035228218718527417, 0.014409023970236672, 0.027312415198991354, -0.0023427420148131655, 0.0015376218638808563, 7.564489874440868e-05, 0.010413963899678311, -0.020095393558617846, -0.017722737625076663, 0.0018913450062240317, -0.0014006619758597488, -0.0066708974100428775, -0.0017471308262699589, 0.005140536917823484, -0.0012509767372161553, -0.00846574247357784, -0.007479761324631443, 0.008819495208490243, -0.0064564751351345265, -0.013097613568280944, -0.0038480342161809782, -0.00029418637705899947, 0.007583219981258147, -0.00445432598951419, -0.008376144794800373, 0.001849078602578849, 0.0012289085280398908, 0.00018799569599802006, 0.0007072508488273944, 0.004066377553166842, 0.006199555011981211, 0.00758422624068447, 0.005124482313844957, 0.004224907519660114, 0.004943802764352835, 0.02346195346821025, 0.012184929660387655, 0.017796323405391647, 0.008654913088204144, -0.009428653522263793, 0.00984522415862429, -0.0006621764677643984, 0.007448509510146694, 0.00229395271546346, 0.011460479077615226, -0.004699130900533074, 0.00616555009530705, 0.0017339511101551518, -0.004166051261132513, -0.0010769013274676128, -0.010787956919597042, -0.013456255867526185, 0.0005273997388212069, 0.006306075317239315, 0.0012408873876371095, -0.000669118922683796, 0.00031580063361486823, -0.011422625357788891, -0.007855382489555167, -0.0026439190991624038, 0.0013436674998423262, -0.003480461700518765, 0.007138203798151269, -0.009672842410751276, -0.003438063963531833, 0.0013472554911564043, 0.011864121164867247, 0.0038904586089923356, -0.003488099560940904, 0.015576614284184822, 0.019931785470812542, 0.018257051834520487, 0.014492768762925075, -0.007753727744914737, 0.003432724623490976, 0.005783468262390371, 0.00015793273995489855, 0.0075472147192837515, -0.012600267699172045, -0.0026640540133975885, -0.015413379846824029, -0.018884193118445802, 0.001041721766709667, 0.0024724292118691953, 0.0030612056011509094, 0.00044954075070775216, -0.010549389071331223, 0.009214952398797317, -0.0004542414414516299, 0.019784303715408704, 0.004972466330882327, -0.020655688278443295, 0.0038143923348441552, -0.01827286118081554, -0.012841706229417157, -0.011421838663359996, -0.006362095003314273, -0.0015577674590716438, -0.01726027675030274, -0.014460796779752955, 0.0005668475373393852, -0.004808560811054989, 0.00035891192973090035, -0.019565632207102227, -0.005819963044212717, -0.00039914100594375416, -0.00043180413546216556, 0.013747081774691262, -0.000502747436416136, -0.0017404432184875802, 0.009821862513279376, 0.008813582408871477, -0.004637166902743245, 0.021697315917269134, 0.013853815210560484, -0.007695608207553403, 0.002235857425206194, -0.007596645088473434, -0.015267024894230518, 0.0008383968995935391, 0.007819136276878642, 0.018320771285658437, -0.0037183030532177462, 0.013835694928416421, 0.012771427569485747, 0.008797940840183345, 0.005153140918313425, 0.006179756551834441, 0.021347108095784172, -0.00016255148504329338, -0.005663302668927394, -0.010894015516223387, -0.005596708767613002, 0.0008972136160855069, -0.010787129421701574, -0.017016715301476547, -0.007813643274263971, -0.017693316426541397, -0.00303684479795062, -0.018062673575908045, -0.006123535562601826, 0.008935456275287376, 0.007699766411790347, 0.00303823784185546, -0.008139330983073885, 0.00580879210639134, 0.01961310114534262, -0.0018403460821066002, -0.013405900633517749, -0.001791549407483595, 0.00457721549565903, 0.003673678293829448, 0.011794350937805557, -0.0012608077650804281, -0.013368678189832766, -0.008610319134216147, 0.008405830032674269, 0.0023570922349674156, 0.00804247527037111, 0.006189872719605665, 0.00022311786613714508, 0.0022722251373963804, 0.016462517322476743, 0.004252365072547594, 0.0005219129590629773, 0.0004929434486837955, -0.0009052946831758175, -0.0221879576786185, -0.002382623434139159, 0.009301941621998025, -0.02068705269294873, 0.003078235659913018, -0.008560712776260224, -0.014957201514883434, 0.0044943618049350246, -0.008931368198878131, 0.00139599261621447, -0.00870438428325666, -0.0054095217903540735, -0.004208510634721696, 0.009838082414983294, 0.001013129904123534, -0.007104298263585062, 0.001117328654804299, -0.004367780783850984, 0.011344408981957951, -0.00262823550592808, 0.0007564050969029038, -0.0036712960267278904, 0.0028192269451186905, -0.001980390898286336, 0.0005930100800252121, -0.02119073641610796, 0.001569152214928504, 0.004556020711142542, 0.0001522073626905156, 0.0074470211303408725, 0.006827407709859572, 0.012565128119213457, 0.003002284886136031, -0.01848493774413439, -0.01979511522183448, -0.012352686832854839, -0.006094491240208733, -0.003199187120828213, 0.0028569213580115723, -0.014570888096162539, -0.007384352030599411, 0.005796814463364018, -0.0016712507657852332, -0.0012533985594091806, 0.001646768674865656, 0.001875217284362487, 0.006539302717160883, -0.007106440481244682, -0.005005845979064609, -0.008488243403543485, -0.0019341107032974274, 0.007553096639750774, 0.005061215979635591, -0.008378473744136302, 0.0030363975967374877, 0.00014736746820047375, -0.00426269524890521, -0.01440579637531644, -0.002024425916057488, 0.005590795480187175, -0.01989249042163503, -0.0029541386915294954, 0.01950706669831233, 0.006591919278965585, 0.003677697722008552, -0.005070666587604409, -0.0032861101177255264, 0.0023400496015587545, 0.016202185828584254, 0.008104377458349328, -0.0028571494536570943, 0.014007800581985646, 0.0029313565644859783, 0.020397954035034804, 0.00046197121541630777, -0.0010681069232314833, 0.008623956019630369, 0.01430675828886143, 0.019187371050485933, 0.008026943862426257, -0.003239632116400231, 0.006157276989495055, -0.012501065313735888, -0.004271848858590172, 0.005242224246916199, 0.005598657470017134, -0.0010036527016448844, 0.001749500273122503, -0.002810051943365291, 0.007066141368211563, -0.008030592043572704, 0.007109536648448411, 0.016803570338439645, 0.0033479599859779553, -0.004578287007175233, -0.004577774396153778, 0.009899999963950317], [-0.009600934204391521, -0.008133105758172408, -0.009946144995748108, -0.010999244997518528, -0.008990089886418246, 0.0063828548645247715, 0.009040055462508606, -0.0061196393257991625, 0.0009109674193053369, 0.005905555394208465, 0.0005140652036794331, -0.009122073687400561, -0.013065395821708318, 0.008203489433940215, 0.0034270769811330587, 0.004638986937178524, -0.009538944717860626, 0.0009697157460366564, 0.004486544634379689, 0.002201966187872441, -0.009663735498799694, 0.005708994557492593, -0.015077872276371128, 0.0011427470994253297, 0.004620896970920493, 0.010012329507916527, -0.012015714146082655, -0.012628000137882229, 0.004112274223933524, -0.01388542036998184, -0.0016130836577745522, -0.0037500663822030993, -0.01151978963243467, 0.002196884821624311, -0.01205339309693609, 0.004046055105712383, -0.008376900450354073, -0.01488261109467195, -0.000724537668165476, 0.0029772202033547315, 0.004333538032060718, 0.005484757180736529, -0.021591972105476, -0.00966668711046772, -0.002308525306727808, 0.010515162656601216, 0.005069136810216015, 0.011705494657055285, -0.0065976256010765585, 0.0013269479625209193, -0.013576013259761268, -0.003737868063163914, -0.005354760804358127, -0.008278859147781956, -0.002985837943075553, 0.0012595774782156828, -0.0027206766959089737, 0.0024251658712883283, -0.0004670423463117271, -0.009324983206830008, -0.010175796080718806, -0.007074442812802958, -0.01605209415293001, -0.0016261914865137333, 0.0036796191441502276, -0.0011034484617654667, -0.009560793207440653, 0.002540816792058963, -0.017781745430408336, 0.002261440440717298, 0.00884560403098396, -0.003268918785062756, 0.008629484516091225, -0.01014631118008318, -0.008511635303106183, -0.0029256165659746385, 0.007319024469915262, -0.007138180967807515, -0.007395983267071234, -0.010982056439777696, -0.005172866682300044, 0.005533078623375735, 0.002537427178161826, -0.004317006209241781, -0.00629049160608366, -0.006865466391557894, -0.005356080650144724, -0.0017612672565287739, -0.0009387289099765124, 0.0003909019481595664, -0.0013132408396741646, -0.005999112635771378, 0.005227379666155686, 0.00010600945464761417, -0.00946492561220753, -0.012029916552290078, -0.002326890152290909, 0.01738264130325168, -0.011436460711137322, -0.006816522787832796, 0.010731258630528413, -0.009628567471378817, -0.014427004509949633, -0.014361532627860472, 0.005449171140845456, 0.0046810430799181105, 0.006632853298186528, -0.0029741511683496766, -0.006789043657640874, -0.0023717510721202777, -8.551659532523857e-05, -0.00865543849160038, 0.003675030317266078, -0.013542873197488078, -0.005025651053132485, -0.003469535837949197, -0.008866758018444184, -0.020973468079168195, 0.0022040513734433525, -0.009910293920105813, 0.01095687916137379, -0.0024275906144949266, -0.005760463613045977, 0.0026028779422866957, 0.010168865966827347, -0.0017519685278447764, 0.009992588609680492, 0.012411133998652662, 0.012183609707828962, 0.01571317755177335, 0.011685339557261623, 0.01634440662556805, 0.01482808519855657, 0.0026163283693548312, -0.0051178753601399, -0.020787529198514024, -0.011547496570880618, -0.010067224302101838, -0.005028742276437822, -0.0018119891794422666, -0.013394108055860585, -0.014445437410570071, -0.0013792045056972282, -0.004001019868332887, -0.007107129722702154, -0.006518556027920328, -0.008403299064781865, -0.0035119339954616004, -0.007469950851120536, 0.011232316009223465, 0.002290375194851253, -0.008475492656697123, 0.00017681165707651142, -0.009062171907436802, 0.009278053824170091, 0.014053125197455397, 0.012823631540689351, -0.007641397885115953, 0.0027277535293797617, -0.0020365553127820214, 0.005145986116250289, -0.00395888867349287, -0.005257687904203698, -0.004369427682379691, 0.006927041416174682, 0.010016888615305464, -0.0005152275084910703, 0.014497515755025728, 0.010965949966447022, 0.0012282903562651755, -0.007767669363670556, -0.010790461202097307, 0.005261570741696701, -0.00993243258608268, -0.016478324688855156, 0.004687567037489952, -0.004237971973570449, -0.01226309833454727, 0.010076789153631228, 0.006209163863043182, 0.0012469736037080833, -0.0108062561505145, -0.01169358350592667, -0.0021741277637153124, -0.014350360298012907, 0.004615111994974433, -0.011352174073007017, 0.001702291583564119, -0.001407172309774956, 0.006933253438136211, -0.006941103248234204, 0.0001144513822512474, -0.011333859493566238, 0.00790884389750303, -0.004502501376029868, 0.0024328873620276677, -0.013204728611012491, 0.0012638871891263114, -0.0003651808102315729, -8.163515946020913e-05, 0.0009292856130226333, -0.0009660032024999158, 0.010769151282068797, -0.00012227148716102227, -0.005959542387323508, 0.00028899492970484126, -0.012619634250709744, -0.007342510382402075, -0.0029782808061600777, -0.012918087536181969, -0.0005291477284456804, 0.015610734160858682, 2.324521367692308e-05, 0.009882228761011923, -0.0037593878383668467, -0.002972971495183615, -0.0029965910313732866, 0.007438111353292966, -0.017776698956049993, -0.0074172194600871525, 0.001952501167268659, 0.0001663242624844556, 0.019764082866028654, 0.006245299883936327, -0.0028195164873255772, -0.00978620168971873, 0.0005111238653831266, -0.010349451852252332, 0.006966693403809421, 0.004397008388892981, 0.004058315991625837, 0.018084189430649687, -0.007964557247192418, -0.0006037449087734964, -0.012628479031088446, -0.002945208599332871, 0.009993037751173574, 0.0035175828741913647, -0.0019519149157061835, -0.004096675007098063, -0.013595289898598862, -0.00506194268470065, -0.011679376832504052, -0.0037690973886151404, -0.015437967900235664, -0.008101917161381846, 0.002221611893658915, -0.003115448072719062, 0.0001763154257651133, -0.009391779691433089, -0.010737229677533147, 0.008345779597272942, -0.005356923113868408, 0.00017444206626100276, 0.007845560376088814, 0.001025993795389438, -0.02179766860366571, 0.002130091823461576, 0.0017643538571259527, 0.003043094172185993, 0.014009850293228524, -0.0064767110392069385, 0.008183946250925767, 0.020864999374767965, 0.00042408421911386434, 0.008714877858738142, 0.016095199671470224, 0.005261920484595403, -0.0033650694861033924, -2.076505110812154e-05, 0.00997265736321338, 0.007660426908750999, -0.0017555669276257365, -0.006299181185432939, -0.008194660778912958, 0.015973928055644585, -0.0013334310375289686, 0.019695414217712225, -0.0006471258482840395, 0.003066004087986232, 0.002080795283384077, 0.008347823259041683, -0.00349775966655165, 0.0212352267500485, 0.010390245623828646, 0.00040409828942344184, 0.00628043621535398, 0.0228458312631653, -0.008289691663091197, 0.0050714612855648706, -0.005648356424251741, -0.002009744425507176, -0.00212580055016808, 0.008737199698474727, -0.0041172774866217385, 0.006531259783455865, 0.0019581518334533016, -0.0015820068570624585, -0.005214530421206327, -0.0036869574706104983, -0.011180492486808745, 0.009727262387446456, 0.0019635134034439415, 0.0023699036967691346, 0.010658825354127977, -0.008250779849676723, -0.00456481306528873, 0.004566399821937626, -0.010695869887774167, -0.002046129447110618, -0.00557430771134596, 0.004464443600929816, -0.00445111620960732, 0.016818592042182355, 0.005688480055807936, -0.006548694323158041, -0.002784122930080037, 0.0013677751569974427, 0.03352402953042813, -0.009015103794277796, 0.014809779355293623, -0.011648584150943768, 0.003857594983364835, 0.0290052251031529, -0.003305668047610452, 0.009542175845534623, -0.000304045028440768, -0.0023596228532232182, -0.0010408699510491145, -0.004179088769585901, -0.0028869362561319816, -0.008900611410445822, 0.013198506413270679, -0.002296905739232903, 0.004101805514916395, -0.009596762461951222, 0.006946914721157881, -0.0038429770198279787, -0.007527019792726906, -0.020169600739874716, -4.440848019537891e-05, 0.0055813692326038946, -0.011902077681817806, -0.007142740447697307, -0.02077269772419602, -0.004158408718290657, -0.002425337493054487, -0.007749287232170847, -0.000401847339761926, -0.009354178199751307, -0.009712973609015779, -0.00475495888568241, -0.00959908446547217, -0.005628711930363677, 0.03411891595044323, 0.022008234935953025, 0.004043078921777608, 0.017608682493972443, 0.001934262013922279, 0.00475743749431179, -0.016569366352613777, -0.008161250992811323, -0.006606353134224322, 0.0010574809088536334, 0.00023063830583597186, -0.005055118996975392, -0.005373004487725294, -0.0016156288685034172, -0.014109795764382432, -0.0076772503867854, -0.004984693589931167, -0.017015564211151732, -0.007701042456311104, -0.010876476062237551, 0.0010124132121663743, -0.008549733036892215, -0.0067551392650717626, -0.00860255537624082, -0.0030179381725300054, -0.020455266240056256, -0.01913806006598261, -0.015483612127578079, -0.006040623406231423, -0.02176061948679333, -0.004171868778918192, -0.011039326897435267, -0.017942721006746626, -0.007509131770716838, 0.008605334490033378, -0.004427057691045549, 0.00286705659185855, -0.0016563916599401781, -0.005824030695852147, 0.005389974207862642, 0.00740483219599248, 0.0006376727804226607, 0.009655224317648663, 0.010792792932155265, -0.01424371241678185, 0.0033957934608844324, -0.0005799762282715428, 0.0027690339913805286, 0.008341314879431237, -0.00874611223112421, -0.016012744469281158, 0.006416722186430078, -0.010912099903136668, -0.01101673682948812, -0.0029947882977843414, -0.00976264298110315, -0.021257772054047924, -0.005534228976476589, -0.01136532376239615, -0.004728855053387872, -0.010798342788203519, -0.010708816086567735, -0.013710916138749024, 0.003040399411428711, 0.0038691667416765837, -0.021258952981879017, 0.02004312871177047, -0.004737045735090594, -0.0184348588439538, 0.005948094810215012, -0.0036444011234254632, 0.013691957642236666, 0.0066715632525133324, -0.001693966214585334, 0.011321143448221431, 0.007153400917883145, -0.01035713482410484, 0.00717228078763791], [-0.0043766837259277885, -0.0006918144448302184, 0.0011280509645490034, -0.0073324834876243505, -0.011184998426582743, 0.003312295832339158, -0.011174841321030787, -0.021284064987305996, -0.00604091594743591, 0.004587297321447176, -0.0007641767037005329, 0.014058096401364403, 0.005113604049249345, -0.003703728751415649, 0.0026240226936972253, -0.007218140753816298, 0.013226728429553096, -0.0036053407548244563, -0.0030541690000456343, 0.0025412031431787203, 0.007126949230745478, -0.010591902378201666, -0.006263592176644567, 0.005475135195192908, 0.008080104434832149, 0.0012734723758886315, -0.003133015238960574, -0.016871397749008366, -0.008057116325078714, -0.001978358619036085, 0.006286108911882012, 0.005595239254788855, -0.0038887095560685247, 0.008943000651026873, 0.02377830509705096, -0.007204232261907675, -0.006321073586785005, 0.013081356870369902, 0.00227230281562469, 0.0018731790823674898, 0.004183655985989149, -0.004186680526351126, -0.006207479521802605, -0.004239429048816376, 0.014729774647650176, -0.006964914845230127, 0.008967349549561857, 0.003611320563844915, 0.005534227325638835, 0.01443023664452368, 0.018272144914990684, 0.01488765656831813, -0.003510051381226968, 0.027005105141024815, 0.02517143711831449, 0.014397075229286701, 0.017546627675154913, 0.025026463675926366, 0.01630290540300534, 0.013046479751155677, -0.001700123646310745, -0.0016503793869796254, 0.011042243900162972, 0.003048085431468962, -0.019027490813140223, -0.005087504105625668, 0.00011212198114062554, -0.018649883958252747, -0.012000808971902125, -0.019892150779495334, -0.0019987838396403564, -0.026053007561436185, -0.005393640641357867, -0.0048218477939096826, -0.005138789784314758, 0.014282079480612617, 0.006158890896661766, 0.0001448316968402745, -0.004118757766145334, 0.0012315267202428232, -0.0024874298732446695, 0.014000700970555174, 0.022169251455539045, 0.016577436079079015, 0.011169639149429067, 0.00687117228883312, 0.0020969410749127164, 0.0276554806769425, 0.008500068582328409, 0.023602865586666636, 0.009683894151557642, 0.014419720315362847, 0.010507904814239457, 0.018546522843898922, 0.002773446786509601, 0.03762901925642975, 0.009975610841304258, 0.009589365832905837, 0.01144399920435138, -0.0127552858136386, -0.002846418439595936, 0.011712944486348463, -0.009521679141688314, -0.017038390479593185, -0.0311933880710277, -0.014655203876799519, -0.020801440543047917, -0.008854952159219193, 0.006711825937889826, -0.007461615750131938, 0.006020092393325167, -0.004169404789627412, -0.00020266372036338535, 0.006736252089364163, -0.00366178804136491, 0.002546801562834003, -0.00895654067114885, -1.0582927680514022e-05, -0.0032144658481300047, -0.012407013575752466, -0.017355416709287787, -0.019685621889897722, 0.0008193606395229978, 0.0007374733054504895, 0.0018496081941682548, -0.013184904080940668, 0.019131768891508017, 0.015193934437604898, 0.01088447474559777, 0.024401627480153665, 0.008820303034799968, 0.0066991217778336115, -0.002043190210858836, 0.01586431391032941, 0.016899198068495203, 0.012325381536341983, 0.0016871612479646568, 0.010049646102105143, 0.012596945151468242, 0.007043721894772631, -0.014006344048733863, -0.00412756312973945, -0.0006401857883870825, -0.008549151559230238, -0.00048588363791817444, -0.005268791580984748, -0.0014714329871277129, -0.007837855075361711, 0.010790914761793537, 0.006640975353818441, -0.010732040084035973, -0.004612668352502436, -0.009263406534268648, -0.003393517325943994, -0.003883153779722315, -0.009029429025300715, -0.010364656575092012, -0.009988943325524762, -0.018681759314907804, -0.012972196493955163, -0.011138239842191465, -0.038167556169346216, -0.020838132515481285, -0.0036721869403005354, -0.022865148166293963, 0.0017254871261133732, 0.013680623794079114, 0.002971065216916694, 0.00816736096191817, 0.0018930665902128145, 0.012706045522988468, 0.023904831654523697, -0.007445902322848386, 0.012756006706494379, -0.0177970229034115, -0.0010173103582263253, -0.0024378603053222233, -0.004877217056784639, -0.001273483710503748, -0.01139578452671266, -0.00952048929590934, 0.014003730235177054, -0.00647429110838515, 0.0015938273690166264, -0.011744288534178962, 0.0025712047092639875, 0.001630566525272371, -0.006225256481423662, -0.02764112413488457, -0.011220932605478618, -0.008098494463857466, -0.01945478415663049, -0.019369797614039782, -0.02087515997060635, -0.02194782111144014, -0.008998528081744627, -0.00690566535881325, -0.010997421650926929, -0.021046887556860214, 0.0024143066481315378, -0.027813202875428364, -0.011573738589383289, -0.011220660163012876, -0.012411906293616572, -0.01105850515221684, -0.00146183999146657, 0.01164720905887332, 0.020145377259996225, 0.007995407476129835, 0.01911766148795921, 0.003261058460631319, -0.004727896799248559, 0.009258402506925303, -0.0049440803325810165, -0.0025027625173237363, 0.004920050823392474, 0.007491822953813193, -0.002008371167705088, 0.011542935229868889, -0.006091984553451386, 0.005015242708525042, -0.0029918996366538005, 0.012885484092670403, 0.0027048005977909203, -0.019827599598766992, 0.013755007761044828, 0.005092809302856482, -0.0026186857185168874, 0.018893766961145055, 0.003959569837995347, 0.01984355196606487, -0.0014097431886772312, -0.0063819952010362785, 0.02943090083585881, -0.01310416779190319, -0.012087726143415183, -0.023125324896702756, 0.004559307944801653, -0.0032909904180519365, -0.009472490300287427, 0.010245488782093783, -0.009756402337892125, -0.00048764467702503214, 0.0032495971495688633, -0.008021802853473786, 0.008988945202599697, 0.0021619738013483746, 0.001825751164779628, -0.0003308671422043825, -0.0026149215801701577, 0.003645009258007961, 0.03523267567779545, 0.006911040676802183, 0.015743153094801073, 0.0012627037138245997, -0.000152011745731509, 0.007313832113240052, -0.0006433879021530576, -0.010358869070128597, 0.0144984060444041, 0.01331532454820532, 0.016709263332193188, 0.010719364946075886, 0.024589686414020203, 0.007399405938902113, 0.0016355345034031541, -0.013342491127163618, -0.001771035823575435, 0.004228439690316443, -0.005610900287140366, -0.0014456362187508676, 0.01221466970077317, -0.023600532758330482, 0.006188247171800346, -0.01541268935308891, 0.002155988422002145, 0.007102736700857209, 0.004126301013341624, 0.0032865042272644794, 0.0047103265472807345, 0.005310708098403956, 0.0006060004948209956, 0.004578159266461485, -0.0028023296729764043, 0.007884085914892317, 0.0010976245206483803, 0.013663625578040033, 0.009975226548446917, 0.004389329559694873, -0.014613411013808787, -0.003480291689969239, 0.0178416720903891, 0.0013702727960894334, 0.011911919033909106, 0.008996026715042627, 0.021636543175778525, 0.013256134935980032, 0.018394734761255156, 0.006430060372045763, 0.005701652477366934, -0.005657704393419544, 0.0141522010584238, 0.005698022719406714, -0.0010864744308625189, 0.001816729546176674, 0.003424884366192591, -0.005970687004555662, 0.012746390752339706, -0.016725179622540696, 0.008277372432918526, 0.021236862241387287, 0.003750850074339826, 0.012784861647185062, 0.017200392482439226, 0.008273588596443063, -0.00340279612841749, 0.0014730514049167286, 0.010941467961852153, 0.016524954481260106, 0.015188201823181632, 0.02140936271667003, 0.007290852013107881, 0.0066099723055607195, -0.001499271167663344, 0.005998460914140758, 0.008009727318255954, 0.0014681292793557398, 0.014861411256725845, -0.007843145595249104, 0.02222065555506153, 0.014248455951345752, 0.02835136282991731, 0.026480778557594196, 0.023217328075820196, 0.017902931001142666, 0.017414153743229594, 0.00043739323275766737, 0.00681887434858521, 0.03198729244094695, -0.005621261026549874, 0.0017890413843819485, -0.0007608482161522784, 0.014985012430632178, -0.0022590873172454876, 0.01910309046160173, 0.0008927994195448131, -0.00010453933364225535, 0.016736665867429654, 0.015744622455043576, -0.015294801518712696, 0.01068619347680607, 0.013595269703559261, 0.010151721063983257, 0.0033524459972696734, 0.007270283104843615, 0.0027833048919083878, 0.012361764078969514, 0.0025086914523540144, -0.0022613235091672127, 0.008910390987450896, 0.00881305255350195, 0.004063567949988059, -0.0009374977164198923, 0.008699066936691266, 0.013792929909625893, 0.023681302563070765, 0.019055970797583775, 0.01213354768038451, 0.004921484919931146, -0.0010173844897272322, 0.007907656762123958, 0.00412018913450059, 0.00429949628897117, 0.007837462235507478, 0.013892696672941181, 0.0027008508309576532, -0.007311578442246004, 0.010556009060010701, 0.0061822794923514415, -0.006574072439662348, 0.00016093545915407966, 0.019001590810118325, -0.002929798072272553, -0.0035018973843886597, 0.003000385820759458, 0.009668714702386373, -0.013597388816168546, -0.004971271338513601, 0.004338206775580541, 0.013894242490120392, 0.004346176640076534, -0.011651917979609839, -0.0009789218447099524, -0.004873916373523341, 0.004512845518012169, -0.0026772426227590087, -0.005267860478713952, 0.0096094794884667, 0.012457395184732734, -0.0020561532444169765, 0.004659617109959368, -0.013148217584215527, 0.003861648243634318, 0.011673272086541632, 0.009266119884197337, 0.0036536365015839706, -0.001415083826327115, 0.0013536243202961298, 0.0010436169997442967, -0.011918275942650575, 0.02066222611045503, 0.0038772736056209836, -0.0030007603646536847, -0.004425262423391435, -0.006565352848071101, 0.0008561020343979874, -0.0005233542931246511, -0.014218161957439206, -0.013884835855470982, 0.007914141388320266, 0.007138017640951671, 0.00353771058887444, -0.003225706926966458, 0.007854029177650629, -0.011203339054739244, 0.014178689365870934, 0.0001705604019220328, 0.007006709245811438, 0.007056306535584427, -0.0006679234747145106, -0.0012587706301447582, 0.01158848609065721], [0.008730355447636149, -0.015073872123174216, -0.014406498893315188, -0.008017974444402035, -0.007555310075822812, -0.00951723795979074, 0.0025004085314925682, -0.0037345356751478024, 0.010464955062722733, 0.012949770389992891, 0.00036121654120532625, 0.015169975757545645, 0.0017147719219892804, -0.002346639952044362, 0.0031353855802224166, 0.01055740470127097, -0.011770982079898332, 0.002844993314449843, 0.004794824250492485, 0.004481083315253609, 0.0017911644017729851, 0.004073361993059676, 0.0014076251734586164, -0.003426524452260748, 0.01505640713900468, 0.00030294371023427446, -0.007804253157672515, -0.009431792071408162, 0.005420340672745718, -0.006795312840910273, 0.01870391664503472, -0.005483987400714579, -0.015763457402350183, -0.0013636522310925042, 0.0009736308339684071, -0.019880701210498265, -0.002548595314820151, -0.003054761982728705, -0.0030496474326009953, -0.004894522538498919, -0.01095413934041505, 0.006945057806700693, -0.003422796970643006, -0.007199714167404913, -0.0048018546186147865, -0.0005057904147016179, 0.004365110217048403, 0.00939077660110956, -0.0016519532931668292, 0.002123186174088064, -0.004305558675511541, -0.019892048044964944, 0.00984137979971304, 0.023171634697407635, 0.013017574674961788, 0.0035449249918906717, 0.01221914206585286, -0.005933524488794656, 0.0019983160436739932, 0.0024489440119233245, -0.009840930093278605, 0.0013637269191107747, 0.016702890974107373, 0.00838825420892706, -0.004550147043286842, -0.004018570099508324, 0.0020714285344014417, -0.00856137874590822, -0.00525199412969055, -0.014863815892476852, -0.008008669939267922, -0.0028412485372907663, -0.002978633251174525, 0.015438114876673324, 0.006388821186681942, -0.00100807648212663, -0.0019773401543412283, 0.004631767230602392, -0.0033848555253946848, 0.010160636390797034, -0.0051732050203611634, 0.015280286163225985, 0.007872973396750922, 0.01384666322419405, 0.005468115665730005, 0.014918921057519801, 0.03405968557942375, 0.01227383599972029, 0.017739332067352363, 0.02722674702163102, 0.023295691688349763, 0.01951771298064409, 0.009306715744724253, 0.00408449558952618, 0.013512650626063726, 0.01441179331185693, 0.009055263136449384, 0.009769124717885913, 0.005747802428699857, 0.00823243240816814, 0.019040344836958812, -0.004722850942679565, -0.004134779861893441, -9.713494367908447e-05, 0.006686210630039123, -0.010473321764607432, -0.008951372218717245, -0.019835078598886245, -0.0023207181694210066, 0.006971543051676719, 0.011779956375165471, 0.007475110031438638, -0.0014726831309268859, 0.012770252370137803, 0.01037187758900015, -0.008791056898230558, 0.00042186032857381695, 0.02543063169623307, 0.01370236195266332, 0.004092522695904837, 0.021120424939149934, 0.02032120770106059, 0.013235622571295222, 0.021322667892376797, -0.01788189334267522, 0.025587472393668445, 0.033017240735292684, 0.010315339178723371, 0.03224307458479553, 0.022108417998155893, 0.019945663859842803, 0.02844089779825952, 0.008402740502197017, 0.0329485007898645, 0.025033607678232723, 0.01601590814219608, 0.0027714610724551255, 0.015409882450774556, 0.01233498275618535, 0.010544380197795803, 0.02311224933117378, 0.014486691354256192, 0.0010745071828339697, 0.006746148856938059, 0.008016053983914048, -0.004220342253745268, 0.011146431647389854, 0.006604147142311396, 0.012365714839165032, 0.010557620653392384, -0.004998566558478361, -0.0033251752481855443, 0.009423307292737498, 0.019202614073374577, -0.0086996176265597, 0.003771052737913553, 0.001575456171864571, -0.013982640789100324, -0.001360750942180201, 0.0026957260582855737, -0.012077460562820379, 0.013875728994034242, 0.011850626146234949, 0.005424575816498671, 0.029485522787245547, 0.024241878797108072, 0.02263073888391475, 0.017705667855000863, 0.014041061410571732, 0.0067623268626529, 0.00678027020819725, 0.02187807810039912, 0.008935583679208124, 0.0190600040829979, -0.009204162861002741, 0.004406515606471075, 0.00866689989944756, 0.0037072460343238957, 0.0011411925191134027, 0.008967505647854885, 0.008655666767837172, 0.004133798264714102, 0.011257566466691408, -0.012118872562053244, -0.006124789610344548, -0.004416126113464432, -0.00807725515219846, -0.002964896506884279, -0.020914382471078644, -0.013985788658272887, -0.020648114385322297, -0.019740345246023194, -0.006019929797299772, -0.011421346250819843, -0.013451939641421225, -0.009115840283126205, 0.0012847782313420552, -0.02412396919834164, 0.03265471988816492, 0.007032949488372936, 0.01998826564338295, 0.008434650210020442, -0.0005823188199681863, -0.010746563045139117, 0.003266333635375713, -0.0023438555682644712, -0.0007135093953353737, 0.008078499688397488, 0.003089898978006844, 0.0035221125228268287, 0.0009886047704058276, -0.010953581824711234, 0.008911363286404352, 0.011002117148330492, -0.008457508825710126, 0.007222117821125649, -0.005570107235070726, -0.006320375033547506, -6.763081864804162e-06, 0.012495438919682623, 0.007308829759187426, -0.0016407679837902767, -0.01741815851482326, 0.016556566702889547, -0.007482914068568573, -0.030696353377786992, -0.005493998401003929, -0.018225518475710474, -0.005460166904827443, -0.004829289782727169, -0.022070050397110907, 0.015722303365109172, 0.0016058278634917403, 0.00851864148623341, 0.016650552538725848, -0.003910465703392136, 8.609273264818581e-05, 0.007549836693326641, 0.009938908064381772, -0.017333686935765764, 0.015794702824469542, -0.003410577329815442, 0.0023285357467969408, 0.003952897581832091, -0.008127479149013262, -0.014664348773040174, -0.01861704446934319, -0.008799695781723417, -0.018408208500421644, 0.0018665332990284798, 0.01303869724687408, 0.0021430193942063433, 0.003966254270420639, 0.007527701545504325, 0.00864894431126049, -0.00133642598872143, -0.011128482002019498, -0.0004952027784563334, -0.0014993505932211352, -0.008789229561850865, -0.00433507432321812, -0.010283829791361807, 3.9573631420506256e-05, -0.02173975764594447, -0.013502037140017875, 0.01055309408872833, -0.008316528239996068, 0.004691917792694262, -0.010091337177079227, -0.004035303698434607, 0.005582721513023276, 0.013087335112714048, -0.00926265514082186, -0.006877840814577386, -0.000158291252500811, -0.014543212419030015, 0.003367298947097814, 0.0018606838736738207, 0.008638381430397416, 0.015259191695384951, 0.008582906765688302, 0.007031477426662758, 0.005361244048785795, 0.0012316874026290078, -0.009061694386781456, -0.0025291135946922776, 0.004817651579608426, -0.0041098015647720795, 0.004151163054091557, -0.0017406666292301336, -0.0035308660960997307, 0.0028177222363794862, 0.011357972290985107, 0.02047015402706582, -0.008170624759242132, 0.005490139968094453, 0.01771603445843358, 0.0013388301891653022, 0.004967606846791086, -0.013503548228509271, -0.003921601871975954, 0.016761148359344745, -0.012840996920796344, -0.013485956708018445, 0.0014596036317455294, -0.0020582124140138174, 0.008901639241526479, -0.003893181023377361, -0.004320375741642796, 0.007942535835203976, 0.008736949462108247, -0.001052465404075261, 0.0211426742489895, -0.00016427851003720262, 0.011491143656331953, 0.005847768769805998, 0.0014833088285018722, 0.00022720973807115874, 0.00228857890193171, 0.0021317062946648183, 0.004608382252928368, 0.011250593302882684, -0.002800519253692052, 0.005387578623045766, 0.005857594893731152, 0.0004559581772462327, -0.008397834970241968, -0.0010429221796112742, 0.003838728329638805, 0.007753981298568193, 0.01939353571287088, 0.00413648378749091, 0.011938177377604492, 0.0046329485487477335, 0.015158158057602114, 0.020608575331572367, -0.00696117762371147, 0.0133503676596268, 0.011117770908300179, -0.012708964204632679, -0.0015738694325921779, 0.007359465648390036, 0.010041621499016136, 0.0041392709679979635, 0.0006156286052737735, 0.02205122046210873, 0.00965566463860553, -0.00988299885542936, 0.016282838627085194, -0.0017378057287395104, 0.009167612030271862, 0.009486549124302125, 0.012688158808396839, 0.014978719029395366, -0.008298137707780961, 0.0033616325522667703, 0.02342547629989064, 0.011062022312683172, 0.0033216169594571785, -0.003392716673898749, 0.0017132525078212997, -0.007103753210689315, -0.010843221155451499, 0.00868523883589479, 0.003599957793570249, 0.00016469194340466376, 0.012143982291865434, 0.002990119765933732, 0.028323366054651692, 0.011585531106118523, 0.024091513349469657, 0.006597555080768562, 0.016057527942469212, 0.02683026191321156, 0.010585558140942924, 0.01925227452167026, -0.004268367047137506, 0.011735732755030976, 0.0097915369765663, 0.016673286490946407, 0.012438914631203378, -0.011647838485698718, 0.004164138844512738, -0.0028553859227336523, 0.004655230522631219, -0.012465534898410074, -0.010899889221853762, 0.00879396765604714, 0.0032072405054472245, -0.013386538999639886, -0.0018692287490211193, 0.010421716477262236, -0.016320307230124165, -0.0011611930596979558, -0.0014148926887312587, 0.0027890141216082806, 0.004503635915403, 0.016411292441150704, 0.005276404134470969, -0.0038706232383885434, 0.01154677948787546, -0.0049933655350823435, 0.006852708538135746, 0.01587299007902135, 0.014492261967865174, 0.01290454576359737, -0.014025526637550516, 0.00869671291720599, 0.0045200222069866815, 0.01893112023072784, 0.022905870793945488, 0.01519220390636379, 0.01675337698716416, 0.015343407526683346, 0.018700290223324853, 0.010872159120854596, 0.005002878874492907, 0.01211919159146756, 0.012658512153056932, 0.02301238980495636, 0.00775826167863657, 0.010670860681054294, -0.011221693368172315, -0.003781836361744154, -0.001326097831452353, -0.006050772444060237, -0.001548642634084927, -0.005069410346923692, 0.004102849978055842, -0.008465880131075796, 0.0011014723553580319, 0.0005774966678688618], [0.0012241096957676164, -0.00806046328948218, 0.011902239173995782, -0.001926179997615897, -0.01224212071417031, 0.006815694127381043, -5.466047164483251e-05, -0.0008527564870974592, -0.0008704274626934859, 0.0032690778972713436, -0.0005266399132882405, -0.006790196844880636, -0.01225633282876547, 0.0024470393300672372, -0.013264322243569965, 0.00927928214436715, -0.008295698943720965, -0.00761679135363361, -0.008598759697846703, -0.011781025165308824, -0.0069369492846792485, -0.0026419663447859853, -0.019977777989342298, -0.02112398779824729, -0.006353164559523257, 0.007291033479511175, -0.011414404931161793, -0.0009365068890075089, 0.011926555985344669, -0.01162344346970539, -0.003923175170134801, -0.00647294857882553, 0.007335591477732953, 0.003874898467305299, 0.005207521090055838, 0.02113956427034418, 0.01385793436384432, -0.0008433154761284513, -0.0017003045089324614, -0.012339958898178287, -0.01460415865869907, -0.00041360074029344213, -0.011166692591776104, 0.005207020630078939, -0.006950106413477724, -0.005285070124577285, -0.013474408383788454, 0.01728916362842802, 0.005894880459317872, -0.0065032204844535525, 0.00028680805173993053, 0.010568643524114258, -0.008496438008169667, 0.015139589172989708, -0.009419929542636403, -0.002099852450898202, -0.014977118173299017, -0.022260882085938016, 0.007962494657555457, -0.00021317082481586992, -0.015713010907066054, -0.0148306991247355, 0.008461473994141974, -0.0023355642150364405, 0.01123129048442792, 0.004030022054934667, -0.0012273184313296459, -0.00029530101289967117, -0.005638582886105756, 0.0006027805879229942, -0.0006981057389906111, 0.006781159050702202, -0.0013924896688859436, 0.007003461690561864, 0.007863073546295335, 0.0014955024402021192, -0.011208653363637478, -0.0013633168765122376, -0.016408911194692274, -0.010437780315734347, 0.00590173210609468, 0.003782740382846373, -0.000375858216678208, -0.003306983379791572, -0.00688028777144563, -0.004850859765400479, 0.0073428747450663915, 0.003368612704598435, -0.01225502321439609, 0.0009179150959942844, 0.00036329133213821473, 0.01333146142892462, -0.01576078576705062, -0.007907887546034335, 0.0071695392148884585, -0.010874671421881857, 0.018503561921670804, -0.011698918264125903, -0.0019845902988535006, 0.0031629918658599328, 0.005981300385568256, 0.00394392895318694, -0.004778977914379728, 0.006993148921817935, -0.007663163628621978, -0.004832590230882368, 0.0036554074884005985, 0.012373092659837335, -0.0019401776201423459, -0.007567946819967302, 0.01030776306063996, -0.010800544773235323, 0.015603980216773169, -0.008388582030168474, 0.005297433521692454, 0.007768943783020087, 0.006485075844615282, 0.0017438852204464468, 0.00031108367228153467, -0.014377601332699372, -0.00679682848632727, 0.006119440174846637, 0.00533309453641616, -0.009344366306922062, 0.002628476376397539, 0.0014949876046503865, 0.013523759761430255, -0.004647521538220996, -0.006041726531217433, -0.009972432779935494, -0.010402449677578895, 0.0005003011537541985, -0.008018749470699608, 0.007244150659575101, -0.007977162723283731, 0.011909475181150733, 0.00251105212950123, 0.0006937282514004458, -0.010160801787452359, 0.0024672543234511763, -0.00013114897298520755, 0.005258640903151344, -0.004432312314744112, -0.012528989870251658, 0.0023419458284909375, 0.0011921145084614938, 0.0020769712645746247, 0.00851808372529026, -0.008017757226140074, -0.020291313294315175, 0.003947436008903857, 0.0033873174011101984, -0.0041630621524491275, 0.0014015565685811862, -0.008905005773037915, -0.018067556388876284, -0.014505466441169592, 0.0003608620521512277, 0.011329780111297703, -0.004278189833023339, 0.00602516890029949, -0.006580248379226623, -0.002994347191742809, 0.004492611086726581, -0.002098416126751025, -0.0074227871723023305, -0.009953744572304753, -0.0043620642354659555, 0.00846786458152744, -0.01473598487236006, 0.0053357677020100785, 0.0020300572131752804, -0.008488982354349106, -0.0006112947468847221, -0.0016971535941039556, -0.0079931377588864, -0.00454263490669403, -0.010663144747297092, -0.01759551453412192, 0.0013214550069774477, 0.008877010522035414, 0.01388459440847962, -0.009461536648262867, 0.01820476722144329, 0.012918752368902624, 0.012029322601212653, -0.0068925924109502126, -0.004965696801150345, -0.016753358095090355, 0.0012278176072569313, -0.0036384664943589756, 0.0008109887128195357, -0.007730962799409115, 0.00522990126097618, 0.0019353945036619609, -0.011461906482565978, -0.001967946890826269, 0.0001270199903012425, 0.013963372311436432, -0.0019030978411173612, -0.011584112807528527, -0.0050510767797897335, -0.002378253017606136, -0.00398590797131692, -0.016529707632671888, -0.0034450559615090133, -0.006843050939574369, -0.0023421688216975984, 0.017959241235521613, -0.007344049408615628, 0.012190940921266376, 0.009847401095672668, 0.00561455728130895, -2.612007611992171e-05, 0.005535940369780277, -0.0039519120219429354, -0.004666430760695725, -0.006384068420275593, 0.002300329121063582, -0.001930384320530245, -0.0022071337138750667, 0.011855295057319156, -0.006558107091185386, 0.005707701172769648, -0.0052208213816913535, -0.014644412562120152, -0.01314478539098443, -0.00573773821961919, 0.0036871047069528436, 0.003959333182438736, -0.004431518165443157, 0.0023728859850668162, -0.0018170644128339187, -0.0058518856164636625, 0.003997905794512284, 0.007265913247382945, 0.004788387591041518, -0.0044806172208166585, 0.0031703037872092368, -0.02048564274986894, 0.0008682045615237537, 0.002368146365420506, 0.00028033387560504703, -0.002400643831042594, 0.010586911196791182, -0.0017183400877017565, -0.0015930510205331158, -0.002378268681953, 0.008010661420636583, -0.0027314574859674916, -0.007263080996712844, -0.00137329604588633, 0.014484941728648277, -0.0026063568475602856, 0.005176869937139023, -0.0026622500077157158, -0.0026773018350421045, -0.005195692391824524, -0.011320524054348751, -0.0019154058150943518, 0.004798499879540103, 0.011552233033824168, 0.0019377693036111245, -0.009459094756593235, 0.0034195012967277276, 0.0011375254655036817, 0.008018051191786045, 0.01381806347157894, 0.006832691422396724, -0.008195960108144811, -0.004748885278904305, 0.006800093425108902, -0.008549903598112488, -0.0030765122080604478, 0.003703039215789905, 0.006617271273195038, 0.0007683308038349732, -0.02568695860349156, 0.001301855857680535, -0.003607671472147529, -0.009172710665920519, -0.0012733687835258568, 0.008814373748394689, -0.010196365463918906, 0.01232678800380395, 0.007907610115621789, 0.007634867844851602, -0.007605681092008855, -0.0022009719845354487, -0.0033313315273200907, -8.688154640117807e-05, -0.0009491981416192779, -0.003131698580552831, -0.0020583486316174834, -0.003004802880076135, 0.0010886849756932312, -0.015602895397434412, 0.0018551630630814695, 0.012292422110055257, 0.0061201544192063684, -0.01154091835926886, 0.005744151820322098, 0.015048706926435283, -0.006008024108071, 0.0025289890982191704, 0.014704326380184264, 0.005857540559797056, 0.010447541653680363, -0.013138393047313535, 0.0003640038518159085, 0.001824381419053978, 0.002541784876863161, 0.005591723633841724, 0.0002827027777749575, -0.01281122075066502, 0.008072835768929826, 0.002342284715764729, -0.011541562651693175, 0.005693748413109619, 0.0040560656461354466, 0.0034039157594826794, -0.0028577811797061885, 0.013556251770573378, 0.004237303073881811, -0.0067923816704004705, -0.013199824699429985, -0.0066230832434120085, -0.020595718078752812, -0.002671826741379468, 0.0004978612238354488, -0.011514150242830189, -0.005886301671193405, 0.011440697798182091, -0.0013626375444259202, 0.010880087039984065, -0.0048094721357482455, -0.004475310583223673, -0.02153870383858798, 0.002163444089479774, 0.006602996744585618, -0.005605789847750842, -0.006338493736074062, 0.005086460736587659, -0.008033437798409633, -0.009176548289503426, 0.001696602868155173, -0.006074770637786152, 0.0037891110579476852, -0.008549066082265083, 0.012182051326560419, 0.004536311234607299, -0.000115454195586029, -0.008046902705807686, 